764 256
' 0.003504265 -0.043610204 -0.016456302 -0.026852673 -0.0074447533 -0.020256024 -0.026462898 0.015610998 -0.09396462 -0.064161785 0.03943534 -0.07906953 -0.12559877 0.0015984416 0.018361302 -0.07608594 -0.04209952 -0.022833623 -0.010254069 -0.09296385 -0.07914999 0.040571015 -0.057983242 0.014905028 0.14546016 -0.089656375 -0.06809153 -0.07642616 0.038650416 -0.18851376 -0.08208221 -0.08038973 -0.05113957 -0.0061675753 -0.08186764 0.0072625466 0.081307724 0.03624957 -0.09056791 0.093433745 -0.057506137 -0.03500422 0.019356651 0.04605105 -0.120590836 0.021824302 0.014517356 0.040878206 0.10899223 0.09188872 -0.03385591 0.03130147 0.1130783 -0.07240319 -0.092498906 -0.0073064594 0.08863912 -0.0477589 -0.025443502 0.080000006 -0.05139254 0.051451728 0.007855603 0.097741075 -0.15696704 0.070656516 0.06628266 0.093232565 0.04628026 0.013801423 0.016131325 -0.028271556 -0.007931735 -0.016568724 0.048193306 0.07560304 -0.005804686 0.038175024 0.05805504 0.04133604 -0.0418792 -0.027198508 -0.018658984 0.17807499 -0.006808526 0.028290821 -0.043304596 -0.117078826 0.19029169 0.068359405 -0.00874046 0.046215855 -0.09148791 -0.09969588 0.14285818 0.03379468 0.13865696 -0.106315106 0.0045984196 -0.04023144 0.16600953 0.029652264 0.061955232 -0.069407165 -0.031131785 0.09128084 -0.11324291 -0.012116117 0.1166939 -0.07216677 -0.10749457 -0.13316993 0.013704043 -0.011238145 -0.051858827 0.068777606 -0.1184825 -0.017226938 -0.038131032 -0.096672446 -0.0650461 0.0055800322 -0.005421809 -0.14612393 0.0035996647 0.03683243 0.020092543 0.048579067 -0.058459543 0.03639616 -0.052492544 0.18032482 0.01951377 -0.11237205 0.22493237 0.018716574 -0.12463968 -0.0028002867 0.039014194 0.008619228 0.057880815 -0.021084022 -0.051112544 -0.03843727 -0.057527285 -0.05488609 0.007060487 -0.06475821 0.059904605 0.03733513 0.028941015 0.132638 0.15664378 0.0007356208 -0.1834778 0.023820994 -0.041106716 0.049194973 -0.008252713 -0.06648642 -0.10417895 0.052172616 0.057630472 0.069429114 -0.050499804 0.004384937 0.048049457 0.039230015 -0.13972774 -0.039681345 0.097331114 -0.082658455 0.044195917 -0.030611502 -0.0046025286 0.059370972 -0.032220773 0.06545067 0.1415511 -0.04556388 -0.056948993 0.07286203 0.049154915 -0.104107514 -0.039889358 -0.006444869 -0.03588422 -0.07389777 0.19470432 0.05343967 0.012680806 -0.0020092449 0.016314106 -0.056105275 -0.12788416 0.10855126 0.04028837 0.013563853 -0.034941077 -0.077901006 -0.025362127 -0.03591333 -0.054550096 0.043116573 -0.011764678 0.019388292 -0.13059598 0.06151356 0.055325616 -0.017848877 0.039256815 -0.016622351 0.062555894 0.022806354 0.03621132 -0.039074697 0.023373527 0.09539043 -0.0032969248 -0.10406811 -0.0031861614 -0.13999224 0.032005273 0.09799281 -0.045927472 0.07967779 0.018110342 0.08514081 0.091051094 -0.11978177 -0.07252585 -0.06588264 -0.05135018 -0.021470364 -0.10547597 -0.25716677 0.08588556 -0.18472764 -0.123221375 0.0844423 0.1273464 -0.20475218 -0.041988514 0.04679705 0.04911419 0.09102031 -6.886979e-05 0.1321957 0.06928111 -0.06279186 0.1251984 0.04197256 0.098988056 -0.048026238 0.0841915 -0.03788536
, -0.012493252 -0.014356942 0.072422355 -0.054160252 -0.10630235 -0.021206282 -0.04725471 0.15066096 -0.09005234 -0.02045026 0.0140933 -0.00085736683 -0.139818 0.019730007 0.077835396 -0.12806399 -0.0531804 -0.020206843 0.029021023 -0.14013968 -0.012365239 -0.0067870626 -0.060163766 -0.01641071 0.170746 -0.14698607 -0.0846489 -0.0020009219 0.086279735 -0.15419571 -0.16567163 -0.025843319 -0.070142046 0.054913007 -0.06558334 0.06880419 0.0627265 0.04284135 -0.13290657 0.08445326 -0.0299462 -0.043051988 0.074356176 0.025770621 -0.038309306 0.07035012 0.022647422 0.013071484 0.10351768 0.11842582 0.036809538 0.0523357 0.049066912 -0.027364017 -0.07166684 0.042227827 0.06844285 -0.08636773 0.09071881 0.009560259 -0.074154176 0.04132665 -0.08017504 0.08167763 -0.108635426 -0.022008855 0.0652357 0.10077574 -0.007127836 0.08138392 0.023470722 0.058058772 0.0613816 -0.06688141 -0.009815598 0.053655334 -0.041720893 0.02129514 0.13504691 -0.024184715 0.05118224 -0.06628319 -0.024801483 0.14569992 -0.026090512 0.0032570087 0.0013885864 -0.02791714 0.23760659 0.049481116 0.012281614 0.106401734 -0.11064206 -0.05281018 0.13104928 0.053335637 0.13605891 -0.12637718 0.0014809628 -0.043750856 0.23527358 0.04522831 0.037537575 -0.06877648 0.017066237 0.012939574 -0.12854311 0.015974488 0.12364145 -0.02661418 -0.15031382 -0.15966222 0.07883562 -0.030313948 -0.045059334 0.07144946 -0.0985771 -0.060130004 -0.03396084 -0.18711814 -0.050236337 -0.017315028 -0.054933168 -0.18118761 -0.033788543 -0.008877072 0.04932739 0.023045605 -0.0047709695 0.01378198 0.006996633 0.11268113 0.07099727 -0.08859654 0.16968036 -0.02327395 -0.19257854 -0.03737411 0.027573513 0.055314586 0.07627999 -0.10312133 -0.033773016 -0.056812216 -0.10000805 -0.031275377 0.062343355 -0.07488739 0.021690145 0.049086716 0.0015579287 0.1152264 0.1427979 0.043897204 -0.16211163 0.01030557 -0.024220895 0.00025829804 -0.058989715 -0.06982363 -0.12037361 -0.0026209704 -0.053521324 0.066503786 -0.03932225 0.038634516 0.005769514 0.10725238 -0.077150196 -0.0153498165 0.030688992 -0.07649627 0.013452717 -0.055570997 -0.0021759367 0.06196198 -0.022316352 -0.006984689 0.10021518 -0.10222334 -0.056863308 0.05851563 0.051772475 -0.18565169 0.0477782 -0.0388276 -0.017487898 -0.059327614 0.10795152 0.061008252 0.0013888219 -0.027699208 0.009675883 -0.065726966 -0.11488886 0.09996184 -0.0014816871 -0.0077385698 -0.040287524 -0.054527752 -0.032592844 -0.03685507 -0.067163385 0.08247887 0.011766756 -0.0042954218 -0.12523177 0.030337159 -0.009578663 -0.041356843 -0.056008775 -0.036705963 0.013651433 0.05979847 0.041414335 0.0005483446 -0.062173832 0.052603453 -0.033872563 -0.054810453 -0.060924303 -0.101883136 0.07227574 0.058086384 0.025860665 0.03193814 -0.06658128 0.06842191 0.1355817 -0.074108586 -0.05485535 -0.03599876 -0.031617258 -0.03235278 -0.08602179 -0.19597366 0.094750546 -0.17279173 -0.07922536 0.057484128 0.19869176 -0.16904968 -0.04149779 -0.00216363 0.018537614 0.11413744 -0.02005466 0.16607964 0.0942969 -0.047070976 0.11318237 0.10910327 0.14199662 -0.036641654 0.09087442 -0.025072973
  -0.04987674 0.052182827 0.05118831 -0.07486816 -0.037484415 -0.07607048 -0.07379814 0.100357845 -0.10455669 -0.073160455 0.02460621 -0.057501804 -0.08494434 -0.01103835 0.059163034 -0.12505837 -0.0038550536 -0.05104897 -0.020706391 -0.11716418 -0.0519611 0.046319615 0.004466011 -0.009726859 0.18326074 -0.11122703 -0.020449318 -0.02242697 0.013109582 -0.16631833 -0.09942293 -0.044589914 -0.04031979 -0.0057545598 -0.045090333 -0.045488864 0.073154606 0.073903725 -0.08354971 0.07582112 -0.062057056 -0.031666543 -0.0027308413 0.063998155 -0.1286629 0.021905398 -0.051857706 -0.032024402 0.08249446 0.03285834 -0.00014612154 0.055178057 0.05330428 -0.102303416 -0.06444054 0.0071970103 0.07015674 -0.032888573 -0.023422401 0.028628126 0.012458249 0.029816419 -0.018816547 0.06490007 -0.21143168 0.04280433 0.020491358 0.047913633 -0.012414949 0.03404136 -0.038615882 0.1350547 -0.017684255 -0.073273964 0.0040948763 0.070754185 -0.019581765 0.003936146 0.010134005 0.026017994 -0.091156565 -0.04746489 0.029175065 0.21626961 0.016407099 0.026903668 -0.014365353 -0.16793741 0.16587129 0.036182318 0.03445775 0.046271503 -0.034100525 -0.116599984 0.17811337 -0.029204743 0.12961432 -0.065172285 -0.038256377 0.012150759 0.21592318 -0.0971864 0.0793615 -0.11391076 0.03779442 0.069855526 -0.065578125 0.054984886 0.158262 -0.05627364 -0.16009417 -0.15659538 0.016553003 -0.012753309 -0.020911686 0.06254087 -0.1664546 0.010824939 -0.028428482 -0.20426887 -0.17493783 0.05569265 0.012005213 -0.13978218 -0.038889285 -0.05264367 0.09008967 0.052884422 0.03986979 0.057086907 0.0024024753 0.144591 0.04760064 -0.07018516 0.21287511 -0.0805471 -0.12939431 0.025466941 0.023196703 -0.03585039 0.07408888 -0.007972988 -0.07207281 -0.06327468 -0.03475586 -0.064775966 -0.0006732072 -0.08511491 -0.0298482 0.106099665 0.011967796 0.12776445 0.13647303 0.048750106 -0.16867374 -0.055950657 0.029545078 -0.025498673 -0.096685894 -0.02267745 -0.10551708 0.032643117 0.042976823 0.123908065 0.0011332523 0.011883457 0.056664318 -0.010235969 -0.0714144 0.006041753 0.06266936 -0.13546337 0.0016658605 0.018127872 -0.06611905 0.04625163 -0.058869552 0.045777246 0.12999535 -0.032548655 -0.14282468 0.05892704 0.035765085 -0.09384496 0.08964689 -0.0669881 0.027116409 -0.044961292 0.18937604 0.097357005 0.09735365 0.03474236 -0.040105432 -0.096132725 -0.03604106 0.08316849 -0.018039836 -0.012636954 0.020890465 -0.05083639 0.0033004843 -0.081089035 -0.07271489 0.07693393 -0.008942459 0.014532717 -0.063010044 0.05015446 0.019326394 -0.055636954 0.0035752784 -0.027290726 0.10211544 0.0453594 0.057826616 0.0065333955 -0.028973995 0.04378534 -0.0011748826 -0.07912076 0.050559934 -0.07320712 0.030778628 0.041913513 0.014949324 0.11051055 -0.018135142 0.05876283 0.11904249 -0.059830982 -0.060440417 -0.0064911065 -0.0443433 0.0017032345 -0.06272053 -0.23968098 0.10619626 -0.1844823 -0.08080521 0.07129271 0.10628643 -0.17855231 -0.048202924 0.035703823 0.009361249 0.14403568 -0.09327349 0.14831291 0.08810875 -0.12408445 0.034475464 0.06889327 0.1152053 -0.015816541 0.039882112 -0.041009378
니 0.14941633 0.11985908 -0.031613726 0.041095752 0.19698143 -0.014174041 0.07804788 -0.082587086 -0.10654795 -0.14065593 0.078351125 -0.10433519 -0.22177301 -0.0040173065 0.029510407 -0.1886386 -0.05193457 0.04894247 -0.051675454 -0.0026885078 0.08955073 0.055358764 -0.014518269 0.058766272 0.103166655 -0.23870634 -0.084317334 -0.21216664 0.06268511 -0.13231194 -0.055620447 -0.38393718 -0.14839955 -0.044852145 0.16879176 0.011035083 0.08643499 -0.056805555 -0.012285119 0.082496166 -0.06617435 -0.13262872 -0.088272974 -0.1797435 -0.274069 0.04762869 0.0102634635 0.035209373 0.29000768 -7.221833e-05 0.01164413 -0.05460974 0.11372559 0.2447647 -0.23413819 0.023847604 0.24043642 -0.063008 0.19870205 0.020709207 0.1002842 0.017292557 -0.06803181 0.117048755 -0.06938719 0.21461308 0.15484618 0.10090693 -0.044573333 0.0094234515 0.15247375 0.067856744 0.048157427 0.0102798175 -0.10920534 0.0350335 -0.1039305 0.15398753 0.094707064 0.06439919 0.011209136 -0.10493335 -0.06345679 0.07232716 -0.09867329 0.11140767 -0.09627148 -0.20513247 0.27667224 0.024596915 0.04715433 0.12191301 -0.11008021 -0.2690086 0.1213639 0.08163016 0.22263204 -0.13246176 -0.06343703 -0.07458305 0.22905621 0.038661737 0.036423262 -0.10308026 -0.048919503 0.11961844 -0.15088563 0.02214823 0.010497256 0.12271502 -0.13549648 -0.09458289 0.076376356 0.06900393 0.011256895 0.018370034 -0.07258671 -0.13641901 0.06585666 -0.08806803 -0.11795197 0.14194985 0.016878255 -0.2014409 -0.08916333 0.23782216 0.040537734 -0.066492915 0.007558752 0.11020999 0.009201214 0.0004481201 0.14971139 -0.014263893 0.19957115 -0.032756038 -0.27773762 -0.12631485 0.026256919 -0.14812034 -0.013404342 0.17711884 0.20324995 0.10071422 -0.09351976 -0.20009942 0.03476555 -0.22135912 0.034490332 0.13743863 0.12534077 0.1572515 0.45437554 0.09935241 0.21870445 0.075254135 -0.23059146 -0.061418854 0.03785767 -0.09218286 0.082426816 0.10329625 -0.07497255 0.12683414 -0.06302141 -0.04029855 0.1895506 0.08851604 -0.13514385 0.020841198 -0.07044537 -0.24905245 -0.10212166 0.030306298 0.12953873 -0.13161294 -0.106859475 0.05826726 0.11460612 0.025014143 -0.059988104 0.10486343 0.058637656 -0.19927816 0.10080132 -0.070244 -0.14218199 -0.05341343 0.06695819 0.03079216 0.13299944 -0.02746029 0.03976932 0.0011156682 -0.0699135 -0.010200008 0.09668488 0.15401079 -0.10805921 0.02948212 -0.1317046 -0.10973934 -0.100327715 0.029469386 0.007629191 -0.037635684 0.11278184 0.033273004 0.087879345 0.05314013 0.22445372 -0.21727364 0.06695512 0.11472984 0.059434738 0.05106309 -0.08128352 0.047622584 0.08294773 -0.108549595 0.120720625 0.17393823 -0.0018406088 0.19505557 0.05210203 0.099026054 -0.15281805 0.05906734 0.12350766 -0.17575954 0.26530686 -0.12257478 -0.10711959 -0.01029743 0.16360107 -0.35017747 0.097421505 -0.24139254 -0.20587583 0.03376538 0.04675458 -0.08042597 -0.05796731 0.0031158803 -0.011610196 0.10832453 -0.18090229 0.047620118 0.101182096 -0.13331251 0.049628645 0.007180178 0.15319116 -0.08895658 0.14974864 0.036577303
다 0.116126075 -0.01811584 -0.042428207 -0.032034177 0.048447084 0.11378737 0.04098321 -0.075254336 -0.24179788 -0.20588818 0.10158853 -0.020013295 -0.24119402 -0.19279581 -0.10582582 0.09167737 -0.1865293 0.073371276 -0.06758375 -0.015046963 0.041321553 0.26300472 -0.020955637 0.03852788 0.10750165 -0.009239606 -0.26780647 -0.14462112 0.103071935 -0.20222484 -0.11966969 -0.18608584 -0.295908 -0.044583946 0.13155101 -0.05535274 0.17630145 -0.022225616 -0.014142523 0.071184635 0.02069348 -0.09342897 0.08795304 -0.2904945 -0.24909073 -0.086799994 0.12154613 -0.0007930925 0.2659665 0.18197234 0.05066755 0.011174082 0.28846943 0.042172108 -0.043878037 0.04053297 0.22234252 -0.017016662 0.12629817 0.09658972 0.12769458 0.060494483 -0.07423641 0.13060185 -0.2087175 0.20579578 -0.028206648 0.06342188 -0.12072675 0.14747185 0.17498052 0.06532342 -0.015329661 -0.10873208 -0.05622541 0.009856213 -0.033310432 0.09781005 0.26943251 0.0012033138 0.057144824 -0.12351895 -0.037742607 0.13046016 -0.09950539 0.18758632 -0.11444833 -0.27898297 0.11472977 -0.035486307 0.067990564 0.110386714 -0.05134101 -0.11079631 0.22769421 -0.12942857 0.119007625 -0.14861609 -0.17242073 -0.07188518 0.13610455 -0.06204865 -0.035736408 -0.18276274 -0.10911985 0.18850158 -0.22981848 0.06254175 0.029067002 0.13599433 -0.15419085 -0.06544069 -0.123922184 0.13211636 -0.08444368 0.24023744 -0.22616029 -0.053880893 0.08738893 0.02557898 -0.036779534 0.14586696 -0.0060187504 -0.05775551 -0.028987361 0.04890665 0.12425136 -0.03392414 0.096282214 0.16975248 0.009815227 -0.0036147546 -0.0029344968 -0.1842876 0.251124 -0.01960581 -0.11034417 -0.10011388 -0.025309207 -0.16269147 0.0911527 -0.07494447 0.18938464 -0.13025375 -0.102155894 -0.00041055738 0.19050673 -0.109948106 -0.07242221 -0.042117566 0.16652259 0.10724687 0.30089974 0.06809854 -0.03368969 0.10784145 -0.06758815 -0.09612892 0.034804735 -0.09451578 0.047235273 -0.039016623 0.053809687 0.10320342 -0.096689746 -0.054501154 0.052899808 0.040326063 -0.338245 0.014102003 0.05074951 -0.33552012 -0.045996323 -0.042290494 0.108218946 -0.029852802 -0.08801353 0.0127286725 0.036596406 -0.05872731 -0.035879 0.07088456 0.10331775 -0.19582474 -0.14879017 -0.30532143 -0.17002353 -0.029449658 0.08069682 -0.007738763 0.146034 0.094071664 0.09017978 -0.23150715 -0.13269617 0.06966406 0.10012467 0.03812792 -0.0070334882 -0.07843553 -0.13791741 -0.08589828 0.060439937 -0.050170027 -0.07694717 0.011115181 -0.04812845 0.18554467 0.112679385 -0.052481983 0.049625948 -0.09106892 0.10206342 0.16363895 0.0022312352 0.0039276187 -0.040437363 -0.0025216579 0.01539132 -0.049892146 0.025918629 -0.017508803 0.07597275 0.13258673 0.13902564 0.04833353 0.0021399069 -0.13255025 0.015293216 -0.0064056376 -0.13177183 -0.09381642 -0.17394122 0.013829236 0.061903577 -0.27452463 0.06660212 -0.2436227 -0.26818278 0.0008729492 0.12695137 -0.060351532 -0.12068859 0.14993694 -0.07087806 -0.06579289 -0.13554186 0.108634904 0.23077364 -0.048441213 0.07646457 0.10526219 0.059486263 -0.20168309 0.23153742 -0.040203616
네 0.14018568 0.081334844 -0.003989068 -0.15634505 0.137358 -0.07523038 -0.03791987 -0.07569935 -0.116255246 -0.117807224 0.08106832 -0.14676139 -0.18700537 -0.0034044501 -0.18870287 -0.15223478 -0.2683984 0.06097846 -0.034139626 0.04614365 -0.016737133 0.14522903 0.0030518165 0.032485805 0.10836627 -0.30104253 -0.18954706 -0.2017949 -0.012765106 -0.18613587 0.048575036 -0.19743069 -0.064833716 -0.051440064 0.04871105 0.16876632 0.018151557 -0.115146935 -0.048935972 -0.009267259 -0.0678179 0.04470083 0.17070374 -0.17686075 -0.25728488 -0.063408084 0.02699424 -0.04266652 0.13646412 0.07753386 0.16329649 -0.13882987 0.14053562 0.064296246 0.07799506 0.06516627 0.32506564 -0.27180323 0.20979345 0.029623877 0.08654331 0.06913411 -0.22721145 0.09603915 -0.06579387 0.19046786 -0.044891458 0.040677536 -0.01877025 -0.070712574 0.14716762 -0.10658002 -0.01675731 0.006936687 -0.060211815 -0.053774897 -0.009758968 -0.13773757 0.12557834 -0.047290463 0.16297433 -0.074803434 -0.06727052 0.09583307 0.09775138 0.15264775 0.09715401 -0.2315949 0.1098049 -0.021668658 0.09294007 -0.08610457 -0.1635915 -0.08271434 0.1272909 0.099930346 0.16815259 -0.057165485 -0.11365318 -0.15966508 0.23040153 0.039228532 0.08781573 -0.12714407 -0.07559145 0.15270665 0.056016825 0.017730618 -0.14121608 0.17414907 -0.10680357 -0.100992605 -0.06502229 0.11029108 0.02692631 0.15050559 0.043801766 -0.049278628 -0.0886229 -0.107007936 -0.045534592 0.04351881 -0.03773974 0.008040906 -0.0031286315 0.2529664 -0.00017521332 0.03933743 0.016866088 -0.0067614005 -0.10849872 0.061653502 -0.01053846 0.05124583 -0.044714745 -0.051477447 -0.029676903 0.08567657 -0.08550129 -0.14924918 -0.08880975 -0.007326675 0.030018339 -0.10978866 -0.05678897 -0.09578661 -0.033474468 -0.09030529 -0.012786561 0.05249262 0.11347204 0.154121 0.33015642 0.04780482 0.06953737 0.044865597 -0.0035410572 0.08721319 0.039438445 0.032735474 0.17586543 0.09503796 0.013647335 -0.026938707 -0.023414772 -0.1148297 0.25008878 0.09760111 -0.22321945 -0.12278071 -0.021064857 0.08192211 0.14298554 0.20646325 -0.051813126 0.007014403 -0.23526168 -0.046755083 -0.07935258 -0.16754498 -0.07936148 0.16228937 0.089424714 -0.34832025 -0.041918986 0.058896884 0.044896256 -0.0021708505 0.20041275 0.12467607 0.014026403 -0.060916383 0.04064172 -0.28378096 -0.121460155 0.06756332 -0.022480894 0.0055617047 -0.02057146 -0.05063973 0.09268552 -0.19384077 -0.14440297 -0.1303297 -0.06056919 0.028775934 0.128956 0.034370273 0.13947478 -0.13819489 0.114631794 0.061075956 0.14549857 0.056705825 0.28036362 -0.14431834 -0.12111196 -0.046228755 -0.036750715 0.12748376 0.06807041 0.19737765 -0.06281757 -0.033298884 0.15796852 0.0791521 -0.06465846 0.13933894 0.09023453 -0.090962276 0.29429707 -0.08647709 -0.27016518 0.06818267 0.12783279 -0.32028735 0.08428704 -0.06538565 -0.26097074 0.037017155 0.1667413 -0.13884811 0.055037208 0.14515641 0.029962838 0.0271064 -0.18096359 0.27059278 0.027934602 -0.06280195 0.09152337 0.06643003 0.24245144 -0.18801524 0.35197303 0.027691815
드 -0.035055116 -0.30902997 0.010621415 0.11674116 0.2611763 0.0713675 0.05808624 -0.14567816 0.00554735 -0.2608546 0.19196603 -0.09156391 -0.27561694 -0.057183232 -0.03770052 -0.16493244 -0.07423305 -0.11963224 0.08921041 -0.046972744 -0.053874865 0.14391758 0.13686702 0.1338286 0.22880983 -0.30243778 -0.07343899 -0.09497944 0.037082694 -0.19268416 -0.07511885 -0.06989186 -0.07871397 0.04990104 -0.29791477 0.07083191 0.15664609 -0.033252086 0.07000932 0.2385823 -0.05581614 -0.1504695 0.12702082 0.13284595 -0.05609123 -0.111511074 -0.044307232 -0.20513764 -0.0333899 0.20184927 0.06007676 0.08906304 0.0013293589 -0.018025145 -0.09688075 0.24612918 0.1550958 -0.08900524 0.17590888 -0.011113625 0.08544521 0.26365447 -0.20678435 0.09061642 -0.033899184 -0.07004523 0.048293266 0.24092914 -0.1577626 0.019953247 -0.00809066 0.2525423 -0.25575703 -0.014023266 -0.28097892 0.2773204 0.0302866 0.14156356 -0.021708313 0.00325823 0.08793549 -0.030054493 -0.031253863 -0.055435527 -0.10031923 0.0011962221 -0.13425712 -0.19884846 0.19187248 0.14129089 0.11546143 0.01623132 -0.110823646 -0.26138076 0.14215282 -0.013607008 0.13568556 -0.003203035 -0.09965249 0.2692692 0.068120316 0.056142244 -0.018089717 -0.24733698 -0.0821423 0.18887529 -0.025543034 -0.041744176 0.109061345 -0.0924285 -0.20854607 -0.18201715 -0.04680721 0.16082145 -0.10516563 0.31985927 -0.21242173 -0.0061423965 -0.17004727 0.19285446 -0.19936508 -0.15457916 -0.12994708 -0.3287988 0.17434497 -0.25698313 0.08897265 -0.19463934 -0.037422236 0.25101325 0.29302076 -0.012050798 -0.020914234 0.30213985 0.2192525 -0.16453172 -0.3708658 -0.013317372 -0.18659782 -0.12139666 -0.21616675 0.106309764 0.019566327 -0.076619625 -0.14785199 -0.116996236 -0.17547676 -0.1482692 -0.025547726 -0.034029275 0.064737104 0.17905322 0.28484878 0.15138915 -0.015583051 0.23275658 0.057114106 -0.093537316 0.07216406 0.04769428 -0.112743415 -0.11852711 0.023599949 0.13330574 -0.002175211 0.20554775 0.2953053 0.14593977 -0.12049644 0.040108405 0.11014277 -0.3348029 0.12539306 0.30371472 0.082403146 0.022633124 0.14833337 0.027790612 0.13491145 -0.16414467 0.08333997 0.16275837 0.14625476 -0.27565965 -0.007679078 0.2439663 -0.10428865 0.07451298 0.20808852 -0.019460354 0.013764708 -0.03880569 0.030294739 -0.122516096 -0.09596353 0.15450709 0.14714225 -0.1618302 -0.12338747 -0.13721412 -0.15257192 -0.13081047 0.10155874 -0.083524734 -0.05487269 -0.069147676 -0.37609038 -0.019209133 0.010638688 0.005848092 0.054820754 0.0037163233 0.06156687 0.16172634 0.10389809 -0.18207946 0.033937547 -0.042367134 0.017043564 -0.13962518 0.21699892 0.03826147 -0.09704713 0.05859805 -0.17296794 0.042304564 0.053420674 0.227461 0.33788952 -0.05857706 -0.058138154 -0.1270903 -0.19127883 0.053423118 0.153505 -0.22243813 0.08510227 -0.12952591 -0.14966537 -0.17787662 -0.021486811 -0.27539435 -0.026604958 -0.07173779 -0.18799984 -0.19146459 0.07332496 -0.09868635 0.13920003 -0.057894647 0.30961457 0.05365312 0.21522649 -0.13208483 0.20438738 -0.06942167
요 -0.03495532 0.059714623 -0.168594 -0.21180347 -0.15520747 -0.14873232 0.021277534 0.003033193 -0.09240608 0.020599386 0.052956507 0.104681596 -0.12984014 -0.04267064 0.051187757 0.062182967 -0.12136049 -0.10021317 -0.10582237 0.14148167 -0.15220709 -0.031744607 -0.047591574 0.13707793 0.2539689 -0.07035673 -0.31044215 -0.22187124 -0.048874203 -0.09916834 -0.07402256 0.005286781 0.06766405 0.042768776 0.039084945 0.10202226 0.076827206 -0.095073484 -0.116003424 0.022603877 0.07059714 0.06480301 0.039874785 -0.07053552 -0.26228637 0.12212355 -0.01941999 0.030294215 -0.027855964 0.026031496 0.065584004 -0.23786877 0.072473586 0.0068771727 -0.050574116 -0.015551645 0.114539176 -0.1499309 -0.042143855 0.00880574 0.20287623 0.048938915 -0.15388831 0.018702075 -0.088758335 -0.20061748 0.056126654 0.08808045 0.001313788 -0.06748558 0.16017056 -0.18793811 0.19013786 0.01672077 0.073020354 -0.00014952545 0.032543436 -0.023739599 -0.016032673 0.09771249 -0.0073578786 -0.04596789 0.11508327 0.27162752 -0.10529375 0.19006826 0.05595935 -0.12171473 0.23464596 0.045174636 -0.04758091 -0.121638834 -0.18059504 0.057677325 0.2414325 0.12378129 0.017282113 0.05997499 -0.061709724 0.0076162834 0.03961346 0.23036239 -0.050974753 -0.033189237 0.021027613 -0.04082796 0.14249808 0.023622466 0.08439359 -0.0055499584 -0.044291764 -0.3169867 -0.025130395 0.09353102 0.13032359 0.08027304 0.029787889 0.07375414 -0.08803623 -0.016177068 -0.20834781 0.005378841 -0.15222779 -0.28256685 -0.07209729 0.048011735 -0.07486476 -0.034429148 -0.0024822343 -0.11226837 0.045561384 0.06304174 -0.016960211 -0.18125437 0.13132489 -0.027427865 0.058969513 0.21655983 -0.14988938 0.0018306928 0.17725208 -0.12499235 -0.050388962 -0.2697203 0.00047210837 -0.032368876 0.07099451 -0.0045756465 -0.25712797 0.029233955 0.09427019 0.07572259 0.082448706 -0.010495003 -0.1293451 -0.17429069 -0.034720365 -0.043398827 -0.12988257 0.07893245 0.08270845 0.164177 0.118711375 0.018684272 -0.07490316 -0.14591101 0.022311527 -0.05425974 0.0041509704 0.076400265 0.2120373 0.009882191 -0.054961793 -0.0010660129 -0.004508224 -0.03690879 -0.33653814 0.03973069 -0.15965188 -0.24515282 -0.28495973 0.09445584 0.103480384 -0.27107024 -0.03584784 -0.0262557 -0.16699347 -0.08322902 0.022997346 0.04921353 0.04274455 -0.094675384 -0.05644775 -0.043500133 -0.04930536 0.12143649 0.10770187 0.08957078 -0.02503357 0.06618007 0.23573641 -0.10527236 -0.13102728 -0.0043294397 -0.056840453 0.074403025 -0.006952847 -0.013867827 0.060704753 -0.046197873 0.076286726 -0.053875964 0.0335882 0.037833013 0.077253595 0.05714542 0.06725814 0.08196433 0.11687405 -0.014812078 -0.13791265 0.12671211 -0.09187387 -0.113682196 0.25803027 0.027953533 -0.2044844 0.039119862 0.06448845 0.043087736 0.00011254476 0.08499871 -0.39530915 -0.116223134 0.030868823 -0.215883 0.13264906 -0.057586145 0.024857782 0.041350964 0.26393056 -0.21376377 0.08510534 0.011608062 0.048000813 0.25696656 0.004838807 0.14436054 -0.12391693 -0.042914316 0.14665496 0.101418085 0.074442446 -0.035016328 0.23272009 -0.057288334
습 0.1743479 -0.13710989 -0.11119114 0.024093645 0.277096 -0.07498128 0.12316756 -0.2415267 -0.040858883 -0.07475082 -0.25662357 -0.0036785775 -0.18145686 -0.1028543 -0.20234382 -0.17273797 -0.08811769 0.046835907 -0.09675152 0.002123046 0.10031606 0.10394183 -0.06926768 0.25489926 -0.10605837 -0.20704731 -0.19092819 -0.31850556 -0.20022821 -0.16197358 -0.13386889 -0.20652421 -0.19767334 0.049394146 0.025342876 -0.061231263 0.103644654 0.013467928 -0.1469496 0.17621084 0.20153706 -0.0522644 0.14722411 -0.19333288 -0.08560893 -0.031630743 0.26661924 -0.0069876863 0.034029793 0.11665917 -0.039263003 0.034617327 0.15553395 0.053902447 -0.12677568 -0.028879637 0.19629018 -0.15591288 0.33104646 -0.0969964 0.12496524 -0.06953575 -0.1789836 0.16098091 -0.38362414 0.3341222 -0.032466155 0.020855753 0.053760294 0.1699637 0.13813858 -0.069835044 -0.05335172 -0.18098743 -0.24913624 0.04187889 0.043008298 0.059495248 0.14141032 0.15996419 -0.055910796 -0.061440777 -0.08164186 0.22016029 0.023310775 0.23004581 -0.0027507443 -0.11739738 0.42386618 -0.17845671 0.11699091 -0.029351063 -0.07907549 -0.08637351 0.13115479 -0.052349165 0.05796132 -0.03048422 -0.2047344 -0.10545478 0.1415542 0.062001303 -0.021254344 0.019891243 -0.20663837 0.13530202 0.034347016 -0.1300877 -0.0034497785 0.08889669 -0.06656109 -0.17011338 -0.14229909 0.07089107 -0.0013332597 0.066581056 -0.12458218 -0.18485403 -0.015264164 0.19870433 0.030615754 0.013978373 -0.115187034 -0.14387524 -0.05191733 0.11130466 0.3106796 0.080195494 0.14399928 0.22115245 -0.16563323 -0.16125515 0.043540265 0.06354763 0.0024080114 0.08173261 -0.24867526 0.015276212 -0.04133542 -0.24180509 0.115539365 0.0022851776 0.19644034 -0.05891751 -0.19666538 -0.20031863 0.04951734 -0.3209991 0.12744431 0.13926832 0.094873495 0.20595588 0.18265271 0.16367584 -0.09270942 0.030245952 -0.33011714 -0.19008817 -0.047179952 0.0395563 0.12517484 0.019797085 0.11857679 0.14709648 -0.07950009 -0.110113606 -0.15636174 0.08852739 -0.26614216 -0.022288963 0.2041988 -0.1771744 -0.27461696 0.02517044 0.2297793 0.03140358 -0.17165805 0.12321229 0.17053726 -0.4598515 -0.027836664 0.1506435 0.04979099 -0.11254157 -0.019721508 0.09908518 -0.24829707 -0.025166487 0.25980282 -0.01609896 0.038224775 0.084466025 -0.27515715 -0.22297458 0.06232993 0.2059526 0.013064448 0.19098605 0.16332376 -0.07081381 -0.05070665 -0.06780126 -0.18088481 0.031469714 -0.24084006 -0.057672564 0.12683634 0.29684836 0.19695827 0.1198136 -0.046028025 -0.17829019 0.14846972 0.2434823 0.09899046 -0.12770998 0.019071667 -0.20017162 0.16200142 0.019244313 0.11979758 0.020154558 -0.16645606 0.030840006 -0.15611131 0.058383558 -0.00031275372 0.06751813 0.28263786 0.015761964 0.26411295 -0.06576274 -0.18051182 0.07443261 -0.17207876 -0.20936884 0.04660454 -0.34393406 -0.036625374 0.019792214 0.1364778 0.045731936 0.007124843 -0.10355516 -0.06468 0.20656732 0.010822117 0.00965016 0.011964611 -0.17377034 -0.020606026 -0.058775876 0.27678406 -0.09779486 0.22910795 -0.012853845
주 -0.06478792 0.059624698 0.03603973 -0.17722991 -0.03152139 0.018659618 -0.0016796505 0.11261953 0.025976423 -0.04480966 -0.16576262 -0.10866549 -0.13045897 0.1633236 -0.06628189 -0.27953675 0.07792607 -0.18769568 -0.17087796 -0.13394308 -0.10536228 0.048402466 0.20247702 0.3260065 0.14812244 -0.003841381 -0.08825907 0.13819501 0.111311786 -0.22610529 -0.048678614 -0.090172745 -0.044278823 0.14686273 -0.13609944 0.1652857 0.1235418 0.04851308 -0.02533379 0.18934599 -0.081043266 0.15097503 0.02820241 -0.103042744 -0.1807695 -0.04891316 0.14889522 -0.1597517 -0.0067836163 0.072320305 0.039863113 -0.07870791 0.07845326 -0.18265733 0.1857608 0.17493135 0.056013163 -0.02159653 -0.027541129 0.08851939 -0.03675798 -0.054590724 0.041780703 0.047350626 -0.1737887 0.2744777 0.02038685 0.21361189 -0.005221594 0.0815848 0.028678875 0.16218835 -0.094594724 -0.2551826 0.08394908 -0.15616746 -0.0990316 -0.10453447 0.2783464 0.110217094 0.030325668 -0.10295796 0.18306075 0.18278831 -0.028279964 0.36045927 -0.06754303 -0.10132124 0.09915579 0.048113566 -0.04100722 0.13926114 -0.026871398 -0.24886571 0.20660535 0.019064216 0.17806733 -0.13037232 -0.0067656143 -0.07246686 0.069641314 0.10338082 -0.09233311 -0.12857592 0.016642315 0.14485471 -0.13496609 0.028137673 0.16601732 0.076741 -0.3303788 -0.28164175 0.024387816 -0.19620442 0.047090195 -0.024656959 -0.12950812 -0.14342721 -0.07728768 -0.0039471844 -0.040699348 -0.111409985 -0.1528932 -0.15441576 -0.30628628 -0.11668295 -0.25476348 -0.055601366 0.028369728 -0.11031942 0.11181402 -0.07565441 0.103754275 -0.067156896 0.09971101 -0.18344004 -0.114056006 -0.22275065 -0.01606997 -0.26938263 0.030906891 -0.06575462 0.047189377 -0.16468953 0.16049461 0.076292574 0.1970902 -0.08397998 0.17386617 0.09160098 -0.036583733 0.15613577 0.24752358 0.26226735 -0.07363121 0.019914106 -0.028320357 -0.16245279 0.2049835 -0.04146406 -0.04921785 -0.067072086 0.1273474 -0.08456225 0.07690879 -0.22550148 0.23340575 0.03327677 -0.16534646 -0.21225397 0.029626396 0.09415971 -0.12945214 0.011588899 -0.023995899 0.10411084 -0.012437611 0.21833815 0.0772103 -0.039155945 0.17420094 0.1730226 -0.1166035 -0.100910954 -0.30497167 -0.08126503 -0.00046535366 -0.05508785 0.17578785 -0.0022612903 -0.047650665 0.01582435 -0.29548854 -0.17039132 0.118006594 -0.1403265 0.1689783 0.009806669 0.065153435 -0.071939565 0.10925649 0.15248246 0.050602734 -0.10935992 -0.032636568 -0.14531106 -0.04294824 0.035385143 0.10513682 -0.055539872 0.11941909 0.034847382 0.08373047 -0.2176517 0.10642666 -0.1890614 -0.1490391 0.08800675 -0.19542515 -0.15402836 0.15420416 -0.03544176 -0.17138076 -0.047751367 0.07551499 -0.034025196 0.07436874 0.0010049867 0.14640023 -0.097411014 0.3676468 -0.10261449 -0.16597958 -0.08512465 0.067558095 -0.23488554 0.1859505 -0.2092248 -0.15787707 0.032156415 0.13816147 -0.16942813 0.05173475 0.11452479 -0.087196514 -0.069701 -0.08441633 0.12260272 -0.04774172 0.16552089 0.21332642 0.036579616 0.0916225 -0.33736095 0.1467378 -0.0029849058
고 0.06524481 -0.094840266 0.148757 -0.04426993 0.12406624 -0.0013688768 0.13846676 -0.10996408 -0.12990336 -0.02271771 0.07602499 -0.018695664 -0.17879204 0.17616625 -0.122359954 0.0017891036 -0.03549202 0.028051065 -0.18853672 -0.17990586 0.08215407 0.23402022 0.05374736 0.10705703 0.14487416 0.04248512 -0.095730774 -0.010008344 -0.021666316 -0.23821107 -0.13092828 -0.080350086 -0.040178154 0.021156726 -0.027836613 -0.11046691 0.116746776 -0.093748204 -0.2104616 0.00534716 -0.0016416261 -0.1335289 0.18033312 0.118858054 -0.058469128 -0.08925823 0.05208015 0.047664054 -0.041578572 0.21133456 -0.014506796 -0.14385699 0.13131705 -0.03112974 -0.40167642 0.12363955 0.04899903 -0.023615593 0.21655913 0.0062138583 0.147953 0.015194936 -0.18485643 0.06907948 -0.09533406 0.15668736 -0.008170276 0.16925053 0.05862914 0.059629064 -0.05078185 -0.032622438 0.1457332 0.012967698 -0.014318557 0.11641468 -0.028733112 0.09065097 0.037651386 0.0287963 -0.04050381 -0.13280961 0.14221683 0.27973208 0.034266576 0.30360198 -0.03728704 -0.24453132 0.31225586 0.15185 -0.086543635 -0.09576532 -0.3041775 -0.24225175 0.09099627 0.1813429 0.16032505 -0.023233885 0.04022914 -0.1240849 0.07633341 -0.07080913 0.0074953213 -0.2007029 0.046793852 0.1447416 0.080278695 -0.016814644 -0.060575787 -0.02556363 -0.009836263 -0.079353325 0.06715633 -0.112794556 -0.17834121 0.16223732 -0.055895407 0.066382766 0.13664314 -0.16351949 -0.074632965 -0.052276924 -0.05823226 -0.054327693 0.057877433 -0.032113243 -0.10129744 -0.15254448 0.065237075 0.10350814 -0.009868293 0.10239235 0.0062392764 0.073258705 0.018372372 -0.13873939 -0.00870899 0.075020276 0.012655209 -0.1000151 -0.20668726 -0.0025539761 -0.025173996 -0.02103371 -0.0009989974 0.073655374 0.0683083 -0.098577365 0.019610422 -0.16176262 0.07198001 -0.008443172 0.15623185 0.15275252 -0.1910927 0.087149054 -0.030467628 -0.09471134 -0.10169574 0.051906206 -0.20482242 -0.009838809 0.050866608 0.03335886 -0.030980734 -0.15149045 0.14378299 0.041359726 -0.005616598 0.14804539 -0.03886485 -0.070549585 -0.06172625 -0.120075114 0.092390135 0.002175573 -0.113818206 -0.08424035 0.14169918 0.026420519 -0.1357524 0.06925558 -0.028809093 -0.11727962 -0.10526338 0.020915508 0.027567886 0.029292295 0.1201599 -0.09406837 -0.029651096 0.045674212 -0.045307677 -0.0153868925 -0.14882496 0.1152236 0.054789133 -0.027821256 -0.020774862 0.13735485 -0.03587558 -0.14219365 -0.051631175 0.08224587 0.10480041 -0.030602517 0.0020827763 0.12761176 -0.13911699 -0.10358227 -0.19802439 0.12062357 0.1359487 -0.03316279 -0.061774723 0.015655234 -0.09997446 0.08207574 -0.12714557 -0.1922863 0.07457203 0.13879763 0.018924464 0.060122177 -0.17289859 0.09699369 -0.106381916 0.08781531 -0.017831253 -0.14328545 -0.042434882 -0.18776847 0.09384947 -9.636888e-05 0.091700315 -0.26579916 0.20931564 -0.24212003 0.10651203 -0.062134355 0.09140841 -0.14409012 -0.1684682 -0.033044845 -0.07525094 0.13398089 -0.20892589 -0.17349182 0.13494626 0.012222413 0.046184216 -0.17992516 -0.0038711824 -0.17219035 0.07194672 -0.0031665287
하 -0.028688304 -0.2881811 -0.06175942 -0.014956804 -0.20078088 -0.003990595 0.110809945 0.0012576892 0.083420664 -0.092526115 0.01065507 0.0833674 -0.18394357 -0.06552867 -0.002778086 -0.14391111 -0.0073351865 0.039682083 0.09583155 -0.0047630193 -0.11690979 -0.117259696 0.02609635 0.09652971 0.18250968 -0.031122033 0.23234506 -0.09039764 -0.021123733 0.008832032 -0.03787192 -0.03136796 0.025545895 0.014083292 -0.12462821 0.12390974 0.1666423 -0.095626056 0.0821829 0.024878036 -0.042923428 0.1086594 -0.061889406 0.18338457 0.080539815 0.07817942 0.061769992 -0.03708878 0.010798298 0.16991134 0.13178268 -0.18809567 -0.047522914 0.069683485 0.09023992 0.014356798 -0.19544275 0.0027738546 -0.14172673 0.1907895 -0.0014683974 0.00250404 -0.15741241 0.23801556 -0.21058038 0.19693325 0.05647376 0.095156044 -0.10617453 0.07550587 0.1524215 0.11265751 0.011729972 0.17665167 -0.069539666 0.21099688 -0.050808776 0.0035272448 0.27811664 -0.0035747422 -0.0155538935 -0.14934097 -0.043440532 0.035206404 0.033040658 0.037163418 0.03751061 -0.21343377 0.3462165 -0.07497934 0.059448536 0.30056116 0.045112427 -0.1870834 0.15006064 -0.06938108 0.16500404 -0.23448281 0.033339486 0.11910325 0.017578755 -0.004840435 -0.21362065 -0.068556696 -0.058869556 0.085557684 0.00932244 -0.016234718 0.14844172 0.016530205 -0.067316905 -0.1982764 -0.094538815 -0.18174203 -0.09106757 -0.016764635 -0.31490767 0.07804618 -0.08274519 -0.3902583 0.13650866 0.08791623 -0.23760827 0.041371856 -0.00054834323 0.08548421 -0.08606441 0.09855574 -0.09896496 0.072569475 0.25512743 -0.028102756 -0.07188397 0.006775738 0.12981732 -0.19145188 -0.100525565 -0.016169025 0.056386773 0.13872175 0.19653244 0.047722023 0.06697035 -0.011592665 0.12273263 -0.17931734 0.1293194 -0.016358495 0.19405583 0.026288826 0.20720077 0.11655668 0.11319469 -0.16534162 -0.11038554 0.06692942 -0.075390786 -0.10304092 -0.08301688 -0.14875828 -0.11103506 0.22882473 0.023829952 -0.08559987 -0.05110117 -0.3409524 0.083777286 0.060717132 -0.030187614 -0.050621983 -0.19750544 -0.08991706 0.17376441 -0.037776634 -0.07359675 -0.022386866 -0.032049075 0.0030264526 0.19814181 -0.23994555 0.04024219 0.14192195 0.08642034 0.06573178 0.056123856 0.0010097525 0.043503713 -0.03202803 0.31079265 0.19453612 0.022585213 -0.026637653 -0.19762981 -0.2560019 -0.06356328 0.0009132119 0.04601628 -0.1185036 0.051171865 -0.024677077 0.00076442835 -0.021594811 -0.04404862 0.02135373 -0.1697488 -0.030092306 -0.02251686 -0.19941357 0.11531126 0.0005867514 0.04242311 0.08984105 0.1206825 -0.024224125 -0.056371704 0.0956902 -0.23400465 0.14965515 0.0025821058 -0.08444462 -0.021220382 -0.066473015 0.15555304 0.119327776 0.10994445 0.015428862 0.071352296 -0.027776469 -0.15889129 0.06497402 0.099851795 -0.22441666 -0.04103381 -0.06941377 -0.00028188078 -0.061638687 -0.075338684 -0.00044235896 -0.09762871 0.030060956 0.21956594 -0.19681567 0.16131052 0.17547958 0.15521707 0.26608062 0.06241271 0.15685582 -0.10601755 -0.14059272 -0.06848202 -0.00974683 0.11923235 -0.06545227 -0.1704405 0.08855962
이 0.14520687 0.01545648 -0.103812456 0.08196766 -0.08072216 -0.096006274 -0.13305308 0.23300478 -0.22209767 0.048022646 -0.04972406 -0.025118293 -0.10723749 -0.033078406 0.22097358 -0.11340474 0.25848863 -0.05794357 0.09694872 0.021652918 0.056167062 0.12429565 0.075902514 0.13212056 0.17000398 -0.213069 -0.30331796 -0.024834082 -0.04435241 -0.117107466 0.030863956 -0.16479589 -0.019272301 0.01296464 -0.039368853 0.27025506 -0.022884196 0.0890662 0.03825016 0.17749499 0.0015983388 0.0154613 0.06590927 -0.050040543 -0.048312876 -0.04062447 -0.18479043 0.09803879 0.04985363 0.2378619 0.034146402 -0.020334264 0.097063735 0.05760853 -0.0015991505 -0.1167809 -0.09373825 0.038844462 -0.042668078 0.031767447 0.20898066 -0.059029322 -0.026601218 0.37596837 -0.18206738 0.16801314 -0.008355841 0.16154079 -0.108373664 -0.121601984 -0.10343544 0.014002702 -0.009748662 0.15253474 0.112805456 -0.004668113 -0.20443508 -0.17614312 0.07870626 -0.0197817 -0.10537155 -0.0426622 -0.05088194 0.08450018 0.13999425 -0.08002236 0.24173974 -0.18027508 0.28466633 0.070975885 0.110380545 0.028365145 -0.16696417 -0.041332956 0.1315042 0.21392295 0.20268816 -0.13993609 0.17921083 0.052481752 0.15862125 -0.040339265 0.050603952 0.062474724 0.018397603 0.15162925 -0.28968206 0.008060013 0.10911961 -0.26874122 -0.15473737 0.038295005 -0.0082719335 0.008064979 -0.07025511 -0.12398914 -0.08052148 -0.14911835 0.05030097 -0.15744725 -0.1813861 -0.06916538 0.030993385 -0.20685731 -0.1919081 0.016231732 -0.115717985 0.22148961 -0.0074605965 -0.08141651 -0.18270402 -0.088061534 0.1870938 0.069521405 0.049704965 0.046615966 -0.123558275 0.14475285 0.17151576 0.07072058 0.22803697 0.16148111 -0.011259925 -0.09196874 0.16817895 -0.07401057 -0.031630665 0.039027035 0.031513855 0.05950083 0.19211821 -0.08366441 0.26993445 -0.021078056 -0.046901453 -0.026220702 0.05401004 0.27331743 -0.06201637 0.1288653 0.13637835 -0.002318224 0.15724787 -0.13357131 -0.34572205 -0.070304245 -0.12451671 -0.05055923 -0.0175296 -0.18462777 0.17664891 -0.16687478 0.051108338 0.071775086 0.026671309 -0.043966774 0.14022611 0.0357817 0.023779988 -0.026222335 -0.0036265033 0.09809293 0.16248871 -0.13176054 -0.028215773 -0.14107884 0.18691538 -0.1269231 0.16951482 0.0043686787 -0.014461649 0.035637017 0.00081162096 0.14163159 -0.07166424 0.29812098 0.05242809 0.16279456 -0.011422833 0.061212566 0.12119867 -0.08231313 0.20881426 0.07285747 0.15832451 -0.010797725 -0.11955389 0.23510991 0.22353607 -0.038543694 -0.12010965 -0.00847679 0.1031374 0.14677937 -0.16551597 0.08607305 -0.15377702 0.1348445 0.030736124 -0.03980694 0.09241602 -0.19945309 0.03097245 0.15455143 0.13711989 0.0879616 0.006286363 -0.20677237 0.060278963 -0.08310785 0.020225616 0.16822998 0.13558297 0.035777975 0.11327484 -0.13531451 0.084076956 -0.06623316 -0.17806761 0.17197195 0.12154212 -0.18946698 0.028199863 -0.043297697 -0.044346243 0.066093236 -0.1016936 0.3493971 0.11693265 0.015824879 0.15399824 0.06932025 0.0934201 -0.32097977 0.013651812 -0.014885437
해 0.015151976 -0.3057195 -0.092104055 0.008994394 -0.002292037 -0.13619624 0.13224144 0.040053762 0.041697096 0.045514952 0.10234924 -0.044972334 -0.30065462 -0.10102664 -0.022780605 0.0011312665 0.29313436 0.08139214 0.22172938 0.062098514 0.028879844 0.087951444 0.011394593 0.2286545 -0.02495093 -0.05529708 0.037900474 -0.062278796 0.06065888 -0.18597445 -0.09260099 -0.04205041 -0.0675887 0.10042991 -0.16709346 -0.08867468 0.31313458 -0.14058019 0.06359059 0.024903206 -0.08716382 -0.26767856 0.1576536 -0.012581636 -0.46030948 0.05212618 0.028123174 -0.14638627 -0.11975464 0.18723182 0.04823168 -0.17150502 0.026212653 -0.28893772 0.066516966 0.055581626 0.23623613 -0.06263919 0.004004311 -0.18577674 0.20039147 -0.032528292 -0.19232555 0.15604669 -0.06470649 -0.020843355 0.0846886 0.20591989 -0.2829952 -0.14832896 0.12680101 -0.08552562 -0.2949205 -0.13834928 -0.04353414 -0.047910158 0.014833276 0.084830604 -0.07802354 -0.22742513 -0.13450891 -0.19873272 0.09722463 0.037814114 0.346398 -0.0008853308 -0.040477313 -0.019810935 0.08563374 -0.036356386 0.10445407 -0.02765418 -0.08425602 -0.0401218 0.097698316 0.075649984 0.2432098 -0.31482854 -0.014239662 0.09492752 0.0071903584 -0.12458699 0.19193442 -0.18506053 0.28685084 0.12622173 -0.25824308 0.13734359 0.2238873 0.18310736 0.05454408 -0.04111687 -0.19232963 -0.03484206 -0.1249351 0.23918833 -0.18586086 0.049959145 0.0194625 -0.016173072 -0.20268166 -0.014682644 -0.16296749 -0.12089944 0.03367359 -0.04528494 0.088948496 0.15470374 0.07100823 0.10109188 0.13651013 0.025248578 0.049006775 -0.019606475 0.10879919 -0.066645056 -0.288864 -0.11798636 -0.16626747 -0.1201812 0.16872454 -0.005349613 -0.06166279 0.13839605 -0.13333523 -0.082362086 0.0692058 0.051159386 -0.08297928 0.07310757 0.11052224 0.2156213 0.24026439 0.16907498 -0.34246582 0.1723995 -0.25964296 -0.09115146 -0.046536162 -0.2713465 -0.33899418 0.11536221 -0.045962464 0.23528351 -0.13081737 0.021143062 -0.05529982 -0.00261718 -0.33009994 0.07153381 0.12069959 -0.38679552 0.25911444 0.030458262 0.100223504 -0.140338 -0.13594201 0.0007429858 0.16690412 -0.060025502 -0.05272829 0.105310075 -0.13921063 -0.08497994 0.06118535 0.16752838 -0.32843262 0.18280765 0.20136736 0.044830978 -0.09835939 -0.106933326 0.06591463 -0.05894986 -0.21614978 0.09499721 0.076858446 0.0023882398 -0.115038455 0.16167736 0.062812366 -0.13493343 -0.09934977 -0.060171574 0.0135114 -0.012277571 0.010482397 0.11004492 -0.0370785 0.089883275 -0.08855232 -0.0056345686 0.23290116 -0.09323994 0.15448926 -0.010135141 -0.075809024 -0.1860884 0.058306802 0.08863089 -0.0558407 -0.092506364 0.13810474 0.031708136 -0.18292646 -0.15602987 -0.15676041 0.022955472 0.11584332 -0.08356085 0.060319692 0.044324253 -0.14793871 -0.17486441 -0.03506974 -0.33725688 0.047579903 0.050648365 -0.10386942 -0.084378116 0.09677421 -0.44461724 -0.14824523 0.12140155 -0.18742846 -0.12343996 -0.10839956 0.04717682 -0.19344896 0.01199026 -0.034847207 0.1438266 0.1635813 0.035045788 -0.11364393 0.101517975
겠 -0.038136754 0.1710043 0.026329229 -0.2828072 0.20727526 -0.07301946 0.002768482 -0.09716518 -0.039390665 -0.0787426 -0.07111665 -0.11528403 -0.20032713 -0.027123855 0.0048899185 -0.100005716 -0.08229992 0.21050888 0.0025606167 -0.064856954 0.18360181 0.22202775 0.35153207 0.17259532 0.06647967 -0.508602 -0.14018491 -0.18055905 -0.058808167 0.02061995 -0.21860431 0.020087894 -0.25521973 0.034551173 0.100516856 -0.057560835 0.03232792 -0.015486399 -0.07699554 -0.06272324 -0.02543633 -0.011417801 0.121571735 -0.0967908 -0.024755646 -0.016517807 0.22911085 -0.24653062 0.0038719699 0.32520887 -0.0812871 0.09171964 0.12385316 0.1281732 -0.089551456 0.030122248 -0.09511029 -0.015004231 0.22192055 0.07436586 0.1945822 -0.03642996 -0.20833871 0.13816747 -0.195374 0.15722643 0.07011877 0.12426008 -0.005801119 0.08507222 0.09466347 0.038577676 -0.21819098 -0.11639173 -0.41428795 0.17786907 -0.22710037 0.122298226 0.18433578 0.2664621 0.056588203 -0.2915859 -0.106390536 0.25399068 0.055287957 0.30131927 -0.1345001 -0.18783022 0.30433097 -0.15899919 0.093353786 0.019992186 -0.044726502 -0.30998442 0.25987875 -0.25870657 -0.0016926844 -0.03547443 -0.28544247 -0.11957437 -0.047606762 0.16345078 0.2852006 -0.12066921 0.12476809 0.20395927 0.04227515 0.014754324 0.008611888 0.14461872 -0.007385802 -0.28249958 0.042340104 0.023669833 -0.1915636 0.0696624 -0.041170847 -0.11723322 -0.071157984 0.202783 -0.069468364 -0.111755446 -0.03623551 0.10045197 -0.033897933 0.08540253 0.3478939 -0.023671892 -0.011972159 0.18193546 -0.046479605 -0.052625563 -0.09658509 -0.18598846 0.03502575 -0.19516288 -0.32201082 -0.0064007062 -0.07555678 -0.4039701 0.022534454 -0.08805207 0.15641096 -0.049802873 0.014325123 -0.028263979 -0.06715539 -0.023102757 0.24250309 -0.0038721198 0.21201728 -0.0016377114 0.3381526 0.1547134 0.033495147 0.15648821 -0.20574206 -0.0122324135 0.11223482 0.11752886 0.1318818 0.11305349 0.017547 0.13004924 0.0373845 0.271382 0.22566466 0.052907497 -0.13650386 -0.01981534 0.10436401 -0.34394208 0.02952952 -0.044900145 0.03642393 0.049817715 -0.30009255 0.1146423 0.17517188 -0.33944193 -0.19420613 0.26811704 0.11403127 -0.15085979 -0.015244055 0.02859748 -0.24528491 -0.004392943 0.119416125 0.008801442 -0.019038677 -0.0013245201 0.013558205 -0.21791719 -0.3309582 0.11851527 0.3899431 0.36973813 0.12888472 -0.12888263 -0.13487856 0.11462569 -0.070204034 -0.08110687 -0.035851676 -0.10461986 -0.07281069 0.15021037 0.18177545 0.24858758 -0.114004135 -0.084627315 0.38183782 -0.15365006 0.15997545 -0.12555172 0.0973602 -0.036701523 0.08391392 0.18277054 0.02570431 0.07746191 0.085657 0.19296902 0.027002344 0.134556 -0.102418676 -0.0914435 0.3424768 -0.09939596 0.24495895 -0.030336054 -0.40397346 -0.11701911 -0.100342534 -0.1713789 -0.081497654 -0.24722327 -0.044007003 -0.15977995 0.14960277 -0.19280486 -0.15787809 -0.027679626 -0.23626812 -0.16807216 -0.10454276 0.0513052 0.0023725315 -0.035743345 -0.03380192 0.1175095 0.12480404 -0.109153144 0.33781284 0.04301981
인 0.04244161 0.23046646 0.21684662 0.1970224 0.3185454 0.10635117 -0.08021748 0.013737042 -0.31895372 0.034955155 -0.021864252 -0.16119617 -0.22269996 0.34824824 0.010230524 0.022193773 -0.009474385 0.14679146 0.09667473 0.07617445 0.1059278 -0.0363706 -0.26156572 0.08821608 0.28828248 -0.27632946 -0.07441128 -0.034503147 -0.09650575 -0.29223424 -0.18587105 0.013756439 0.15781395 -0.20314413 -0.116382405 0.05265613 0.093655795 -0.05174467 0.050932817 0.19483323 0.076031916 -0.15635203 -0.1913603 -0.018729577 -0.02922217 -0.11424195 0.092744 0.032290176 0.08424473 0.06685364 0.058639172 0.02306577 0.1997426 -0.0050377618 -0.10399657 -0.16324262 -0.090125196 -0.124280974 0.13606529 -0.04234067 -0.2601384 -0.03206041 0.17231214 0.036831636 0.053587496 0.33080536 -0.017757973 0.18919627 -0.0050315456 -0.18507525 -0.07966093 0.14354399 -0.014608494 -0.12687404 -0.107797466 0.14564092 -0.19105333 0.1002115 0.11743353 -0.2508246 -0.06546231 0.0941125 -0.08393044 0.2524779 0.08040862 -0.010662277 -0.06071036 -0.11612778 0.09756122 0.04563128 0.0116003 0.10270301 -0.16172636 0.043279424 -0.036657665 -0.002880392 -0.09434648 -0.20225061 -0.042377587 -0.16209535 0.19338323 -0.17959027 0.08948535 -0.171493 -0.08597279 0.1469962 -0.23372328 0.08037468 0.013635821 0.12585837 -0.21239473 -0.20269723 0.021448206 0.21673955 -0.08219078 -0.25183913 -0.13189103 -0.22549038 0.021719798 0.1764977 -0.14924952 -0.08859572 0.03598324 -0.18923852 -0.038213365 -0.018615842 0.18077627 -0.2511664 0.20436427 0.32176363 0.26569015 -0.17208076 0.362677 -0.1640977 0.28366682 -0.19245237 -0.15844604 -0.028207341 0.043522965 -0.36247733 -0.009348276 -0.04483385 -0.09611897 -0.26356927 0.14078797 0.06110965 -0.06318083 -0.07138641 0.057300083 -0.031814795 0.06862505 0.24095799 0.32994884 0.33364826 -0.14679441 0.3309614 0.011865408 0.16826278 0.007649796 0.13615245 -0.0930877 0.028545523 0.12528867 0.12591255 -0.025028879 0.033269513 0.06895288 -0.058842964 -0.03191583 0.11297178 -0.02378356 -0.21044897 0.07976249 0.045673184 -0.063369595 -0.100339495 0.081349045 -0.0350697 -0.0017238589 -0.09511407 0.050000362 0.042423174 0.36375144 -0.0059518344 -0.123753056 0.07709006 -0.047391593 -0.04349306 0.30909264 0.22267972 -0.09327011 -0.011136606 -0.022503184 -0.15354648 0.18796681 0.11671111 0.17331469 0.082824364 -0.18278132 0.020131232 0.02053427 0.07241505 0.037019096 0.113708004 0.15606965 0.30675784 -0.11337636 0.2799242 0.024106368 -0.0026427016 -0.11370126 -0.07349593 -0.13342468 0.09830538 0.088643655 0.011879263 -0.07467133 0.12941678 -0.13217106 0.10165586 0.059026632 -0.117014684 -0.014924702 -0.151906 -0.21651432 0.095343895 -0.21361901 0.21651748 -0.09243974 -0.23866928 -0.12984711 -0.22857258 -0.28313017 0.10639475 -0.068050995 -0.019133959 -0.006530608 0.031429727 -0.018658893 -0.12480042 0.21365695 -0.021669405 -0.26712278 0.22257231 0.32310873 0.044534497 0.0023215679 0.122414455 0.3055055 -0.11979476 0.26171422 0.066756666 0.0085296575 -0.2634506 -0.04335658 -0.13264209
시 -0.16947444 -0.017073693 0.06347083 -0.0972527 -0.20851605 0.04765637 -0.07491616 -0.070288524 0.038644418 -0.08692669 0.11490534 -0.046632677 -0.102356784 0.122043535 -0.014747885 -0.11367587 0.21828742 0.029578932 0.22983018 -0.06937944 -0.012648163 0.0066878907 -0.12062018 -0.011797913 0.058286387 0.11692996 -0.08588948 -0.08952088 0.039005984 -0.10369459 0.0055419463 -0.15304397 -0.06504478 0.046826802 -0.19823116 0.049520023 -0.07178161 -0.03511669 -0.17468345 0.06729023 -0.01980228 0.044396777 0.024054267 -0.014049535 0.06683756 0.098767966 0.024539394 -0.00729765 0.12587166 0.21317132 -0.14328642 -0.15159976 0.23161145 -0.027163291 -0.02486244 0.15287809 0.07747782 -0.22672361 0.14521231 -0.084874466 -0.06936278 0.04902616 -0.015325684 0.08831118 -0.07076845 0.17783186 0.3029299 0.053551584 -0.07652461 0.24648762 0.07071643 0.1733642 0.06637903 0.058906928 0.04380102 0.13605154 0.068487994 -0.17300673 0.19653523 -0.21640779 -0.21983643 0.107690535 0.008311213 0.21748346 0.07187839 0.1127858 0.18660398 -0.33390832 0.24607596 0.20175494 0.14687628 0.05813179 0.0837499 -0.049964324 0.16038215 -0.006371986 -0.025624437 -0.10682211 -0.0071946294 0.17233926 0.0009665032 0.12383344 -0.034172535 -0.10824631 -0.22291768 -0.040578436 0.052452162 0.11883321 0.12436996 -0.022463487 -0.13730541 -0.020488672 0.18078424 -0.009049825 0.01585088 -0.053476065 -0.17228891 0.22214577 -0.05240679 -0.078423254 -0.116765305 -0.108892284 0.049453653 0.14175427 -0.22453104 0.094428524 0.18739155 -0.11960646 0.017339403 -0.090855315 0.15463334 0.09324982 0.14398617 -0.009599201 0.2871681 -0.21253698 0.2665202 -0.22932062 0.084566005 -0.028298043 0.19004865 0.043196492 0.12271369 0.1688463 0.21184367 -0.08429146 0.012381258 -0.036089744 -0.057488635 0.1339965 0.0335696 0.047174662 0.08492933 0.124897 0.034416113 0.00497319 -0.06819674 0.022739315 -0.051844526 0.035721187 -0.0122920135 0.26834896 -0.27158454 0.0051357807 0.20745087 -0.053688556 0.014581401 -0.052892163 -0.108088076 0.046717826 0.14292042 -0.13828047 0.038553216 -0.0014722451 0.0556822 -0.20144424 0.11844052 0.02432886 -0.025704581 -0.11852739 -0.009304979 0.11880397 -0.14583182 -0.20511043 0.16332659 -0.23055577 -0.17673321 0.15762089 0.06014353 0.08445264 0.05975781 0.13839236 -0.09383666 -0.18349269 -0.0042342436 0.025373412 0.42188805 0.16743566 0.040670507 -0.091564976 -0.040797822 -0.18787843 -0.1862487 0.07579403 -0.022102749 -0.09765204 -0.08256303 -0.0785606 -0.00953749 0.15015051 0.09538764 0.13104971 -0.08810877 -0.030397708 0.016332565 -0.01754187 -0.11567386 -0.0023494628 -0.14110114 -0.0992309 -0.05394934 0.08050871 -0.03464348 0.0018550863 -0.21706949 0.1232068 0.0018399059 -0.08014065 0.07955935 -0.0812562 0.062266253 0.033165388 0.11476421 -0.05957757 -0.2206094 -0.06456836 0.1736876 0.028924117 -0.20857225 -0.19897582 0.24763519 -0.16297369 0.008561853 0.11856237 -0.10443035 0.17988649 0.18412519 -0.067196675 -0.14003643 -0.23145844 0.030685332 -0.07339546 -0.069839664 -0.2211794 0.1660626 -0.06676915
까 -0.15936358 0.26093635 -0.040772937 -0.30616292 0.08217478 -0.19622354 -0.057558533 -0.16665326 -0.10221452 -0.13821533 0.12184526 0.050807502 -0.054763604 0.15403432 0.018607585 -0.23063621 -0.22398625 -0.025799016 -0.010602074 0.29659492 0.20884903 0.10568842 0.09004787 0.15920836 0.18614894 0.17059785 -0.35798186 -0.18336454 -0.065719634 -0.1510039 -0.03101191 -0.083275445 -0.009539555 -0.2546928 -0.33191967 -0.035479326 0.06705296 -0.33947194 0.028160973 0.018142032 -0.15808758 -0.14283095 -0.041413542 -0.07238563 -0.13755016 -0.11405214 0.06868112 -0.14040215 0.15603709 0.14063166 0.06497976 -0.20697291 0.03189908 0.17833014 -0.263352 -0.05300768 -0.043039575 -0.18966013 0.019987255 0.16015019 0.19065377 -0.21604645 -0.1670235 0.0362163 0.030395528 -0.04369179 -0.05134101 0.17493919 -0.016549028 0.23248321 0.2464873 -0.058813162 0.19124082 0.03173106 -0.23124492 0.11413491 -0.04014167 0.080187514 0.13237894 -0.014044156 -0.105060995 -0.09296136 -0.28819823 0.1810758 0.115559615 0.082260825 0.16854542 0.041419916 0.19949761 0.06307092 0.032468777 0.11944818 -0.17606989 -0.1467812 0.26772565 -0.00029435963 -0.013837692 -0.17026763 -0.010779688 -0.13803518 -0.09062526 0.1718086 -0.1749841 -0.2295295 -0.14654523 0.023463598 -0.00049623987 -0.022170369 -0.12645198 0.05521039 0.000882432 0.037870985 0.08023917 -0.004298946 -0.09649365 0.19297543 -0.16896212 0.06467296 -0.2291262 -0.18799098 -0.07339764 0.06556414 -0.14529721 -0.12867483 -0.019093022 -0.029035905 0.078320906 0.117633484 0.31589988 0.17465071 0.109764 0.2144188 0.038477737 0.3172974 0.15347292 -0.04009173 -0.30695271 0.1669697 -0.24678932 -0.3187549 -0.15159881 -0.027976206 0.29100543 -0.21417342 0.12230483 0.0018996088 0.05884102 0.076050736 0.09043174 -0.16704752 -0.15320937 -0.09836452 0.22517988 0.110313535 -0.053919714 0.22117734 0.08563817 -0.13692525 -0.019292105 -0.001478811 0.027237589 -0.22120617 0.23525059 0.25608253 -0.07392417 -0.15955327 0.23829551 -0.06640944 -0.25568607 -0.36614388 0.13109286 -0.07818482 -0.07417435 0.0543167 0.12936316 -0.0062659765 -0.10981053 0.12684718 0.17951517 -0.14972341 -0.121230476 0.07365591 -0.10600874 -0.21610956 0.19260985 0.13366935 0.023857597 -0.14852393 0.10959072 0.1500383 0.18387176 0.044911437 -0.15398392 -0.3152026 -0.1669883 0.11625067 0.28917837 -0.12612453 -0.067513764 -0.058992635 -0.121461615 0.03525055 -0.086679325 0.054155134 -0.18565783 -0.06541149 0.09639016 0.13256796 0.1877626 -0.022534152 -0.013246262 -0.013635636 0.03144629 0.08980983 0.0027667687 -0.19905616 0.11791257 0.030835913 0.051814094 0.01099359 -0.16839842 0.20299084 -0.11803138 0.026162716 -0.028605314 -0.08331224 -0.12864321 0.11776637 0.45754385 0.1291399 0.04380273 -0.11869248 -0.045071594 0.17626476 0.1349669 -0.17550403 0.068752475 -0.3136388 -0.29641545 0.14655991 0.18283556 -0.014197664 -0.36013326 0.10675906 0.09771286 0.09472871 0.14659481 -0.11612323 0.068636544 0.11505022 0.060007013 0.065504216 0.181171 -0.17034297 0.036564797 0.0022871622
사 0.03587128 -0.03697344 -0.033837736 -0.016153095 0.17206153 -0.21592017 -0.032371398 -0.111443095 -0.27988076 -0.15459545 0.11535721 -0.1911504 -0.1457313 -0.03240837 0.4153887 0.020767214 -0.15381011 0.18616393 -0.048835542 -0.06688205 0.123106085 -0.12704258 -0.0031752884 0.14260343 0.29592267 -0.10493167 -0.05073972 -0.2102408 0.3135954 -0.1218577 0.032544043 -0.06366895 0.115850516 -0.18400128 -0.14671022 0.22910394 -0.020916644 -0.013176134 -0.0832869 0.13331452 0.041556403 -0.12907594 0.25995448 0.14963576 -0.010878795 -0.07783013 -0.043875355 0.08929908 0.05460031 -0.025603618 0.010846976 -0.117379196 0.12618926 0.031417817 0.06266726 -0.026106404 0.11566159 -0.16456152 0.093650155 -0.11566272 0.23430818 0.024122119 0.17633581 0.32549796 -0.2971378 0.19599287 0.23318113 0.077057794 0.17900644 0.13940586 0.1714516 0.033585608 -0.008139902 -0.02834542 -0.06285268 -0.19920321 -0.046336565 -0.0035056423 0.023824805 0.021027202 0.035003033 -0.08163223 -0.023720877 0.28306982 0.031331684 0.25840315 -0.13437168 0.086770885 0.03043718 -0.04034093 0.026676623 -0.009225933 -0.05622147 -0.10471762 0.092308626 -0.060616247 0.2730656 -0.26102412 -0.05716642 -0.06776782 0.3235558 0.12374452 -0.020936545 0.005273167 0.10865256 0.24877854 -0.41451648 -0.09180356 0.010508165 0.33792752 -0.12567143 -0.20310201 -0.012206867 0.040422473 0.19462304 -0.029870829 -0.15276755 -0.13864022 0.0080246115 -0.19075125 0.02903964 0.3681308 -0.16184142 0.02040119 -0.059071597 -0.035554603 0.07078422 0.14417146 0.067342326 0.10684532 0.2305368 0.17601568 0.17409976 0.04843957 -0.11385054 -0.06840133 -0.16653265 0.024160594 -0.15012574 -0.1476492 0.3029042 -0.014922376 0.11424295 0.06712147 0.13285252 0.10649028 -0.23724084 0.023704462 0.10170422 0.079771906 0.28969997 0.048830874 0.13889578 0.06342533 0.021692734 -0.074423194 0.006836615 0.18927653 0.06918984 0.009818765 0.14193161 -0.057955083 0.2670888 0.054376014 0.0312887 -0.12673357 0.1783905 0.26325643 -0.2207656 -0.102369756 0.14685012 -0.08026404 -0.16065323 0.0062398002 0.020818796 -0.093490876 0.085850924 0.18941966 0.109481394 -0.15341173 0.11574591 0.13116406 0.328574 0.017283754 -0.0019270239 -0.16117452 -0.109474234 -0.025591128 0.062465508 0.21140386 0.24819788 -0.28388873 -0.045480736 -0.14122991 -0.091900334 0.2350051 0.047832258 0.06567892 -0.040005725 -0.29850847 -0.16107829 -0.06407765 0.06594006 0.2096534 0.114727594 0.11411428 0.106530294 0.087714754 -0.071694344 -0.15906796 -0.21760625 -0.019998474 -0.03889733 0.07226683 0.055781964 0.29560304 -0.24051398 0.1712113 -0.18981946 -0.14962389 0.099474825 -0.018392384 -0.12893628 -0.14507057 -0.077955924 0.17115968 0.11501311 0.03494222 -0.24557911 -0.07742387 -0.032006588 -0.025703812 0.0251077 0.16842276 -0.14755677 -0.12616114 -0.021453826 0.09337886 0.0132957045 0.19445919 0.08442158 -0.2471675 -0.11491443 -0.052378763 -0.10476915 0.24326076 0.023720121 0.051486265 0.22589739 -0.07724334 0.09499203 -0.13271281 -0.0009508059 -0.15983868 0.13920766 0.04687553
제 -0.17447177 -0.10651445 0.124297984 -0.18349469 -0.056294397 -0.046271477 -0.15012753 0.17624107 -0.10296044 -0.05147926 -0.008932902 0.0053524766 -0.17130852 -0.026436752 0.029977882 0.12717357 0.004224762 0.0049858475 0.1943446 -0.10087068 -0.003952995 0.022959804 -0.107918955 0.10684851 0.114910774 0.10239609 0.093768016 -0.08839805 0.032045603 -0.08552294 -0.21785018 0.074898414 0.117884405 0.09766068 -0.24978322 -0.17468189 0.25965363 0.022596845 0.035528537 -0.034729607 -0.089564785 -0.10605492 -0.025687125 0.33734676 -0.00029914215 0.16143693 0.08741242 -0.1408309 0.15176412 0.1463266 -0.0136678675 -0.28707594 0.11239991 0.0702183 -0.10563027 0.040038843 -0.03295692 -0.09291939 -0.12065024 0.1425567 0.06870097 0.16105148 -0.21486923 0.28003034 -0.14002444 -0.015105777 0.032419883 -0.030189926 0.15103038 -0.025371226 -0.17180103 0.18536347 -0.13143918 -0.1978279 -0.08975115 0.13300562 0.011085388 -0.1973156 0.15194912 0.21336097 -0.08572992 0.062364537 0.17061363 0.092280135 -0.07392079 0.33338878 0.06442659 0.11052364 0.20767419 0.008472089 0.21433246 -0.13965255 -0.043958943 -0.3081501 0.32148814 0.10699632 -0.12334751 0.0503199 0.083673775 0.11984261 0.006963508 0.09839899 0.053413227 -0.10603927 0.023180744 0.0029999332 -0.27364144 -0.192998 0.18820752 -0.058148906 -0.07337488 -0.13465102 0.18701543 0.14603274 -0.13766924 -0.084721036 -0.033458926 -0.16826795 0.37409338 -0.083198935 -0.28533912 0.12946658 0.030239282 -0.12179161 -0.22093415 -0.03645303 -0.25555664 0.26463053 -0.13366078 -0.118463494 0.018731453 0.10955816 0.02320673 -0.2923064 0.020603918 -0.0059601115 -0.0071848445 0.025017632 -0.041312035 -0.029104544 -0.08108836 -0.11096086 -0.15712659 -0.15584023 -0.0659255 -0.26881388 0.39333084 0.1376244 -0.016132489 0.043767232 -0.35420734 0.04543913 0.11864251 0.16625446 -0.08705523 -0.081954405 -0.11859874 0.060797453 -0.09462972 -0.07788465 -0.03681481 0.14723904 0.14933094 0.20386347 -0.02543615 0.09918781 0.35169095 0.032704346 0.09341078 -0.04224373 0.31018108 -0.337032 0.062871754 0.009215815 0.16247486 0.03557213 -0.16965815 -0.019635616 0.14731742 -0.3670087 0.043824013 -0.0023582154 0.09901206 -0.17582129 -0.1328722 -0.12905388 0.13000995 0.10471802 0.37558654 -0.057906803 0.0011467973 0.021462005 -0.19926691 0.016410336 0.047546666 0.06290101 0.17329462 0.0044594817 -0.20423241 -0.01291721 -0.07552672 -0.0582871 -0.3599545 0.09511343 -0.1713967 0.35652423 -0.2736422 -0.0063501145 0.07734962 -0.12003427 -0.14417948 -0.09792295 0.2328821 -0.099948384 0.050143242 -0.027668329 -0.22059423 0.25867933 0.016424378 -0.21133482 -0.14819477 -0.3323704 -0.13323292 -0.24033058 0.10705383 -0.05522105 -0.06772921 0.11189107 0.16326006 0.034161042 -0.05426202 -0.033040557 -0.015562757 -0.08140395 -0.22577651 -0.12578665 0.19497626 -0.0517746 -0.12898962 0.16690907 0.08757358 -0.23230894 -0.17769031 0.10784305 0.079888456 0.16851008 -0.20307267 0.14116319 -0.048561007 -0.124427214 0.24503064 0.08027733 -0.022122998 -0.024287056 -0.060217943 0.061893582
객 -0.011720601 -0.045798466 0.023160854 -0.0075683617 0.25415558 0.03688079 0.03435384 -0.2438321 -0.02032186 0.0076648053 0.09899073 0.044688348 -0.23675333 0.11395747 -0.014140284 0.03172223 0.057537407 0.095338665 -0.08889513 -0.005262741 0.22089005 -0.23001163 -0.018697824 0.27258787 0.18613426 -0.19077304 -0.19986315 0.038937114 0.03109214 -0.33682165 -0.21661967 -0.19837171 -0.012993518 0.08369317 -0.20969841 0.13057745 -0.009379721 -0.22425808 -0.103400625 -0.16468896 0.10764479 -0.06597708 -0.18368827 0.030334419 0.024805542 0.044785254 0.004292395 -0.02004934 0.006619388 0.16277127 0.21974933 -0.15299241 0.1213499 -0.1699857 -0.29158533 -0.022639556 0.13310821 -0.11325407 0.14028603 0.24951953 -0.028504366 -0.08044597 -0.12672086 -0.064316005 -0.0301966 0.1952775 -0.023070965 0.28690538 -0.03434536 0.036914196 -0.01968916 0.17927599 -0.2250824 -0.18140851 -0.010796893 0.19022895 0.0328495 0.13688597 0.20123976 0.09037589 -0.17218323 -0.23810554 -0.044319443 0.047246777 -0.11156368 -0.024687855 0.07724535 -0.01909426 0.24027462 -0.08419555 -0.010942679 0.0394343 -0.15820259 -0.16985656 0.16673496 -0.11708917 -0.12701873 -0.22319967 -0.16688068 0.11152205 0.026785407 0.07460918 -0.15695295 -0.27464306 -0.02042688 0.07381908 -0.030457975 -0.08284852 -0.24273008 0.12901318 -0.22030541 -0.20973253 -0.031559195 0.3059596 -0.075932674 0.09476426 -0.2336212 0.054177314 0.08679626 -0.055908788 -0.13690597 0.032592643 -0.096313804 -0.2177872 -0.070118345 -0.1908773 -0.018900787 -0.052730855 0.03952421 0.12643063 0.2774609 0.13989943 0.022693206 -0.038929816 0.15770453 -0.11865583 -0.4752496 -0.19094461 -0.20200635 -0.3822552 -0.109689415 0.017302768 0.019906007 -0.004619066 -0.15799539 -0.14073208 -0.04270536 -0.12578417 -0.09488921 0.00835969 -0.034183554 0.11228812 0.3911175 0.29870874 -0.04337222 0.1519374 -0.024841132 -0.117822304 0.14876619 -0.24229755 -0.035477858 0.023468537 -0.035733085 0.06929836 -0.13378032 0.07067707 0.20994218 -0.04485335 -0.17926776 -0.12290882 0.032218896 -0.338798 -0.08908884 0.077402435 -0.055662416 0.03118624 0.10426698 0.106292084 0.05430203 -0.115148656 -0.09290065 0.17955033 -0.009516139 -0.33388332 0.045729853 -0.09838366 -0.20553799 -0.04469818 -0.029962422 0.11222823 0.3157647 0.074995704 -6.3351144e-05 -0.06387475 -0.24684218 0.14668189 -0.10305235 -0.14157982 0.041261032 0.2509539 -0.14789549 -0.0057156086 -0.2236464 -0.2047074 -0.060476515 -0.13095911 -0.02647537 0.0982704 0.477358 -0.068520375 0.154525 -0.009102767 0.15781154 -0.054503724 0.024874663 -0.07976627 0.0031212983 -0.0936512 -0.17762223 0.062413506 0.13290656 -0.10795128 -0.14956233 0.1585967 -0.28047538 -0.0958465 -0.11689677 -0.11167296 0.22108963 -0.07107625 0.068996534 -0.109050594 -0.058063176 -0.019187225 -0.03662652 -0.150645 -0.037698235 -0.16507411 -0.07160141 0.11771018 -0.083243385 -0.22849908 -0.081999436 0.12581943 0.11310896 0.1766447 0.15491681 -0.08508217 0.003773009 -0.09782683 0.07281363 -0.04854113 -0.0704618 -0.173485 0.035732098 -0.119479634
문 -0.15784903 -0.26480934 -0.017005892 -0.11175493 -0.053698447 0.012092365 0.2275084 -0.12468088 0.16248044 -0.109801486 0.0049069566 0.044624023 0.08196305 -0.042200033 -0.021120863 -0.21355453 -0.034571353 0.12024513 -0.0445783 -0.03133939 0.1714213 0.22396114 0.1148862 0.109718375 0.050661266 0.054784838 -0.14874128 0.20503834 -0.0543939 -0.3159252 -0.24357076 0.048017766 0.2608738 -0.11560017 -0.040894095 0.10289289 -0.09456746 -0.032769773 -0.05798566 -0.14507255 -0.17957814 0.13216522 0.029899212 0.0062298663 -0.05876694 -0.027808242 0.068181835 0.0019055424 -0.07008396 0.13513468 0.20562014 -0.24491812 0.33975604 0.25684127 0.079930454 0.2174927 0.23345746 -0.15794095 0.20555036 -0.16056794 -0.12051869 -0.15006013 0.023150405 0.080316834 -0.0017855805 0.12704511 -0.16799662 0.18913488 0.09550591 -0.028921776 -0.05171492 -0.35058463 -0.12777236 0.0465797 -0.04511208 0.18951544 0.1614104 -0.10062479 0.17820545 -0.10893789 -0.029133976 -0.22868377 -0.13955483 0.059614632 0.13309127 0.10727555 -0.08528547 -0.10981973 0.05812552 0.117858455 0.17130235 0.057081725 -0.028551258 -0.25004494 0.116528496 -0.17219251 0.14063737 -0.15086217 -0.035882063 -0.12652273 0.075465925 0.26966083 -0.084275074 -0.084609 0.25963497 -0.21104166 -0.062314425 0.14366628 0.09703615 0.057864558 -0.0990618 -0.23698099 -0.123649925 0.0039010684 0.06807192 0.089582674 -0.09504099 0.17845383 0.08048364 0.051245943 -0.06230446 0.14996174 -0.22265182 -0.2486948 -0.16224241 -0.10986671 0.050801195 0.03593677 -0.19824186 0.15208283 0.011759271 0.036977503 0.008043221 0.102758065 0.22067843 0.20114897 -0.094239034 0.18475835 0.26239863 -0.11374116 -0.040832996 -0.006501284 0.17091215 -0.15458162 0.052380487 -0.06372388 -0.011035029 -0.011916492 0.10963088 -0.16219254 -0.016607376 0.29729092 0.027939279 0.09331561 -0.22384699 -0.03485509 0.30913776 0.033025682 0.0797304 0.13981351 0.12844004 -0.07859954 -0.037214756 0.040096365 -0.2965815 0.08398077 -0.006756835 0.014453837 -0.019640207 -0.08679649 0.2157093 -0.1161186 -0.3464264 0.04033002 0.025442423 0.10188193 -0.03281636 -0.11795806 0.403335 0.114909455 0.07293601 -0.15009913 0.113453165 -0.08017215 0.029751856 0.0002097111 -0.040533826 -0.08801336 0.2165634 0.08989801 0.111072846 0.21476845 -0.089810625 0.11232208 0.10342073 0.057166323 0.02272934 0.18913175 -0.22052072 -0.015467773 -0.27019972 0.05566235 -0.07917512 0.21107736 0.101070896 -0.09406375 0.24757399 0.32208258 -0.015015399 0.011239069 0.11036942 -0.05245046 -0.014546947 -0.0028515328 0.14558631 0.22240031 0.04043749 0.03164473 -0.09266123 -0.010953435 0.18195213 -0.26768208 0.061570287 0.009409796 -0.12335411 0.09291419 0.102784015 0.17763495 0.35271147 -0.032049157 0.35442033 0.12597412 -0.21026012 0.03180031 0.11245748 -0.26654133 -0.07213734 -0.076481976 -0.1996 -0.027832119 0.29293194 -0.29062194 -0.47215948 0.22734784 -0.019305782 0.17188384 -0.011560105 -0.07680849 0.19734843 -0.006310627 -0.14666319 -0.023853902 0.17270342 0.04362058 0.09086555 0.14595878
리 -0.20096035 -0.21431671 0.09932156 -0.19887504 0.37209114 -0.120769165 0.051461436 0.010024385 0.12028903 -0.1675845 -0.13384998 0.11054709 -0.27878428 0.1451738 -0.01189921 -0.25647306 0.13133003 -0.056310944 0.013335928 0.050202765 0.27331492 0.07659587 -0.10462675 0.29521868 -0.059421163 0.015326363 -0.18798739 -0.02853132 -0.11467995 -0.30781102 -0.21662186 0.2583404 -0.13666123 0.13594708 -0.13009188 -0.10112368 0.022029711 0.0054231156 0.08378408 0.2086039 0.01898207 0.08405138 -0.2330488 -0.008179502 -0.061727293 -0.19099113 -0.06445371 -0.15374261 0.05370501 0.28255385 0.100403205 -0.008880244 0.18810013 -0.10986718 -0.11376113 -0.08277985 -0.01937654 -0.13243409 0.07799692 -0.05332394 -0.011884906 0.243378 0.011430314 -0.08929753 -0.08352383 0.116329275 -0.18033533 0.24153104 -0.4375955 0.20140204 0.1666783 -0.040511172 -0.08768179 0.16197087 -0.25211444 0.27362648 -0.11437406 0.009565231 0.27014822 -0.04649257 -0.032451004 -0.06941747 -0.30133092 0.3549727 -0.15837939 0.05587212 -0.09205567 -0.19495939 0.18373153 0.08740655 0.18610346 0.045927197 0.3640595 -0.25639114 0.16211313 -0.116509646 -0.037599944 -0.07734425 -0.045564942 -0.12245521 0.18855916 -0.08922353 -0.05896566 -0.15813631 -0.1255195 0.3333561 -0.22215717 -0.19833371 0.18531631 0.10228776 -0.19992907 -0.22159974 -0.05460462 -0.19159105 -0.032787528 0.18038966 -0.27713665 0.053074107 0.14475194 0.057937708 -0.05745624 -0.16211711 -0.032566056 -0.12476634 0.19608203 0.029217906 0.103111014 -0.041932147 -0.22565019 0.059564322 0.18804684 0.2541916 0.15086311 -0.1624786 0.31131282 0.10644366 -0.2329188 0.0053660646 -0.221446 0.08067561 -0.12500255 0.07163604 -0.047891278 -0.11399782 0.003054943 0.096411556 -0.22559054 -0.014794248 0.2915637 0.05580202 0.096117094 -0.118775874 0.5262741 0.009597968 0.096801266 0.12590973 -0.21444651 -0.10357441 -0.0585116 0.053466946 -0.3670738 0.017059539 0.009843214 0.15204768 -0.14057751 0.19355176 0.22027847 -0.122480705 0.0783699 0.37101987 -0.015552021 -0.14649779 0.14268604 0.17213988 -0.124307126 0.0029194183 -0.100791566 -0.20434353 0.041072376 -0.28670672 0.025062386 0.10750741 -0.040341068 -0.20860511 0.07084743 -0.07211338 -0.027222723 -0.07265144 0.16779211 0.08806313 0.023226555 0.23698005 0.21440913 -0.14681327 -0.10862361 -0.13049495 -0.22765234 0.064984374 -0.10962638 -0.05886741 -0.22940706 0.011506258 -0.021342048 -0.00022992627 0.06220593 0.056765072 -0.14299051 0.08789594 0.10497558 0.056507673 0.087958165 -0.22072448 0.08120572 -0.081942655 -0.15388685 -0.27287444 -0.030438272 0.19836849 0.04271841 0.14803456 0.2765425 -0.048114114 0.057756536 0.1891058 -0.061675508 -0.05142524 0.08479807 0.2724765 0.12487116 -0.066124976 -0.0433634 0.16681227 -0.18159072 -0.07810648 -0.12725505 0.04212046 0.0788978 -0.26919335 -0.13198452 -0.36864138 0.20292534 -0.10541243 -0.25549588 -0.14390637 -0.48847577 -0.047454894 0.18367183 0.08329102 -0.06805344 -0.30738282 -0.15566988 -0.025734978 0.17256498 0.120575555 0.14355569 -1.3478788e-05
부 0.019931912 -0.04800479 0.29135054 -0.06291478 0.027671479 -0.082975425 -0.19211014 -0.039889373 -0.11109689 0.13497365 0.30458248 -0.047964524 -0.6204384 0.3364194 -0.068000905 -0.0507913 -0.10462662 0.16130666 -0.085929476 0.075870834 -0.06427638 0.03404481 -0.022140132 -0.13578655 0.3007068 -0.10790968 0.060183045 0.05098698 -0.2681395 -0.18306588 0.12089986 -0.09444116 -0.1355774 -0.12845527 -0.00092292775 0.17307983 -0.10189841 0.10630931 0.013612275 0.062437363 0.29919997 -0.06616049 0.27695447 -0.00898935 -0.09828134 0.24051246 -0.2738366 -0.03342118 0.2138966 0.036573064 -0.1528754 -0.22254144 -0.0061450033 0.0634326 0.06429328 0.13070285 0.39897957 -0.22201562 0.051129643 0.28681558 -0.15619633 0.20126165 -0.14366332 0.35809073 -0.19201477 0.124720044 0.18818632 0.3120764 0.0029567878 -0.09113249 0.17915028 0.11989218 -0.30624127 -0.0928388 -0.25348324 -0.15053186 0.302736 -0.32040188 0.09082607 0.016904555 0.004426837 -0.38149166 0.08940542 0.18618265 -0.08433709 0.105387084 0.11815851 -0.03689696 0.16302334 0.2188085 -0.12094997 0.3452297 0.386542 -0.36382458 -0.026790412 0.14252259 0.20395543 -0.13059407 -0.078947075 -0.21658406 0.11204118 0.015568461 0.047402743 -0.40689227 -0.27249855 0.35368264 -0.19225803 0.10321335 0.15778512 0.2792998 -0.50680375 0.2860388 0.3511222 0.15372312 0.22100931 0.25025845 -0.58481294 0.16269435 -0.07489646 0.15524174 0.03947947 0.10700618 0.052674457 -0.032717813 -0.016036034 -0.1150658 0.08080772 -0.2548494 -0.009066812 0.0353092 0.21197788 0.11728454 0.15659873 -0.22656778 0.40124026 -0.32458925 -0.22080927 -0.019900212 0.049026262 -0.07497064 0.23149092 0.09629636 -0.022290925 -0.10089983 -0.21567768 0.11367832 -0.105909236 -0.12689322 0.069439515 -0.08248113 -0.08019498 0.034118008 0.45193028 0.28689542 -0.28517464 0.23639806 0.046179686 -0.22059125 -0.03506443 0.014716295 -0.11042877 -0.18069777 -0.07457187 0.17300959 0.009333323 -0.03835168 0.36149624 0.15537904 -0.19944961 -0.11573744 -0.00043338473 -0.13602738 -0.011079499 0.10871826 0.0197897 -0.0866689 0.2830681 0.088028185 -0.0041241148 -0.18128574 -0.072735615 0.26496768 -0.021989014 -0.18757723 -0.122538954 -0.18905385 -0.35221553 -0.008740262 0.27813014 -0.14007859 -0.14886014 0.08248471 0.24604252 -0.08931166 0.16268408 0.58312124 0.050447483 0.26297113 -0.18638612 -0.0003765469 0.10886365 0.016668668 -0.3470351 -0.040840436 0.03831406 0.14655693 0.013688978 0.25089112 -0.16767277 -0.11375295 0.13616961 0.07466174 0.29538077 -0.15087505 0.19773482 -0.24481373 0.23442762 0.14585352 0.021932991 0.08142561 -0.05314864 0.15190798 0.06290661 0.097021975 -0.37364525 0.09158333 0.13873209 0.038243126 0.039072752 0.10325238 -0.014149521 -0.055043552 0.15482104 0.0107810125 -0.02378589 -0.15763937 0.08403918 0.07797284 -0.20439005 -0.051328287 0.10307665 -0.24522541 0.08455059 0.04269831 -0.114149 0.12298561 0.035420664 0.24810116 0.2543823 -0.28197622 -0.15134987 0.069577 0.16268975 0.13394688 -0.18588324 -0.10208345
일 -0.1785673 0.0009510272 0.18967289 -0.16603407 -0.050649025 -0.030435303 -0.17962196 0.3946818 -0.010649831 -0.026099486 -0.27819827 -0.10061046 -0.29841852 0.18473057 -0.18229714 -0.088615574 -0.0067937584 -0.07420859 0.120313086 -0.09907973 -0.09400028 0.12281886 -0.28801945 0.221015 0.12334215 -0.10031735 -0.1350601 -0.023124013 0.052649952 -0.081867084 -0.0075123063 -0.3371703 -0.028059017 0.0067937626 -0.090144835 0.08104589 0.08011898 -0.066247426 -0.2284799 -0.07040433 0.15076491 -0.0094148265 -0.1812786 0.11336701 -0.23640229 0.15628745 -0.24007577 -0.03201371 0.18644533 0.33202705 0.10213574 0.02811938 -0.09100661 -0.34978208 0.08178233 0.1411244 0.16141841 0.079682805 0.274076 0.092886284 -0.14284942 -0.11859465 -0.16886377 0.08830548 0.028865712 0.103207245 -0.33481354 0.17832631 -0.01198797 -0.14534813 -0.007035066 0.34127733 -0.076218314 -0.19796887 -0.12974057 0.28791112 -0.18097626 0.20385665 0.031308327 0.13115478 -0.19056423 -0.06031264 -0.19422022 0.18648146 -0.013711253 0.25319335 -0.018901575 0.32118195 0.057125553 0.29113168 0.09477474 -0.009535034 -0.29969013 -0.45640507 0.2242208 0.102259316 0.04090957 -0.0059024 -0.2554591 -0.04490858 0.19173077 -0.083745904 0.0028522422 0.15245782 0.13865887 0.26115862 -0.3021081 -0.061371677 0.10480208 -0.10156319 -0.18298297 -0.16314651 0.022339385 0.030295258 0.23504604 0.28697422 -0.29732585 -0.15684162 0.14430311 -0.19985509 -0.10115438 0.109795555 -0.19818419 -0.08952338 -0.33705655 -0.12904328 0.06272193 0.20251936 -0.16020717 -0.17131199 0.009831831 0.120637245 0.313782 -0.05518135 0.13538042 -0.025797896 0.104204744 -0.047317907 -0.043747347 -0.119472645 -0.03234465 -0.08290076 0.1579018 0.1194597 -0.12853535 -0.0049361116 0.22082551 -0.19273788 0.09019056 -0.32716838 0.010350502 -0.04999486 0.34008893 0.17489631 -0.23408684 -0.054546446 -0.13737996 -0.08615189 0.093425855 -0.05593168 0.20366661 0.27664167 -0.07550586 -0.12418447 0.03489225 -0.03202484 0.09283025 -0.20636065 -0.2137138 -0.22447811 -0.020600118 -0.26829422 0.03763901 -0.004641513 0.3746973 -0.053277835 -0.09723828 -0.27355236 0.09444794 0.028917126 -0.18726528 0.08509927 -0.036364786 0.0037884314 -0.031427387 -0.080897674 0.19646543 0.10778998 0.439325 -0.21763639 0.07730868 0.35614315 -0.16021091 -0.050799828 0.103796385 0.1158219 0.053463694 -0.1579387 -0.2875975 -0.24209332 0.21458489 0.02900235 -0.2494138 -0.12442208 0.22520179 0.05927142 -0.024093116 -0.06509442 -0.0052181664 0.20389272 0.24706964 0.026880192 0.0501916 0.059005708 -0.15851457 0.044811204 -0.31062302 0.3983549 -0.05224538 -0.064003274 -0.40897515 -0.24612945 0.0036552283 -0.03913283 -0.15262365 -0.050857387 0.10970764 -0.26493716 -0.3145631 -0.1104712 -0.2655821 -0.062317543 -0.0454512 -0.25738204 -0.23954375 -0.34187666 0.3181664 -0.2288265 0.22513224 0.14372921 -0.021853242 -0.57778007 -0.09532514 0.2055038 -0.3102701 0.09845199 0.012595041 0.3234126 0.043598503 -0.07892656 0.08440299 0.17734884 0.021339716 -0.16799417 0.09623531 -0.055990294
확 -0.11961671 0.16852443 -0.048166186 -0.1384391 0.20998344 0.06699877 0.06634641 0.10661329 -0.31669146 -0.18284829 0.10001418 -0.070889816 -0.27628914 0.16539295 -0.22959892 -0.0010697704 0.08504928 0.25982374 -0.34805876 0.1912922 0.1317697 -0.0031245046 -0.0537104 0.03362648 0.08434588 -0.114640966 -0.036437534 0.058955714 -0.08722908 -0.46528143 -0.35659924 -0.02134547 -0.06549847 -0.04527445 -0.06641801 0.0838709 0.19163089 -0.067598276 -0.14737722 0.1232116 0.01800635 0.12725218 0.1672847 -0.11622068 -0.08854722 -0.0045567523 -0.061918136 -0.28216603 0.07845541 -0.10923408 -0.12751472 0.054112874 0.34836438 0.15149342 -0.23556924 -0.07211055 -0.028693015 -0.2119287 0.31843084 -0.20808432 -0.17097612 -0.14806063 -0.042038206 0.057737358 -0.15204251 0.3108941 0.19106701 0.14915352 0.02973155 0.10680553 0.11489269 0.13057542 -0.09538668 -0.1514759 -0.14715923 0.01461252 -0.22375956 -0.116942465 0.11665116 -0.02924469 -0.067130044 -0.021429464 0.055545595 -0.06596393 -0.14459941 -0.089895256 0.13632607 -0.2846984 0.021237828 0.32514858 -0.027429666 0.14125577 -0.14363381 -0.16104916 0.1455483 -0.03252669 -0.11901951 -0.22334833 0.175082 -0.083777845 0.3976023 0.13802145 0.060208026 -0.31017792 -0.21030994 0.30782875 -0.15908872 -0.062527865 -0.096691914 -0.068828866 -0.40255556 -0.16308163 -0.049075343 0.37304473 0.31271937 0.21831 -0.16616859 0.06931032 0.08555993 0.09091555 -0.22357656 0.2434523 0.18312438 0.07384249 -0.18786328 -0.20477904 0.15003243 -0.1657529 -0.15180063 0.2686677 0.36214915 0.0054740324 0.1599704 -0.19603878 0.04298604 -0.10827949 -0.42187753 -0.15525663 0.02276058 -0.14879903 -0.12789933 -0.09579674 -0.08807913 -0.21053602 0.101567544 -0.03388724 0.044502385 0.106745705 0.026271237 -0.07929342 0.013720419 -0.0270491 0.40952742 0.22191428 -0.08257454 0.20318648 0.09755296 -0.09242025 0.14909486 0.14603144 -0.16322841 0.097207576 -0.01447956 0.12597613 0.053282876 0.038446564 0.33604553 0.31294933 -0.33718458 0.1377948 0.15020835 -0.26841027 -0.18359867 0.15835135 0.061026044 -0.05378986 0.14364944 0.08069044 0.07530191 -0.012535407 -0.0362023 0.2151414 0.033251688 -0.20600365 -0.0673034 0.21072511 -0.49891767 0.0050739744 0.23000579 0.17634413 0.030122884 -0.0434046 -0.12861982 -0.024078485 -0.045222692 0.1616333 -0.04524116 0.060346387 -0.110376336 0.088299274 0.077178985 0.32884127 -0.2438301 -0.15356353 0.18430747 -0.13758692 -0.4140425 0.026376158 -0.0077132406 -0.022969075 0.27634007 -0.19984587 0.008679625 0.03744487 -0.18795604 -0.25828934 -0.07104775 0.17536096 -0.051052067 0.11346858 -0.07277812 0.0010252522 -0.008694823 -0.039766982 -0.18909708 -0.09159107 0.15318447 0.09358633 -0.12573382 -0.020495279 0.054833896 -0.047311615 -0.19855711 0.13983224 -0.1782763 -0.39465746 -0.00824061 -0.1069371 -0.11724147 -0.056818087 -0.034078628 0.06533497 -0.22855829 -0.0389565 -0.047268756 0.013333752 -0.13268231 -0.13055165 0.1713277 0.20996438 0.28104237 0.15029396 -0.18672457 -0.28289443 0.088750124 0.12530713
금 -0.2742376 0.006279192 -0.11776544 -0.11475968 0.029505596 0.11209729 -0.062062778 0.11257154 0.14319135 0.104814656 0.288607 0.015297008 -0.05082926 0.04039398 -0.14235386 -0.06041573 0.16250968 0.10734557 -0.062099036 -0.04583272 -0.060854793 0.08359466 -0.0743624 -0.08164536 0.33009627 -0.013426771 0.04475875 -0.03966716 0.21327718 -0.26300487 -0.076442495 0.06839211 -0.040423684 -0.13823484 0.097732544 0.042638157 -0.06454308 0.048772894 0.086760186 0.09007423 -0.11353429 0.04851106 -0.01954454 -0.039249726 -0.23214258 0.33834165 0.0182549 -0.03426893 -0.023976969 0.10619281 0.18745567 0.0031285398 -0.010740666 0.24036372 -0.0049363147 0.028831203 -0.0645955 -0.15451466 0.13194454 0.06580023 0.25511208 -0.09525387 0.012785865 0.10578782 -0.043247193 0.2353299 -0.0025187063 0.28113753 -0.03995921 0.21732563 -0.034945033 0.01818162 0.20230359 -0.21203734 0.25467926 0.25035238 -0.03454535 0.123974524 -0.050916772 0.26139382 0.04624731 -0.07542805 -0.088279575 0.17519218 0.10116509 -0.11334486 -0.15215003 0.09798602 0.07867195 -0.024685662 0.023972087 0.02598978 -0.1534051 -0.3501828 0.030746663 -0.13980137 0.1909967 0.009105661 -0.15251721 0.010747944 0.03659938 -0.14361693 -0.014810657 -0.14889197 0.14622611 0.0039055173 -0.045923557 0.11429757 0.29695812 0.040111195 -0.263186 -0.2011139 -0.20949697 -0.089602515 -0.19325133 0.060712174 -0.10459141 0.052195076 0.015298643 0.122161366 -0.029788043 0.078298435 -0.11235497 0.011745094 0.036215045 0.17002454 -0.24766456 0.00071814767 -0.12875561 -0.07295382 -0.08922888 0.14081556 0.101526566 0.20165966 0.30893826 0.15381092 0.035276428 0.009850905 0.017034609 -0.040009025 -0.022195453 -0.11314883 -0.006863314 -0.2583986 0.1372385 -0.18126607 -0.063809246 -0.07724421 -0.12785596 -0.08574542 -0.18344255 -0.01143498 -0.024198636 0.0873484 0.12998986 -0.0226901 -0.035657674 0.14635345 -0.005343717 0.021465765 -0.26220107 -0.014164157 0.24197854 0.063244954 0.054955266 0.13188249 -0.09482822 -0.011711538 -0.16347252 0.13094097 0.0060727545 -0.085237265 0.28388494 0.014416965 0.082560666 -0.20440857 -0.26519907 -0.10952625 0.19509946 -0.14592795 0.00037572384 -0.05890603 0.13230193 0.014793555 -0.04339414 -0.18462966 -0.19114044 -0.09088403 0.06227144 -0.062124003 -0.10319205 -0.02012712 0.12092858 -0.14800945 0.24326222 0.3855627 -0.028426312 -0.121514834 0.024246527 -0.23008445 -0.15213925 -0.0019662376 -0.23810959 -0.18324205 0.08891105 -0.013584098 0.0029811508 -0.062687136 -0.20586576 0.06430765 0.16846533 0.06361797 -0.059710693 -0.119917296 0.045383565 -0.084392145 -0.14299813 -0.0152943665 0.072158754 -0.090686135 -0.097905576 -0.24291472 -0.12900822 -0.16522482 -0.04335599 -0.1005088 0.0666917 0.32794753 0.068576075 -0.06280444 -0.053094663 0.115714595 -0.013167615 -0.3161855 0.08844608 -0.17275162 -0.3102432 -0.15572555 0.14700921 0.36736444 0.3724261 0.026605263 -0.216662 -0.036303256 0.23441502 0.3378524 -0.046730854 -0.07824692 -0.03597193 -0.12090953 -0.13121592 -0.028924227 0.13841636 -0.0944675 0.09498611 0.18423906
그 -0.14380398 -0.08335255 -0.042675678 -0.08375249 -0.06125168 -0.049638137 0.044225253 -0.12390509 0.01719573 -0.012479893 0.09798375 0.15018132 -0.08273009 0.07075754 -0.05345081 -0.07674521 0.123701446 -0.13128875 -0.18777929 0.031029219 -0.019287424 -0.06804948 0.05375058 0.026680455 0.058239795 -0.065248854 -0.0959238 -0.002861814 0.0261641 -0.33951378 0.13174324 -0.07986443 -0.09568471 0.056168895 0.005435208 -0.07658994 -0.064059466 -0.07812951 0.1490612 0.05313998 -0.047989827 0.04392992 -0.035713512 0.03155018 -0.050706707 -0.1863985 0.10604784 0.0794111 -0.15029813 0.1978923 0.116335824 -0.17600201 0.040831607 -0.103035375 0.19836727 0.08943591 0.18466526 -0.21149889 0.09666252 0.047402773 0.111870565 -0.14547457 -0.2338443 0.088060506 0.030106561 -0.120491885 -0.0480526 -0.010752815 0.03824656 -0.076927826 0.022496594 -0.27531952 0.118175805 -0.17792791 0.1942737 -0.042911276 -0.2762932 0.1963527 -0.10082138 0.12009057 0.080275655 -0.08271669 -0.049826656 0.18484184 -0.1278353 -0.06710815 0.07585288 -0.14984737 0.0890179 0.1284327 0.08983298 -0.1085971 0.062025342 0.055185538 0.061421894 0.25401634 0.21539852 -0.04106826 -0.12609817 0.097154275 0.43512192 0.095078774 0.05207689 -0.124585375 0.14034706 0.01889901 0.063040264 0.056410763 0.05397671 -0.34812543 0.09933222 -0.12648125 0.2248796 -0.13262662 0.09659983 -0.10034927 0.10168659 0.17506535 -0.23705424 -0.10641048 -0.022943385 0.07449862 0.03759077 -0.10202085 0.011265215 0.28386316 0.09192588 0.14554963 0.063780524 -0.13469334 0.23482108 -0.010289733 0.06305915 -0.19807059 0.066267505 -0.14090522 0.059368413 -0.05639141 0.058504827 0.020737395 0.05331038 -0.15089074 -0.019875877 -0.1333367 0.06447715 -0.031795237 -0.045698833 0.16773921 -0.14587283 0.046373617 0.10732448 0.32065192 -0.06730041 0.037201807 0.15211238 -0.12761956 -0.019103346 0.092754476 -0.110016234 0.22091426 -0.039677806 0.109382 -0.00080789905 0.07816833 -0.06391657 -0.054869514 0.12314154 0.15352198 0.20257317 -0.10556404 0.016653143 -0.010420372 -0.08014367 -0.009430649 0.006659657 0.11073917 -0.0057084956 -0.10462932 0.017568931 -0.13557425 -0.060925357 0.0066278414 0.102116495 -0.10674032 0.13763703 -0.1480759 0.14992814 0.09096145 0.08270304 -0.21369855 -0.14482419 0.022445308 -0.12936123 -0.22023904 -0.18535955 0.32204694 0.12961316 -0.11174782 0.013178685 0.08672419 0.056033544 -0.14817514 -0.033508588 0.03047026 0.14136377 -0.07323927 0.101901546 -0.05552753 -0.011247099 -0.06514783 0.04337783 0.22384416 -0.0026562717 0.006281513 -0.011395344 -0.09011259 0.0550825 0.041619424 -0.037879456 -0.100513525 0.11349852 0.15636835 0.0141065335 -0.026656002 0.045885686 -0.03554004 0.0047333217 -0.100840874 0.05358807 0.028895117 -0.09996341 0.05799644 -0.1499831 -0.12549114 0.07974552 -0.049595855 0.023586744 0.019416643 -0.11953866 0.101107895 0.097370446 -0.08084993 -0.022081811 0.083198585 -0.022072118 0.21565379 0.04341174 0.023278782 0.11182566 -0.010956532 0.11100056 0.20619813 0.014537517 -0.12303283 0.14634866 0.045077235
입 -0.077363156 0.113669135 -0.05718873 -0.43403175 0.25829098 0.21477807 -0.024760824 -0.32444924 -0.09335536 0.20504066 0.12703073 0.06471032 -0.05881284 -0.1625268 -0.13570693 -0.11926424 -0.1529003 -0.0673311 0.06437612 -0.14284128 -0.28264815 0.16730209 0.02051017 0.020643584 -0.033171188 -0.46837336 0.05558091 -0.16479845 0.20557229 -0.10475157 0.1552432 -0.15733999 0.1076792 -0.01929421 -0.058444593 0.037929017 0.17207924 -0.14606783 -0.12802887 -0.038836736 -0.27887377 0.0024751588 -0.012785943 -0.010565957 -0.10266454 0.14059606 0.13647017 -0.022180121 0.0043860995 0.10165428 0.21769384 -0.00062593666 0.09598395 0.05320777 -0.33651206 -0.08551431 0.1360626 -0.08350328 0.43074486 -0.07304212 0.0406027 0.054418795 -0.20534307 0.16163038 -0.007160991 0.14790994 0.14233091 0.14648566 0.17873624 -0.16594772 0.2302939 0.07290977 0.3052123 0.044220705 -0.1732458 -0.1311128 -0.2558251 -0.13694505 0.16212122 0.06826093 0.091022745 -0.22758722 -0.01592799 0.27489418 0.14387774 0.26073572 -0.15569408 -0.2580579 -0.009208223 0.087018944 -0.14951865 -0.021035349 -0.07005413 -0.05623704 0.37436092 0.04990126 -0.001864706 -0.07339179 0.010580197 -0.06223595 -0.05842036 -0.0070615453 -0.14337404 -0.03223386 0.067855105 -0.014663175 -0.09116656 0.019621488 0.028193912 -0.116357304 -0.29807404 -0.13281009 -0.29919496 0.06442794 0.1776202 0.11498854 0.18806961 0.06589093 -0.06177184 -0.078639716 0.12889412 -0.113963485 -0.05792662 -0.042332135 0.14558831 0.09521883 0.025509998 0.19884455 -0.07593786 -0.1502065 0.10805437 0.37610307 -0.06757356 0.14977561 0.14481688 0.14772083 -0.22464462 0.014862924 -0.1190982 0.04123182 0.16647103 -0.054463673 -0.11866219 -0.34674022 -0.0076084356 -0.06570193 -0.07228845 0.060079336 0.18104193 -0.054976366 -0.011793164 0.28521457 0.05643913 0.23962702 -0.18455194 -0.106060736 -0.14823316 -0.09718735 -0.05319707 -0.17567961 0.017624527 0.009846874 -0.18246138 -0.06546651 -0.19949752 -0.15735233 -0.029935317 0.07218011 -0.29048425 0.14991446 -0.0791737 -0.14600998 -0.05846104 0.1897537 0.07930937 0.11013981 -0.18495277 0.02221406 0.069882564 -0.16499124 -0.15522668 0.16111228 0.12412125 -0.06138087 0.024320254 0.07520775 -0.043484464 0.16594292 0.06055871 -0.21564172 0.17638613 0.067746565 0.028555438 0.16241151 -0.07251685 0.13694581 -0.13918968 -0.010289304 -0.0057985988 -0.14579591 -0.085030295 -0.100406796 -0.30058315 -0.09102267 0.019655282 0.18682498 -0.09437538 0.26819548 -0.12844442 -0.23680831 0.31894085 -0.095969185 0.26004148 0.0634588 0.22766313 -0.039103955 0.15542403 0.056916974 -0.07045421 0.11837577 0.15379801 -0.11284466 0.01913007 0.027878137 0.11642175 0.17485651 0.007701195 -0.007925881 -0.08789694 0.115137056 0.06742104 -0.036652528 0.0706362 -0.42060348 0.13721102 -0.34246615 -0.059745975 -0.05799026 -0.24010198 0.10476983 0.11071369 -0.06503316 -0.0794936 -0.10367545 -0.03257321 0.16925389 0.024562255 0.35605794 0.082629986 -0.29076052 0.08085323 0.18649656 0.10580189 -0.24579626 0.21959393 -0.1315792
도 -0.13870393 -0.049783595 -0.16246736 -0.29608604 0.1791166 0.20304899 -0.0027423343 -0.0403006 -0.013153055 -0.0046831765 -0.033746637 0.20447579 -0.25980777 -0.17384335 -0.013383362 -0.16141257 0.23661567 -0.062873796 -0.2229316 -0.10528852 0.09656832 0.037586574 0.082116485 0.22946273 0.24372907 0.07410652 -0.19010845 0.016160043 0.06866186 -0.13003978 -0.2729679 -0.13244997 -0.09951485 0.12685102 -0.19814976 0.112469286 -0.027069084 0.11395605 0.093384154 -0.05581678 -0.18184076 0.04769227 -0.014809464 0.31446698 0.0069999173 -0.06942379 -0.12546298 -0.054173633 -0.08460536 0.19018608 -0.008789996 -0.12749806 0.36616984 0.07899455 -0.23964371 0.20384371 0.13923542 -0.18367971 -0.10748428 -0.10253985 0.0138357375 -0.15698624 -0.14503889 0.19389161 0.026069611 0.19126058 0.014641033 -0.01839869 -0.07318156 -0.025654482 0.26081002 -0.19340104 0.052089162 -0.14932728 0.09808963 0.22982773 -0.0964193 0.10361434 0.3934381 0.09797237 -0.23725821 0.027043253 -0.010636595 0.0062431335 0.24225612 0.1269586 0.11407192 -0.17696276 0.33373994 -0.20995617 -0.022300426 0.20660791 0.0007251631 -0.083729945 0.27327374 0.00953954 -0.23171446 -0.1869177 -0.122404575 0.19462217 -0.32405782 0.12791401 0.2069469 -0.21867132 0.00012340005 -0.05749468 -0.16756849 -0.15269645 0.02203197 -0.055408783 -0.045272022 -0.029983265 0.3357919 -0.002714219 -0.26974317 0.24568126 0.027793476 0.079512455 -0.2820342 -0.09862183 -0.04317337 0.13454615 -0.06013383 0.0077312216 0.11626558 -0.14312488 0.054028343 0.14569168 0.19771743 0.33004925 0.17509587 0.23347871 -0.035361182 0.058995508 0.21748304 -0.06444577 -0.25628874 0.049798302 -0.08743446 -0.39272368 -0.1689068 0.11736307 0.016086226 0.05117778 0.09417939 -0.0118946675 -0.22274391 -0.005732567 0.037964035 0.08279502 0.04077394 0.02953552 0.22258657 0.2907742 -0.044057697 0.41289276 -0.14675106 -0.26449537 -0.046344582 0.03769768 0.054315627 0.12288338 -0.14574826 0.36881983 -0.18624303 0.06529061 -0.09008336 0.114355035 -0.16659084 0.09287513 0.26834664 0.033680394 0.20387821 -0.14488067 0.28554916 -0.008418728 0.09501524 0.032686878 0.030422535 0.02929711 -0.07769823 0.35381636 0.29124525 -0.33322072 -0.21256098 0.3022636 -0.3021032 -0.114960715 0.07419271 0.1395737 0.034255244 0.20914389 -0.17440365 -0.16358045 -0.067497246 0.12222673 0.1997639 -0.0061348863 -0.052816097 -0.09097307 0.14689834 -0.17349449 -0.08871046 0.22141469 -0.024784148 -0.15682516 0.014279548 -0.026843965 -0.10012859 0.15279756 0.012716136 -0.043116484 0.12740807 0.091787554 -0.1953405 -0.06117441 -0.027346393 0.01898336 -0.1816695 -0.0122296875 -0.0520525 0.052463952 0.069135755 -0.10176234 0.010574929 0.056368854 -0.083310775 0.16611171 0.038411815 -0.03752125 0.38809916 0.010072287 -0.11785749 0.0006806444 0.07559038 0.105096795 -0.23083782 -0.24947217 0.007989005 0.071336456 -0.050549306 -0.13032751 -0.015702143 -0.023952652 -0.029740214 0.29076192 0.016797818 0.022659743 -0.0033677411 -0.07343386 0.16034189 -0.14048663 0.19337557 0.15393743 0.021175418 -0.13836308
카 0.023154084 -0.23526564 -0.0018837918 0.0020360646 -0.10600447 -0.08568957 0.032691307 -0.2113532 0.009407795 -0.23847264 0.15079008 0.18779334 -0.28005573 0.077733 0.008304113 -0.13840069 0.0663393 -0.32674015 0.08088642 -0.36327523 -0.001588132 -0.055310257 0.14176323 -0.17898679 0.10754447 -0.19857763 0.097927794 0.051407937 -0.12688155 -0.17123501 0.1299425 -0.010134233 -0.099761546 -0.40498057 0.06251869 0.055245318 0.10930293 -0.17049362 0.06984248 -0.12605001 -0.091214485 -0.166648 0.033966538 0.029001009 -0.22176702 0.12696837 0.09158839 -0.16267078 -0.010886794 -0.03328972 0.17250614 -0.07729052 -0.055305388 -0.10998168 0.0060102027 0.060724154 0.28491953 -0.122244775 -0.031612825 -0.114679255 0.26991758 -0.13373838 -0.018531505 0.08147387 -0.058140688 -0.14800708 -0.21300802 0.066399395 0.22927517 -0.10301672 0.35819435 0.06251357 -0.3546953 -0.24265562 -0.36846521 -0.39030883 -0.1254776 -0.006467808 -0.05160528 0.046854332 0.16273166 -0.1195875 0.10133276 0.18228477 -0.20947474 -0.043096967 0.30161893 -0.19390593 0.2523465 0.37614542 0.23761094 0.00452694 -0.18067573 -0.07646684 -0.08373394 -0.24455762 -0.17292584 -0.27647457 0.02852027 -0.10243779 0.03408742 0.07747087 -0.07839746 0.009293094 -0.18648699 0.20791385 -0.22581887 -0.22125027 0.072565 -0.047067683 -0.32131308 -0.09341177 0.026727352 0.47722828 0.008830579 0.10468644 -0.21622734 -0.13338646 -0.19421442 0.15482593 -0.10480368 -0.077141255 -0.09127403 -0.07373705 -0.073915794 0.004534306 0.1153808 -0.14983842 0.11941472 0.07571418 0.101380825 -0.09133219 0.2774984 0.10363878 0.05442285 -0.29843006 -0.17390677 0.28123936 -0.28912795 -0.16275218 -0.07932826 0.23947544 -0.12745132 -0.07524704 0.09643502 -0.053056307 -0.014494756 -0.025442263 0.096404806 0.014817339 0.14572759 0.24837828 0.094173215 0.22009519 0.1879645 0.2727843 -0.050603263 0.12476808 -0.15208091 -0.093042195 -0.2888068 0.26783103 0.18000874 0.06030198 -0.26178673 -0.097102106 0.5610583 0.032184564 0.23719606 0.09310007 0.25160873 -0.06988324 0.5116675 0.13241762 0.42565584 0.20197748 -0.30224946 -0.018506829 0.35451913 0.010119391 -0.23154198 0.18513168 0.4424209 -0.35336834 0.29229274 -0.04468292 -0.11074188 -0.0374134 0.27846888 -0.010738547 -0.04785618 -0.2549592 0.17611603 -0.011950735 -0.057142656 -0.015354449 -0.2552319 -0.030968707 0.012330916 -0.202679 -0.07206872 -0.124109514 -0.024382733 -0.15555975 -0.11636858 0.23017202 -0.35694382 0.0068974188 -0.10257942 -0.11153148 -0.13569018 0.05366714 -0.017732676 -0.019703351 -0.29718336 -0.28968692 -0.20246775 -0.23737483 0.17296498 0.08773585 -0.17321995 -0.13021784 -0.16933866 0.140244 -0.021298984 0.23934545 -0.26050547 0.041681625 0.49887246 0.056386936 -0.001381343 0.0045980914 -0.020005267 0.27588153 -0.010038682 -0.13919128 0.1921288 -0.22258647 -0.14194867 -0.2716899 0.123783045 -0.22234127 -0.078768305 0.018672125 0.11399226 -0.36683488 0.091078185 0.025081769 0.04659543 -0.07639416 0.09416615 -0.09349949 0.09689234 -0.21136524 0.4632519 -0.15999663
탁 -0.15512884 -0.22996728 0.26889482 -0.111668296 0.36722395 -0.19343884 0.074817516 -0.18517779 -0.14853519 -0.20707282 0.22896338 -0.054539047 -0.54451424 0.552475 -0.024542296 -0.018509317 -0.09315206 0.21957411 -0.2716803 0.33009726 0.12902363 0.11657075 0.10190541 -0.20689027 0.33450866 -0.3030866 -0.27932638 -0.11098153 -0.07411576 -0.24995582 0.17182305 -0.2928356 0.18554312 -0.18334705 -0.092291534 0.16571558 0.32106954 0.2059456 0.084484145 0.25657988 0.12287767 -0.26544827 0.10555903 -0.09156325 0.048123714 0.23717052 -0.27298567 -0.083457544 0.32768178 -0.05471839 -0.11127692 -0.19089615 0.13422431 -0.16108145 -0.001048824 0.23375955 0.27105066 -0.18695797 0.06691295 0.06276706 0.030925743 0.17824316 -0.021350555 0.31043977 -0.32681775 0.19572687 0.022485996 0.15359451 -0.23437883 -0.0859746 0.033660397 0.20953698 -0.3089346 -0.65368414 -0.23035671 -0.27700868 0.059063744 -0.21654986 0.1393676 0.037184283 -0.029755138 -0.20382532 -0.115476094 0.05374349 0.054693125 -0.023721833 0.08509793 -0.23767163 0.2847285 0.12972982 0.19828415 0.33030838 0.08243825 -0.30521855 -0.09499414 -0.063350305 -0.14318009 -0.19876987 0.34722525 0.046459604 0.088986024 0.1641633 0.0798234 -0.2265198 -0.47591984 0.25629544 0.060968995 0.19174482 0.12466073 0.5016691 -0.50298107 0.15500334 0.039444238 0.12696362 -0.12306822 0.16946311 -0.3115728 -0.20365947 0.068185925 0.031329416 0.058211718 0.02457686 0.15482968 0.2316243 -0.24951197 -0.17634118 0.38382217 -0.016833266 -0.16587484 0.16327569 0.03949763 0.020120898 0.084658675 -0.04027109 0.6079964 -0.14793187 -0.30657697 0.17518075 -0.43084618 -0.1253063 0.020957055 -0.114427485 0.073133074 -0.12054917 -0.1420332 0.2811601 0.17537664 -0.06453015 -0.042104386 -0.36542532 0.35966793 0.23791733 0.598915 0.23540056 -0.09822503 0.21216692 0.061229136 -0.3157413 0.3367877 -0.09251078 -0.1187568 -0.22896813 0.060224976 0.32499093 -0.109524995 0.12797862 0.4286951 0.20254213 -0.25295419 -0.065490335 0.013294896 -0.20938903 0.026695494 0.21438281 0.06002097 -0.035626773 0.01191209 0.0051353225 0.15888165 -0.13295463 0.09541831 0.5428069 -0.48188767 -0.40247804 0.10713536 -0.11092219 -0.5042619 0.11212555 0.26229778 -0.0423222 -0.111360535 -0.089128256 0.16956846 -0.16641161 0.006613781 0.39751893 -0.08899713 0.3987094 -0.22975975 0.019595258 -0.13265291 -0.19081588 -0.2915645 0.10607699 -0.22881792 0.11804589 0.03411118 0.22103925 -0.24074426 0.097016826 0.15439866 0.37035096 0.16242506 -0.11011933 0.14131716 -0.305296 -0.040779393 0.14208026 0.018162377 -0.06256228 0.059403747 0.024474535 -0.34290478 -0.094930455 -0.13142583 0.34864846 -0.052446023 -0.09278317 -0.024174634 -0.1381803 0.14239867 -0.21135202 -0.13480535 -0.09483501 0.024471734 -0.33021042 -0.085467994 0.05883288 -0.24359624 0.29086128 0.10001237 -0.050489895 0.017805418 0.022445004 -0.24403514 0.046118043 0.063028514 0.27151302 -0.18836522 -0.27394292 0.12848957 0.18038273 0.040734358 -0.17026398 -0.089826986 0.037892208
품 0.21697067 0.016754298 -0.10375864 0.017427858 -0.20933314 -0.111447126 0.06629661 0.15895258 -0.38025227 -0.07634107 -0.067583054 -0.025209635 -0.3659166 -0.055663936 -0.18796122 -0.15806127 -0.25341114 -0.20265535 0.06149368 -0.025760928 0.111122854 -0.027307266 -0.10745609 0.20247252 0.21259551 -0.019296076 0.1594475 -0.13687679 0.39325145 -0.35487384 -0.09551562 -0.3471617 0.247817 0.0528492 -0.24290186 0.21527839 0.14211029 0.19580743 -0.16706505 0.015787572 0.02341928 0.37803262 0.06243827 0.049130753 -0.10944962 -0.33211535 -0.027586091 -0.014973638 0.3288494 0.3267066 0.029495146 0.18342324 0.05072512 -0.13716267 -0.047546078 0.21237358 -0.24235332 -0.057578746 0.13421468 0.012499735 0.0158816 0.012272746 0.085154 0.00804452 -0.17935154 0.016297055 0.029450804 0.047190305 0.055115577 0.06297356 -0.20066422 0.3854205 -0.15526827 -0.21653941 -0.13873346 0.21210948 0.3282308 -0.35223246 0.04528867 -0.24656788 -0.090823226 -0.15442327 -0.0725583 -0.1295886 -0.1346039 0.105506994 0.22278081 0.08296205 0.027483303 0.22879662 -0.051242348 0.11623593 -0.12822138 -0.12577216 0.029164847 -0.18263681 -0.005415763 -0.4820384 -0.21817906 0.31433883 -0.18161926 -0.05746085 -0.105044395 -0.24056716 -0.11538997 0.03107421 -0.095277 -0.015019196 0.3000795 -0.3384488 -0.24533643 -0.36202717 0.13182756 -0.0061808713 -0.10373198 -0.1715268 -0.41086277 0.021711307 -0.07284818 -0.19770814 0.011066417 0.2515137 0.049115036 0.02272585 0.12254856 0.02589306 0.0072389557 0.035703637 -0.1280372 0.26948658 -0.015294324 0.08400413 -0.06281706 -0.1957328 0.28576085 0.12095475 -0.0453946 -0.019477885 -0.0030502938 0.014091156 0.25169572 0.010047896 -0.12471803 0.10012494 -0.081279404 0.26235288 0.10662636 0.019890469 0.12833959 -0.049769577 0.2547096 0.056124575 0.061764408 0.13390382 -0.0956162 -0.004769539 0.058244824 0.020698197 -0.066693276 -0.17978548 -0.11089301 0.056637324 0.015783876 0.13045534 0.054028176 0.015510355 0.0045762383 -0.15472382 0.12654427 -0.053962838 0.26082385 -0.33749363 -0.09915034 -0.061608914 0.0039027815 0.14130118 0.07361482 0.2032501 0.032049682 0.01033095 0.0075427797 -0.068838336 0.1590155 0.03600796 -0.15707071 -0.20754014 0.08513236 -0.014902508 -0.008980891 -0.0717924 -0.031689964 0.16726863 -0.057518624 -0.07094137 -0.04423535 0.13130505 0.07528239 0.19625747 -0.19229709 -0.10151759 0.07560338 -0.04731935 -0.4296238 0.25580817 0.41893727 -0.04905039 0.23303011 -0.1021223 -0.0759065 0.23978618 -0.1740933 0.155886 -0.0020067256 -0.044204447 -0.039673015 0.14099717 -0.003622988 0.19897251 0.09723943 -0.06956231 -0.15122648 -0.22879739 -0.14332633 0.05050506 -0.047056817 0.2928071 -0.011913016 0.12925893 -0.04287086 -0.24254517 0.3386082 0.089087434 0.0044721784 -0.035020735 -0.17195491 -0.21084222 0.12385724 0.08701299 -0.08541051 0.1255333 0.42722687 -0.35251957 -0.3402203 -0.010577718 -0.0035856368 -0.011750326 -0.24632142 0.0041054804 -0.18886337 -0.13639006 -0.07123654 -0.19580424 0.096692584 -0.24264891 0.16182287 0.2999459
