764 256
' -0.047455605 0.048634198 0.01093202 0.015616975 -0.09259084 -0.11387752 -0.19948362 0.025675409 0.024409037 0.06564202 -0.048434384 -0.069319054 -0.012080533 0.12056659 0.09214537 -0.019321028 0.068144016 0.070471026 -0.06962606 0.08945421 0.117917225 0.024139678 0.031352736 0.18631192 0.14727911 -0.06843597 -0.17087963 -0.031667102 -0.08302442 -0.092852786 0.040488787 -0.09139373 -0.09635682 -0.043820053 -0.023142835 0.07098155 -0.052538015 0.07558239 0.027891228 0.043737713 -0.051885616 -0.14076646 -0.07669348 0.008491416 -0.045525495 0.00087836094 -0.11249855 0.038720753 -0.016909998 -0.0050228224 0.014291378 -0.093973726 0.010647243 -0.05103491 -0.012151885 0.048061617 0.16514693 0.036181938 0.06115985 -0.052323844 0.08470037 0.1140324 -0.034622185 0.03617523 -0.019773977 0.14232962 0.046741277 0.045233082 -0.013798134 0.18906623 0.01663452 -0.08618861 -0.088227145 0.16554841 -0.0027419636 -0.09434579 -0.07338631 0.01433512 0.1449266 -0.22423361 0.04178434 -0.06545798 -0.08228044 0.2250346 -0.011272489 0.014995392 -0.014308487 0.07854168 0.07218942 0.15512477 -0.028646993 -0.012266878 -0.029550781 -0.17117937 0.06751456 -0.018948654 0.22960122 -0.07561619 0.0012225623 0.014379648 0.14135861 0.0021939569 0.15085137 -0.062236693 -0.0146764135 0.013339553 -0.026752593 -0.087321736 0.05604766 0.077264406 0.092530996 0.09350725 0.13850403 0.004517601 0.06614785 0.00847692 -0.022525612 0.0024100847 -0.11581111 0.13553126 0.05181749 -0.0569152 0.010881507 -0.15215251 0.08085351 -0.13600351 -0.06336384 0.0021053236 -0.11610309 -0.02490584 -0.03315707 -0.0757108 -0.09322809 0.007999966 -0.012074197 -0.09507032 0.039048288 0.052878212 -0.009132751 -0.008627534 0.03178216 -0.02249058 -0.004828062 -0.071028754 0.104978494 -0.0170504 -0.06833469 -0.009135376 0.063390836 -0.059713308 0.04695668 0.0960599 0.054858375 0.06784051 0.033224925 -0.061630424 -0.008013485 -0.0025230546 0.08151711 -0.06224791 -0.02092653 0.115482636 0.021668497 0.00022801559 0.018883316 0.10485342 -0.12602355 0.07802 -0.060414363 -0.06129873 0.019553294 -0.15602389 -0.018029813 0.002573698 -0.009318558 -0.013764431 0.081428885 0.089341864 -0.04216376 -0.03840535 -0.10928626 -0.07237464 0.1357253 -0.1686808 0.07812805 0.06716036 -0.026343051 0.022880081 0.041738603 0.056824863 0.034177326 -0.08135447 0.013916519 -0.104467645 -0.08887228 0.039028842 0.14955294 -0.09884225 0.022420434 -0.048300676 0.010064449 -0.056997065 -0.001893569 -0.051081203 -0.056355897 -0.030987535 0.057747114 0.052937623 0.07828706 0.074559 0.02322271 0.012720802 -0.011363479 -0.01649418 0.028691344 0.041533258 -0.10771112 0.023601124 0.018845582 -0.17522907 0.086309016 0.083765976 -0.020854922 -0.0058218464 0.11338143 0.041840408 0.03635728 0.011077575 0.007894949 -0.059831806 0.12550993 0.12298724 -0.11186899 -0.123450756 -0.0687473 0.0026513564 -0.09845242 -0.06993239 -0.072499774 -0.08740061 -0.10424222 0.081300214 -0.08432403 0.03159973 -0.063251 0.10736431 0.044343773 0.08951837 0.060280256 -0.04325977 -0.047049828 0.048487186 -0.015257705 -0.20529832 0.049826637 -0.07287592
, -0.015599587 0.081649005 -0.051471245 0.012941397 -0.1554051 -0.13915886 -0.19105355 0.003926361 0.012927502 0.056167517 -0.020369068 -0.023110049 0.01649408 0.06606954 0.038450155 -0.03129363 0.03361568 0.043454275 -0.10969604 0.053242 0.060880926 0.0051341504 -0.037744273 0.188456 0.12195387 -0.10121103 -0.057079505 -0.07752032 -0.029126808 -0.039403904 0.042615034 -0.14458364 -0.025380386 -0.008440235 -0.013229966 0.02327118 0.021278663 0.057153158 0.07363852 0.041240506 0.021445507 -0.05788878 -0.040431403 0.065261304 0.025806988 -0.01384431 -0.15913609 0.0040878593 -0.11234096 0.015370898 0.05197671 -0.07494085 -0.0036668063 -0.08133929 -0.05063717 0.0070781726 0.05797778 0.01955027 0.06971767 -0.0456459 0.037877783 -0.0016735404 0.06658868 0.061595533 -0.0031497693 0.13756697 0.12088845 0.092062645 -0.031807963 0.12114359 -0.03914276 0.021984328 -0.082063094 0.05720953 -0.044804893 -0.15429579 -0.11227921 0.005200463 0.11466388 -0.17292131 0.10369937 -0.11051307 -0.07469883 0.12619407 -0.050416984 0.023749765 -0.03258779 0.06717224 0.026436532 0.15982586 -0.021170564 -0.0057925666 -0.00033833378 -0.119698204 0.030143995 -0.016972102 0.21418601 -0.028257895 -0.020499317 0.0173046 0.1907953 -0.014160809 0.14293982 -0.031274173 0.021174444 0.009598989 0.04438422 -0.09450199 0.078054495 0.17833218 0.0826104 0.07142434 0.14081706 -0.032974053 0.04139964 -0.02475626 0.030148173 -0.07593135 -0.20384097 0.11272806 0.1025208 -0.03387369 0.001025468 -0.20990732 -0.016994912 -0.19116099 -0.14042269 0.093743026 -0.06311496 0.030849475 -0.083080776 -0.10058201 -0.08326715 -0.027065521 -0.054588273 -0.10274221 0.059359767 0.13459001 -0.0453252 -0.072775535 0.09603563 -0.11045734 0.08106839 -0.12374627 0.126475 -0.051987663 -0.038698 0.0039353464 0.060222026 -0.040858414 0.14187331 0.12828916 0.015223568 0.09258881 0.0015726651 -0.022103155 -0.022906544 -0.044736568 -0.038410123 -0.03455345 0.009069084 0.076946504 0.108346574 0.0017723625 -0.029047426 0.07988329 0.013570507 0.09337572 -0.09803821 -0.08303438 0.026920017 -0.16286698 0.053805552 0.03892064 -0.0072796266 0.0038934636 4.0706736e-06 0.07823627 -0.0435516 -0.030910708 -0.1361831 -0.129748 0.13065429 -0.116491154 0.030036129 0.039987434 -0.0017105562 0.08155724 0.069615014 0.12739909 0.03762055 -0.15038215 -0.0025957543 -0.14109479 -0.07568271 0.038618315 0.06082601 -0.10554239 -0.06356874 -0.09065958 -0.0051313904 0.011852158 -0.039031338 -0.012256222 -0.06249623 0.021819446 0.058870833 0.029157067 0.056179393 0.050945256 0.043228667 -0.016566113 0.06290618 0.0021231787 0.015984716 0.05946282 -0.10208169 0.055350646 0.002161278 -0.18768443 0.10165891 -0.007347603 -0.060085688 -0.03763871 0.13929918 0.033566996 0.042331968 0.034967978 -0.021586932 -0.035525233 0.11441061 0.12812702 -0.08100668 -0.12969387 -0.085697934 0.017676715 -0.023615215 -0.08968147 -0.07877076 -0.10866944 -0.11837554 0.06616669 -0.09963587 0.007943375 -0.09868019 0.12946504 0.03813489 0.005718449 0.046025544 -0.052957635 -0.07844949 0.03589442 -0.04338558 -0.23215838 0.029416692 -0.10475292
  -0.12991126 0.06904422 -0.053595897 0.029305728 -0.1336701 -0.14876576 -0.23583235 0.045306183 0.0025062545 0.038609747 -0.03383023 0.003236077 0.045731492 0.07153434 0.10661562 -0.022614881 0.040332388 0.1483038 -0.023604793 0.1588918 0.07567376 0.0013251492 -0.06828401 0.16561855 0.20886275 -0.06507438 -0.090956055 -0.08076672 -0.061077535 -0.07187214 -0.010501157 -0.034101892 -0.001959965 -0.047543567 -0.011356269 0.045753047 -0.037244003 -0.05299638 0.048381843 0.041743457 -0.092886366 -0.16225572 -0.045170896 0.10432769 -0.021000592 0.0031792435 -0.07231404 -0.027840804 -0.0885745 -0.068770416 0.033212896 -0.11040125 0.0431987 -0.015966076 0.022482647 0.052826684 0.09632928 0.054438207 0.01947896 -0.01482896 0.1157976 0.08437155 -0.0124142915 0.08944686 -0.021925164 0.14006342 0.15160073 0.053739734 0.0002712081 0.17793344 0.021264344 -0.074059 -0.04471831 0.095592506 0.022932416 -0.099022426 -0.01465185 -0.0016179951 0.10760757 -0.15667333 0.062467296 -0.0063161855 -0.097602844 0.118583985 0.022905849 0.034757458 -0.017972447 0.08768636 0.1090605 0.09518322 -0.069358125 -0.06192042 -0.046397228 -0.149961 -0.030011566 0.030514631 0.19135588 -0.077700034 -0.014825614 0.08276956 0.15765029 0.023450917 0.12641503 -0.056427088 0.049974862 0.078767575 -0.039697193 -0.060889818 0.0060892585 0.15037844 0.04067237 0.11556421 0.05746789 -0.04945492 0.05161797 -0.0060217613 -0.020640561 -0.037161563 -0.060293783 0.06245932 0.031776354 -0.011075531 0.03276003 -0.16177812 -0.023104535 -0.10859576 -0.09998468 -0.000468632 -0.0321465 -0.04416859 0.019494642 -0.094673485 -0.1408535 0.035097174 -0.0058785602 -0.09943689 0.024204087 0.14477524 0.021197168 -0.030394958 0.056802258 -0.049764957 0.04140013 -0.06534194 0.12821457 -0.06477485 -0.037204724 -0.031649858 0.12891674 -0.14757343 0.12101293 0.10010322 0.039250456 0.10285062 0.070508175 -0.034814842 -0.106817305 -0.018668232 0.059270725 -0.027279248 -0.067628644 0.111840375 0.023362365 0.018263575 -0.020837726 0.080308296 -0.07598076 0.12412282 -0.0961853 -0.07190698 -0.025976067 -0.1812389 -0.017711664 0.0071027214 -0.046391323 -0.018148083 0.027683834 0.099201396 -0.022535201 0.004602287 -0.044101477 -0.020074628 0.12634651 -0.18604426 0.106790796 0.14450863 -0.051903233 0.09706502 0.060375765 0.112696305 0.04841915 -0.089554094 -0.0038310997 -0.119495444 -0.069882065 0.036236547 0.046102993 -0.09216887 0.04533489 -0.042329337 -0.11973063 -0.024475258 0.041601647 -0.010411067 -0.08508679 0.020687498 0.03516021 0.12273526 0.07067894 0.017193642 0.027928937 -0.058493532 0.0014788768 0.000171375 -0.024094893 -0.011058716 -0.07028229 -0.040052503 -0.015235674 -0.114440724 0.14751537 0.046381965 -0.027566088 0.0023344974 0.049434938 0.042145513 0.07893877 0.005498003 0.034626678 -0.024395932 0.10174087 0.055685624 -0.1475962 -0.15760385 -0.02780087 0.017929582 -0.078769356 -0.061851773 -0.00400174 -0.036435314 -0.12722602 0.109736934 -0.11549565 0.034347598 -0.09376858 0.11566187 0.04412653 0.06271293 0.032070026 0.019102328 -0.063131966 0.023164455 -0.029678762 -0.19900152 -0.013294179 -0.06993824
니 0.11274042 0.15011464 -0.039858487 0.015128821 -0.095751226 -0.24457043 -0.14005128 0.17841421 -0.030444562 -0.030762225 0.049935002 -0.092031986 0.15478443 0.13072088 0.09611189 0.12736352 -0.07052098 -0.016616883 0.045107685 0.18168205 -0.27191204 0.005416575 -0.07006049 0.2312162 0.2269904 -0.19906944 -0.13104904 0.066929564 -0.15177621 -0.14940108 0.07395971 -0.11983008 0.027982911 -0.02259734 -0.09037987 -0.08417125 0.05733958 0.12806493 0.0025279457 0.19950897 -0.13308537 -0.20216145 -0.007004238 -0.1419359 -0.15723528 -0.040865988 0.05339793 -0.1774697 -0.07560101 -0.06394748 -0.0045405985 -0.058032 0.0946577 -0.10374874 0.036004733 0.250975 0.34592596 -0.07071361 0.23982064 -0.15600689 -0.032830495 0.09695971 0.04149218 0.037900656 -0.053657625 0.13413303 0.033935454 0.090268105 -0.0713477 0.096042395 0.10915624 -0.09752408 -0.1143961 -0.029689716 -0.038021598 -0.20122984 -0.057974294 -0.05131415 0.028360484 0.15332101 0.12303738 -0.11777414 -0.18734424 0.164368 -0.055648938 -0.07506379 -0.0952009 0.07976258 -0.03368369 0.094357565 0.06040493 -0.09367491 -0.042627007 -0.27135965 0.037237488 -0.1598724 0.3268787 -0.09538472 -0.1555976 -0.031207958 0.08677343 -0.11228112 0.023062263 -0.16651209 -0.12709074 -0.029153312 0.12060431 -0.07310772 -0.16166171 -0.07369304 -0.046231735 -0.08461554 0.055206105 -0.07311197 0.015985584 0.015654055 -0.0074096736 -0.20067112 -0.1390505 0.01643412 0.0652519 -0.020180454 0.019955022 -0.3374878 0.19221343 -0.009532158 -0.10247964 -0.055852827 -0.10550131 -0.21384962 0.049099952 -0.1804083 -0.23007989 -0.14033286 -0.012593622 -0.16815892 0.05532015 -0.008432797 0.1613292 -0.080727585 0.10984346 -0.09178998 0.08982832 -0.13069049 0.20261458 -0.05968593 -0.18494242 0.18278395 0.061065502 -0.026282916 0.31746912 0.15206052 0.007859909 0.17946395 0.01998666 0.09373384 -0.15115543 0.179312 0.16180839 -0.027764784 -0.00095696695 0.33673218 -0.005516742 0.019419944 -0.17729807 -0.0881682 -0.032725498 0.097169414 -0.18487772 -0.14849539 -0.2243254 -0.24904925 -0.05928521 -0.004992127 0.04019336 0.1270345 0.06632421 0.13989921 -0.064628266 0.011654653 -0.18563269 -0.014346415 0.12598886 -0.18631414 -0.047721967 -0.025044087 -0.16927367 0.0043686735 -0.1508099 -0.038607154 -0.07326609 -0.06883998 0.06539531 -0.16290826 -0.09406578 -0.026750777 0.16958177 -0.06390453 0.17147017 -0.054911625 0.024740618 -0.036046363 0.096492976 -0.054759458 0.12631938 -0.013718185 0.13903114 0.0978211 -0.09303903 0.026745465 0.17248352 0.07036076 -0.08786809 0.27429613 0.13742454 -0.0019049079 -0.26029533 0.0075662034 0.095577 -0.3288696 -0.03444966 0.1755127 0.02848802 0.00795908 0.38697812 -0.05360144 -0.14102812 0.09717407 0.07527258 0.15647128 0.010033929 -0.05688476 -0.09680613 -0.07933717 -0.1318173 0.11885195 0.08855123 -0.08465929 -0.008505278 -0.014084895 -0.10351299 0.15721726 -0.089733675 -0.1234764 0.13242896 0.07151019 -0.04421621 0.2733371 0.14471981 -0.13934964 -0.27812606 -0.17880258 0.0935191 -0.1458764 0.10096316 -0.0298388
다 0.10993644 -0.12667307 -0.012995097 -0.052674696 -0.13499953 0.0026305676 -0.18737271 0.043168154 -0.042926665 -0.04639132 -0.075813696 -0.11509818 0.0023078434 0.040105484 -0.025252394 0.13325624 0.08760706 0.1468952 -0.0620495 0.11998365 -0.03795425 -0.07867044 0.033330873 0.04616487 0.19325522 -0.13576896 -0.1414455 0.10335124 -0.18728429 -0.20782156 0.058152314 -0.221637 -0.07830297 -0.117507406 -0.09848436 -0.05587747 -0.04296868 0.19509487 -0.1604319 0.043447603 0.03281015 -0.20759547 0.047705505 -0.045248862 -0.10772981 -0.1865317 -0.056192763 -0.0433925 -0.028089777 -0.07199195 0.06590015 0.04850734 0.004676912 0.09677493 0.018061455 0.09418831 0.13066915 0.12629868 0.20033745 -0.07423868 0.17777495 -0.0059911855 -0.05284684 0.027539657 -0.035670746 0.07887021 -0.020982945 0.03630926 0.034439355 0.06605607 0.1385148 0.11261333 -0.2103663 0.050307196 -0.17475113 -0.3380881 -0.061064623 -0.08937059 0.19575678 -0.12850209 0.0797705 0.006197194 -0.16259345 -0.03102295 0.0848427 -0.012738417 0.011293157 -0.016151873 -0.15163922 0.10849005 0.014820557 0.051850695 -0.043135308 -0.17717765 0.083912924 -0.037302196 0.25968164 -0.06924304 -0.07978946 0.072630785 -0.008239551 -0.09183635 0.08724935 -0.2639113 -0.1705089 -0.023060035 0.072192654 -0.041098393 -0.17803076 -0.0349308 -0.0034702448 -0.012105185 0.035923973 0.10649239 -0.04932986 0.024762688 -0.064115636 -0.13925955 -0.15084894 0.046504114 0.07888728 -0.10312793 0.10474041 -0.10793132 0.08187601 -0.13150106 -0.093079604 -0.20486933 -0.07432357 -0.20584807 0.1175418 -0.16033736 -0.29142937 -0.1450054 0.010006661 -0.010277423 0.27524373 0.121525235 0.0613366 -0.16741008 0.21031605 -0.074819855 0.10918308 -0.0135869915 0.09651858 -0.09703391 -0.0743093 0.16250595 -0.01752475 -0.17724486 0.13575082 0.24510305 0.22685832 0.083110124 0.11526887 -0.055657092 -0.1806325 0.083832 0.015735092 -0.037221134 -0.064768225 0.4203523 0.05711468 -0.07013569 -0.19398455 0.18152687 -0.08860944 0.23634337 -0.1264403 -0.06025386 0.056218915 -0.21051818 -0.16304268 -0.016059875 0.094974734 -0.050240524 0.17617087 0.08773858 0.051786147 0.05567696 -0.18231273 -0.101314045 0.32111558 -0.13463418 -0.0439039 -0.110056154 -0.17476122 0.19742271 -0.050985128 -0.01061692 -0.1470841 -0.12909743 0.07299067 -0.12280851 -0.02294849 -0.1272297 0.32515553 -0.053584926 -0.02376706 -0.20828584 -0.06100315 0.02249677 0.057452857 -0.14096814 0.10849147 -0.15781488 0.12366384 0.014483324 -0.09201861 -0.056168187 0.08788816 -0.006417206 -0.11419088 0.22257979 -0.015012787 0.034552924 -0.11204349 -0.20649536 -0.1939093 -0.18588327 0.071796015 0.23268592 -0.014026321 -0.061741833 0.29124653 -0.10202662 -0.025797475 0.14420235 -0.021451233 0.07709122 0.013913801 0.08469464 -0.053166486 -0.21882598 -0.13187316 -0.12445923 -0.13768958 -0.17755035 -0.08557278 -0.10532651 -0.045921534 -0.07043763 -0.06354685 -0.047778577 -0.07796375 0.037322056 0.0907511 0.06924367 0.09104075 -0.29341635 -0.31329694 -0.052702956 -0.039388802 -0.28999975 0.15639177 -0.1359327
네 0.012620055 -0.027784426 -0.079755865 0.09113965 -0.22675255 -0.24351433 -0.062754855 0.18580028 -0.012059275 0.11300376 -0.023800466 -0.056955483 0.03086769 0.2588578 -0.08077871 -0.10856989 0.005642165 0.09803149 0.118002295 0.200854 -0.015983153 0.08311712 0.13917635 0.10783926 0.16522028 -0.17844231 -0.07778491 -0.1349857 -0.21034406 -0.051055975 0.17539588 -0.077108264 -0.17451581 -0.03361934 -0.16649863 -0.2833952 -0.10994679 0.027397798 -0.10740941 -0.055108752 -0.17136581 -0.15529442 0.20357248 -0.18424724 -0.010694601 -0.07312859 0.09064441 0.029225288 0.03376532 -0.12951374 0.15521783 0.08371092 0.16725844 0.056352448 -0.0029203913 0.06387622 0.16641952 -0.097334094 0.04327258 -0.16449563 -0.039918266 0.115028515 -0.13458546 0.09168272 0.02591391 -0.09728491 0.024424931 0.11332278 -0.08939266 0.11418579 0.2081075 -0.11042074 -0.07829852 -0.051722635 -0.04808551 -0.21131273 -0.20266218 -0.101104915 0.17308201 0.087646484 0.11559403 0.05678795 -0.12724027 0.05632808 0.046189003 0.018439995 -0.11858569 0.029084861 0.025192661 0.057355877 -0.06211881 -0.030094378 -0.1378512 -0.290626 -0.018891843 -0.26604223 0.31796262 -0.15876326 -0.17937322 -0.0044026957 0.11475108 0.032020878 -0.021671649 -0.19735932 -0.15287541 0.14702709 0.046685833 0.022854643 -0.16158776 -0.0017029976 -0.099215314 0.123335145 0.19072601 0.044744022 -0.13377623 0.021507079 0.0757741 0.095238864 -0.0634205 -0.05436402 -0.07828894 -0.20898932 -0.14153759 -0.20451292 -0.028687496 -0.18692519 -0.029478805 -0.07287859 -0.08499159 -0.12166519 0.03948511 0.0013440914 0.05546297 -0.107819125 -0.08712458 0.042167597 0.033864398 0.122317776 0.039769527 -0.11778774 0.19147976 -0.19517162 0.06582158 -0.1860152 0.17606696 -0.06087934 -0.034367397 0.16033956 0.0045649908 -0.1400457 0.24722826 0.13916504 0.026329618 -0.008879309 -0.02561836 -0.016651437 -0.06181583 0.028529335 -0.0065121674 0.06314575 -0.07109445 0.26936188 0.09534679 -0.057266917 -0.101195395 0.0019173784 0.06637219 0.0873378 -0.018152429 -0.06420021 0.19066316 -0.03482555 -0.02366097 -0.101032905 0.046559524 -0.03504214 -0.04771858 -0.01666279 0.069293104 0.08193802 -0.4012819 0.094878815 0.24286348 -0.08850094 0.087397076 0.030870423 -0.17530553 0.08369464 -0.2671732 -0.011366428 -0.109496236 -0.19985533 0.098724514 -0.29085144 -0.105637155 -0.10796201 0.13760829 -0.13431989 -0.06053336 0.124930546 0.18695483 -0.054872938 0.05958554 0.1220596 0.06286863 0.071430534 0.35099775 0.15170394 0.07649642 -0.115537114 0.06865027 -0.00866057 -0.022816377 0.36179453 0.16580361 -0.011179237 -0.07509978 0.0388933 0.015949454 -0.067178145 0.024914915 0.22707388 0.18821009 0.020406494 0.11479681 0.011295126 -0.21260889 -0.04858588 0.09050147 0.16768135 0.123179235 -0.12915431 -0.07816059 0.05354983 -0.2061103 0.025148017 -0.14130259 -0.1605686 -0.05531426 -0.06833786 0.07846204 0.059519287 -0.0656064 -0.11228632 0.023757666 0.07979084 0.016917437 0.16210216 0.12570617 -0.15703018 -0.118684374 -0.25011176 -0.031086383 0.0761281 0.1409806 -0.03624302
드 0.10085587 0.057814386 0.059739284 -0.058375735 0.1270402 -0.10178786 -0.1589207 0.02040813 0.11129547 0.090452105 0.10387161 -0.0903396 0.1810209 -0.0031632925 0.030993517 -0.12798408 -0.084619455 0.14821792 -0.039785594 0.0718261 -0.30606067 0.21590406 -0.04969786 0.16302167 0.2966818 -0.20710446 -0.14732926 -0.16020419 -0.07667008 -0.25361893 0.21700782 0.12943994 0.0018405656 -0.13320197 -0.072592765 -0.18113966 0.19101258 -0.03321624 0.024907637 0.20698889 -0.018465864 -0.14822148 -0.04182774 0.29628953 -0.056162342 0.026131703 0.14403807 -0.041437794 -0.09728995 0.13027947 -0.04755546 -0.06679132 0.14055385 0.14800286 0.12651639 0.048241694 0.15137692 0.37280762 0.08887879 -0.04786918 0.06280045 0.08605547 0.03194548 -0.092218116 0.11011517 0.1100784 0.19533944 -0.017966952 -0.04320315 -0.14271285 -0.022704978 0.061857697 -0.1362102 0.11695242 -0.28559068 -0.055323433 -0.03906842 0.01066992 0.113023594 0.07586733 0.14310852 -0.06734761 -0.14380905 0.05785071 -0.15444122 -0.07683449 0.28981477 -0.09660057 -0.16095245 0.2041208 -0.04745555 -0.049307868 -0.11876142 -0.42812106 -0.06806242 -0.17122453 0.35624495 -0.16600747 0.100584745 -0.07483709 0.14953074 0.14449593 -0.022944266 -0.05399423 -0.062387455 0.08841774 -0.023447819 -0.054475635 -0.121907905 0.075475276 0.0751974 -0.01997881 -0.07316403 -0.052453056 0.07800867 0.06301297 -0.026358018 -0.055896763 -0.1999056 0.07556505 0.01637545 -0.024968108 0.09496814 -0.23755231 -0.23345979 -0.06737311 -0.01628506 -0.22846603 -0.22147426 0.020869045 0.12625477 -0.16918358 0.06818365 -0.20803057 -0.055134848 -0.2152444 0.08924586 0.18250646 -0.13455479 -0.18890736 -0.052211538 0.03716192 0.04367622 -0.07063595 0.1589071 0.021704504 -0.084475115 -0.06897214 -0.03765103 -0.08258992 0.1297413 0.23421948 -0.014249317 -0.044389002 -0.038301297 -0.19775477 0.0744016 0.0622735 -0.17670903 -0.17200464 -0.011964925 0.23958015 0.067783706 -0.21344732 -0.009320482 0.22411075 0.20801996 0.14095119 0.042339824 -0.15494944 -0.004190147 -0.17922665 0.017463515 0.1877375 -0.25599048 -0.11696141 0.059202906 -0.010546763 0.084805764 -0.13607799 -0.041020494 -0.111163154 0.18244347 -0.39810786 0.0873085 -0.09106375 -0.17385751 0.13643864 0.017700633 0.3018673 -0.0976982 -0.18627343 0.07747226 -0.21753952 -0.34348914 0.10948004 0.30748516 0.007946633 -0.1648916 0.3236574 -0.05120533 -0.004575544 -0.14251988 0.0084708 0.113224454 -0.02734873 0.05300709 0.22595567 0.1559747 0.120296404 0.009069602 -0.010431401 0.15589544 0.22683574 -0.02945887 0.27911803 -0.16396677 -0.033387545 -0.09451722 -0.3136383 0.06850259 0.05605255 0.04237419 -0.13891198 0.115187444 0.031182298 0.15104564 -0.058613144 0.3010971 -0.085156046 -0.0052105067 -0.021690976 -0.1855209 -0.05092443 0.11279224 0.16381946 0.10238287 -0.2994936 -0.16408293 -0.12964305 0.031166302 0.20858914 -0.3987437 -0.0029422739 0.098421894 -0.15910012 0.29935935 0.4870333 0.29205847 6.1664665e-05 -0.18897383 -0.020609675 0.14769155 -0.22328927 0.03343639 -0.02546205
요 -0.10941017 0.00021172961 -0.04211899 0.11020104 -0.15865551 -0.19121362 -0.05054171 0.02068468 -0.0007488595 0.10751969 0.028374244 0.05839558 -0.097336076 0.14152208 -0.026099661 -0.069225974 0.12424248 0.121590294 -0.17557362 0.063181825 0.37236708 0.06393108 0.0035135213 0.10498264 0.2373154 -0.04177668 -0.09371547 0.0060170805 -0.11393809 -0.08481437 0.07636009 -0.08521967 0.027160848 -0.16999488 -0.07142511 -0.22333391 -0.07680095 -0.0604231 -0.023070076 0.025883736 0.1061333 -0.015708376 -0.010279788 0.033457533 0.16598831 -0.006172988 -0.06882443 0.030140512 0.014495939 -0.15459055 0.10310463 0.1638977 0.055856414 0.1022789 -0.10342869 0.12365686 0.047150545 -0.012111908 0.06611737 -0.10371715 0.060358845 0.2657795 0.07065045 0.030208036 -0.14675666 0.161721 -0.041448236 0.17645301 -0.15049717 0.25320148 0.1387216 -0.10741985 -0.12776466 0.03297858 0.1094577 -0.20092441 -0.117550254 0.13684776 0.11899335 0.078970686 0.07910964 0.016781908 -0.19172697 0.2963919 -0.04125447 -0.114621244 -0.17669831 -0.001983471 -0.0016955128 0.070432805 -0.08866498 0.062400352 -0.15888424 0.05172611 0.1120209 0.041878168 0.0732398 0.09061915 0.0645954 0.2338872 0.04279534 0.033927817 0.03718294 -0.18385608 -0.18738969 0.2263761 0.008548117 -0.11897393 0.09941856 -0.025066776 -0.0061931484 -4.1795745e-05 0.1502121 -0.0817657 -0.13088787 0.08962446 -0.09737098 -0.0524731 0.030712383 0.067432195 -0.07085693 0.094160125 -0.3286863 0.03387005 -0.09011402 -0.27018836 -0.089716926 0.015594597 0.14738628 -0.085125245 -0.104613096 0.02609009 -0.0026891965 0.013058191 0.061238527 0.058727376 0.15089823 0.0054201884 0.025106821 -0.07721993 0.06727871 -0.17866014 0.2655019 -0.31367394 0.10572919 -0.22307456 0.037986368 -0.047460638 0.13579392 -0.0059114276 -0.014911728 0.007828047 0.0047939816 -0.10366692 0.017522486 0.07098502 -0.18315585 0.06078332 -0.1344223 0.10282617 -0.35529947 0.101070955 0.18660219 0.1291837 -0.29295227 0.011327553 0.085552186 0.086503364 -0.069257595 0.0091674775 0.18332323 -0.092355095 0.09323417 -0.0503736 -0.1620464 -0.1369325 -0.1565327 0.08865194 0.08082173 -0.17179634 -0.13597667 0.0788895 0.15368555 -0.0145251565 0.23740743 0.1673564 -0.04675682 0.16587038 -0.12844649 0.031676717 0.11239369 -0.024870137 0.091133565 -0.055697836 0.1293982 0.026053632 0.17326964 -0.00089549815 0.10043102 -0.06299639 0.21122777 -0.07693312 -0.106986836 -0.07612774 0.0026223036 -0.013118985 0.10978462 0.24705754 0.20951565 -0.2293225 -0.049378544 -0.04405934 0.09194272 0.11664425 0.102606155 0.067137375 -0.0650312 0.13733654 0.061849352 -0.15804552 -0.009460198 0.23274401 0.0748032 -0.17646562 0.037496883 0.01883607 -0.102492526 0.07175179 -0.035239313 -0.012970583 -0.07795295 0.024315253 -0.20128216 -0.01664157 0.0008035379 0.005687874 -0.0015701317 0.05666084 0.13094573 0.010054379 0.02024842 0.13509707 -0.062825084 0.06537881 0.08064476 0.1886842 0.0015623658 -0.120522484 0.05985107 0.022385685 -0.1031947 -0.031948566 -0.070946544 -0.15931791 0.21794695 -0.16041458
습 -0.0016541457 -0.16694087 -0.20270035 0.007421631 0.13667236 -0.04097884 -0.12724951 0.17655157 0.020770267 0.07654548 0.08406197 0.025536224 0.18255098 0.2344443 0.03116317 0.05151388 0.09043732 -0.118550956 -0.1894564 0.0083447145 -0.24460678 -0.109931685 0.18892026 0.29686272 0.24855767 -0.099535584 0.059058394 -0.07366463 -0.14116889 -0.15098335 0.09412993 -0.09926386 0.02609361 -0.221424 0.04006874 0.0027740272 0.045268804 0.14334023 -0.015294335 -0.0039539505 -0.27462164 -0.3251847 0.055239845 0.02048055 -0.09424157 -0.18340228 0.041459356 -0.006606644 -0.06031721 0.017292922 0.12987371 0.17044838 -0.057054233 -0.12234679 -0.05604009 0.3866873 0.2355207 0.0737548 0.20341551 -0.043166634 0.2848857 0.16395335 -0.0624201 -0.017781027 -0.08645484 0.22331458 0.082081735 -0.044383273 -0.007187939 0.031229502 0.25491923 -0.005583637 -0.26921168 -0.08494685 -0.03254925 -0.16271646 0.015219338 -0.09720039 0.049815457 0.08007666 -0.08969611 -0.15590526 -0.1133956 -0.026660511 -0.09206838 0.24122944 -0.19275235 0.060821306 -0.08724727 0.031275854 0.23451683 -0.22987734 -0.08792167 -0.25351712 0.078955024 -0.04224746 0.15191594 0.17805345 0.029865915 0.07554441 0.008394882 0.035413366 -0.0074867285 0.006493946 -0.33198544 0.018532543 0.13593943 -0.070478305 -0.19022954 0.10701414 0.0006888536 -0.19874552 0.045482486 0.09870684 -0.23857616 0.15405652 0.010523765 -0.18608272 -0.20688905 -0.13556698 0.21338126 -0.056325305 -0.11263714 -0.083627105 0.119096994 -0.28154922 -0.23740557 0.007114148 -0.15415023 -0.14878124 0.06347605 -0.14951299 0.016838966 -0.17728554 -0.029836476 -0.08662985 0.22564454 0.049404647 0.017823929 0.01666104 0.20638236 0.06374742 0.10996098 -0.11269303 0.24467354 0.013584939 0.16035087 0.16777793 0.13807571 -0.28260076 0.25891858 0.13599512 0.10307786 0.13462286 0.044245187 -0.046747826 -0.104520515 0.2234559 -0.039973967 -0.2533708 -0.044574846 0.30880666 0.0008847313 0.01670716 0.0093858605 0.1635271 0.10293134 0.2597252 -0.20885172 0.011919154 -0.23043899 -0.28280503 0.13367592 -0.28245527 0.1014465 -0.06140683 0.002144703 -0.008736921 0.019309966 -0.11456767 -0.246722 0.015187042 0.08224805 -0.08355284 0.1955076 0.09207689 -0.25344104 0.16367136 -0.11359449 0.019832661 0.057724074 -0.24731955 -0.019211637 -0.15348415 -0.020870514 -0.15023626 0.2891138 0.12050484 -0.024251655 0.1542717 0.09163336 0.03907773 0.10651862 -0.18589889 0.19163996 -0.017019121 0.3112465 0.033367738 0.05348406 -0.06854994 0.071361154 0.12009726 -0.0008656256 -0.03369421 0.10859471 -0.01553134 -0.21838845 -0.014358097 -0.08553892 -0.23036389 -0.026005115 0.10117144 -0.037435148 -0.0040679504 0.34269953 0.009392548 -0.37145838 -0.39808127 0.2131539 -0.14649019 -0.04797745 0.052231196 -0.089392945 0.10878211 -0.20869692 0.0321777 -0.117332466 -0.15416633 0.15629807 -0.14067702 0.24123862 0.0987051 -0.07569283 -0.061030366 -0.15528403 0.042658683 0.15590262 0.30582342 0.22728723 -0.38417512 -0.22926259 -0.13849907 0.09490351 -0.10456938 0.1577685 3.3078322e-05
주 0.015644424 0.014358107 0.110024415 0.138019 0.02821796 -0.12555756 -0.2964324 0.3588208 -0.2296255 0.05092515 -0.06702909 0.055376176 -0.12546584 0.13797966 0.1791757 -0.15599935 0.10942043 0.022177966 -0.11838168 0.015629176 -0.10356725 -0.068192 0.046070334 0.13002887 0.080050275 0.008299192 -0.1889385 0.069557525 -0.0063030026 -0.1755771 -0.030202124 -0.16718756 -0.035925377 0.1312128 -0.00013783792 -0.12209255 0.2070471 -0.0041967686 0.01617147 0.33254552 -0.031962253 -0.1805933 0.0070859757 -0.0010967336 -0.014800147 0.01280961 0.21507618 0.061473347 -0.11147154 -0.12218836 0.16399875 -0.09010138 0.19621655 0.054618727 -0.18511394 -0.062109582 0.11901676 0.103242226 0.0445726 -0.16900729 0.10772692 -0.07751219 0.019997034 -0.06801718 -0.079634674 0.06913472 0.25503144 -0.016034335 -0.22228914 -0.0732688 0.11412778 -0.04536784 -0.120192945 -0.117164634 0.16204043 0.12800336 -0.07190593 -0.107174195 0.30175808 0.0068184594 0.034377385 -0.13216926 -0.1939873 0.08886356 -0.1674745 -0.06889353 -0.12869273 0.23811308 0.124834746 0.13052535 0.028919231 0.14996979 -0.073888786 -0.17743352 0.11231114 0.08736781 0.26578528 -0.1570958 0.17458978 -0.06536626 0.0019127965 0.032690752 0.09851739 -0.17421 -0.21521348 0.020890933 0.14796193 -0.1977247 -0.04467754 0.07624362 0.10514023 -0.0059956703 0.3537748 0.14215349 0.17549339 -0.13272029 0.031675275 -0.058904193 -0.11304106 0.1804629 0.15654518 -0.064322144 -0.014549033 -0.019305898 -0.19220728 -0.2073567 -0.07498551 -0.02425979 -0.056214243 -0.07960242 0.05161019 -0.056326397 0.24433209 -0.014830103 -0.16965061 -0.02835733 0.11077329 0.14420833 -0.020282948 -0.16821203 0.21724743 -0.23810296 0.09839012 -0.10198631 0.18154792 -0.09188742 0.15772644 -0.027312646 0.1118458 -0.10407199 0.18537456 0.24820457 -0.06705364 0.0022020815 0.13226663 -0.131877 -0.13579263 -0.1458948 0.23296146 -0.035179026 0.06290978 0.12140881 -0.062532976 -0.014329759 0.11869503 -0.11978875 0.0012020527 0.39198938 -0.03217192 0.08075109 0.17076503 0.023472166 -0.18499608 0.18674487 0.04758634 -0.15652592 -0.07145968 -0.03340146 0.11488062 -0.082712434 -0.019528449 0.080917165 0.028009819 -0.13713452 0.09768111 0.11742847 0.105135925 0.10072882 0.115102425 -0.0043432848 0.13860206 -0.30360568 -0.20386595 -0.047742248 -0.11628128 -0.09827974 0.11042518 -0.1366271 -0.10270915 -0.030983772 0.23741852 -0.103784285 0.29769304 -0.17862101 0.09386598 -0.20015472 0.23604259 0.25639346 -0.028450876 0.15908673 -0.021000504 0.15314978 -0.034103554 0.15540165 0.10123929 -0.06626281 -0.049976863 0.018511737 -0.110217355 0.081809245 -0.079822846 0.085380144 0.31173053 0.10788404 0.31938452 0.10179247 0.28355858 -0.060403336 0.029164145 -0.06004366 0.0916939 0.041349377 0.016820421 -0.097790755 -0.11452326 0.10574347 -0.17418675 -0.36203557 0.019164566 0.24471773 0.07777621 -0.08753142 -0.14547807 0.07534204 -0.062075466 0.29546756 0.015460291 0.19455533 0.017718837 -0.10111586 -0.0685389 0.03908276 0.056401663 -0.029527182 -0.011684551 0.054866333
고 0.01378233 -0.03112907 -0.020845618 -0.23883042 -0.025569446 -0.028485276 0.011723085 0.19894257 -0.018154735 0.004245721 -0.13362889 -0.01889223 0.048137553 0.028486878 0.010249143 -0.054413177 0.13968164 -0.14451489 0.042463217 0.012915321 -0.08022043 0.09111604 0.13309129 0.09598541 0.09162273 -0.21878788 -0.22866195 -0.018343844 0.12207196 -0.043853384 -0.042158663 -0.10379977 0.117560685 -0.04226907 0.041896123 -0.108967796 0.11428457 -0.06976591 0.15417624 0.14131391 0.039009944 -0.2472261 0.03775194 0.03485469 -0.104210585 -0.07168769 0.0011405193 0.034105685 -0.10915291 0.12857452 -0.10979396 0.018082352 0.16393635 0.017641766 -0.16162243 0.0044154436 0.29118216 -0.10943085 0.19951515 -0.16841562 0.12422673 -0.061907496 0.005877072 0.059012968 0.009239428 -0.047633745 0.00711295 0.01122034 0.011093898 0.13321714 -0.061510693 -0.06884345 -0.13253576 0.01069333 -0.0014140828 0.021378424 0.08795714 -0.17871925 0.11071241 -0.07722349 0.16478659 -0.16596797 -0.06686289 0.16447896 -0.046221707 -0.10089093 -0.011061394 0.11525653 0.049973693 0.20955198 -0.027439551 -0.061010063 -0.03741256 0.0070144935 0.10843439 -0.026176807 0.17058428 0.01873596 0.019156523 -0.10964004 0.11064058 0.05700515 0.23930152 -0.10216267 0.001969477 0.044173956 -0.06845793 -0.04046306 -0.22440365 -0.10964828 0.1323416 0.074444465 -0.015930155 -0.03399941 0.14346236 -0.06953974 0.13011783 0.04953827 -0.063225076 -0.03554087 0.15935504 0.1324579 0.08564646 -0.121797696 0.078280844 -0.06256248 -0.14221464 0.046552744 -0.035677865 0.149834 0.24836148 -0.048967414 -0.06860858 0.035399973 -0.113490775 -0.05060243 0.051187754 0.27122205 0.0019719056 0.0950941 0.07943728 -0.018378641 0.025529196 -0.23549154 0.13749056 -0.021621684 -0.1448074 0.10908135 0.046240054 -0.2100001 0.11099072 0.08412117 0.052500773 0.13835147 -0.08639591 -0.020106435 0.011458113 -0.03135955 -0.2740075 0.08543713 -0.22101772 0.399325 -0.039163463 -0.24607962 -0.046524294 0.12020823 0.13021708 0.15522654 -0.1609725 0.013028521 -0.093489684 -0.13870376 0.017772056 -0.14505741 -0.18847662 -0.13962193 -0.022644864 0.14432819 0.14677732 -0.074929506 0.018997831 0.088177636 0.20353957 -0.2808828 0.13558656 0.15640764 -0.2973006 -0.07239716 0.00010553074 -0.034089237 -0.04240817 -0.13092294 -0.023279965 -0.29192823 -0.040530153 -0.026755065 0.29249504 0.10727236 -0.120424114 0.055184282 0.062727824 -0.045944523 0.0806024 -0.009995998 -0.025532352 0.013875117 -0.105415404 0.19399244 0.040204767 -0.032618932 -0.0745669 0.1417052 -0.09896435 0.04043141 -0.0023096246 -0.007470003 -0.22168101 -0.04449196 -0.20459422 -0.15411162 -0.032567564 0.23735584 0.004762357 0.01248054 0.09155162 0.07514521 0.049061544 0.12419544 -0.04850921 0.0809653 -0.064715765 0.07563779 0.05903236 -0.25650924 -0.24753448 0.0052950988 0.13662098 -0.046517633 0.029447576 -0.07985145 -0.06504507 0.12903705 0.056160018 -0.08567745 -0.03647046 0.15162003 -0.016698385 0.118293874 -0.13390136 0.067794666 0.08612616 0.100069426 -0.06677803 -0.17247091 -0.056272823 -0.33220863
하 0.00036669002 0.029975684 0.042900234 0.07684081 -0.15711346 -0.26349697 -0.42179322 -0.11007829 0.108763136 -0.0480046 0.14433053 0.06288772 0.022180514 0.05110671 0.17115042 0.035911202 0.067221805 0.0047620237 0.018392948 0.12248469 -0.06034453 0.25645736 0.13698542 0.39869553 0.073122874 -0.18009211 -0.09353857 -0.0948732 0.08674224 -0.04291845 -0.10951004 -0.39970732 0.06692667 0.059192464 -0.20891334 0.084633075 0.20181489 -0.026471045 0.04759479 0.14113522 -0.18373373 -0.019150723 -0.036016613 0.15731305 0.1301722 -0.123414814 0.23882817 0.08333689 -0.035109293 -0.06559048 0.27882424 0.05805893 0.0971984 -0.07954132 0.22797297 -0.17348632 -0.01190775 0.20530322 -0.005080358 0.058779426 0.037049558 0.003917384 0.000436376 0.07067828 0.06310403 0.18324602 -0.07673449 0.2539607 -0.30056277 0.16578715 0.1712599 -0.16797331 -0.0042881034 -0.018280745 -0.042247616 -0.029642213 -0.17138124 -0.064233065 0.23340176 -0.17788361 0.06646577 -0.22441092 -0.020869581 0.13646847 -0.16142349 0.0069597294 0.022212852 -0.17918496 0.04448642 0.05286559 0.021245787 0.13772212 -0.048848353 -0.13169524 0.09641408 -0.17408614 0.15748069 0.061546355 0.02338958 0.36075467 0.014368438 0.02499365 0.045996312 0.051103655 -0.076766975 -0.0068194987 -0.0101398425 0.035465166 0.09092511 0.048053965 0.07215838 0.057376053 0.15921883 0.12528767 0.11862788 -0.017574212 0.0057095094 0.08924286 0.0483822 -0.21369128 -0.0029096003 -0.06955691 0.03504631 -0.02387802 0.15507644 -0.15388006 0.09978352 0.037376177 -0.04850992 0.0054887114 0.16170776 -0.049358714 -0.08880092 -0.06111994 -0.12585936 -0.07315959 -0.26590753 -0.070716165 0.0515605 0.041779157 -0.037949458 -0.060443696 -0.02779568 0.19304776 0.26257467 -0.051317714 0.11404983 -0.0024715238 0.106834054 -0.020291103 0.12573445 0.1728078 -0.024908489 0.11193416 -0.09939589 -0.004819926 0.07266251 -0.012363243 0.11049612 -0.091016345 -0.076513454 0.054627374 -0.045871254 -0.07096386 -0.097693436 -0.07586983 0.010865962 -0.09001759 0.07452559 -0.059058156 0.17472538 -0.22361323 -0.0731236 0.17717418 -0.1742452 -0.051339146 0.15431729 0.11898375 0.21214913 -0.055118006 -0.10781842 0.119314104 0.0057431683 -0.121059656 -0.07791106 -0.08956612 0.066385895 0.020410655 0.2525617 0.05083782 0.02603866 -0.11042254 0.02415731 0.0045295428 0.1636748 -0.08788496 0.118857525 -0.087266654 -0.016570223 -0.04116095 0.009969227 0.0005218568 0.20983407 0.02374549 -0.09769856 0.2270079 -0.010311853 0.012089854 0.05197422 0.04710312 -0.10227118 0.22397918 0.1953012 -0.13569362 -0.0010116519 0.090826064 0.01113326 -0.12366335 0.021943105 -0.20194858 -0.0662745 -0.08637497 0.057509214 0.20149061 0.08726209 0.15868966 -0.07986424 0.06462214 -0.07759588 -0.08911799 0.087279 0.099193625 -0.15301333 -0.12323932 -0.095614605 0.09448712 -0.1969985 -0.11790918 -0.03373823 0.0816373 -0.022954224 0.007841857 0.022591934 -0.08883552 -0.08712082 0.19035727 -0.055374894 0.10371745 0.022614596 -0.19101928 -0.30077648 0.0948301 -0.23984542 -0.15254627 -0.23715535 0.10358451
이 0.014137821 -0.075732805 -0.062139224 0.09463501 -0.16233443 -0.23840377 -0.29311967 -0.28221947 -0.074067235 0.24104407 -0.13873652 -0.010995717 0.12068469 -0.045659587 0.1244825 -0.008235593 0.13336287 0.036952343 0.016251262 0.07915023 0.09065383 0.012865954 -0.16053855 0.118545465 0.1396523 -0.17364457 -0.17332101 -0.20564006 0.07640441 -0.023751142 0.23735744 -0.16564398 0.07170694 0.07934869 0.05106106 -0.007267203 -0.045304634 0.16018043 -0.113883294 -0.01641435 -0.08544295 -0.15911308 0.066773996 -0.011960597 -0.22788526 -0.124112815 -0.14414656 -0.007716083 -0.09448026 -0.0072816177 0.002462691 -0.01911044 0.12804653 -0.10045916 -0.068163745 -0.017155325 -0.098630816 -0.2583228 0.07001245 0.05906452 0.0876136 -0.013002065 0.013957412 -0.02652627 -0.0059241047 -0.017808778 0.089386724 -0.0009772388 -0.26131088 0.008134652 -0.17072234 0.047422785 -0.07315355 0.21060015 0.1389067 -0.052979372 -0.37791005 -0.057684347 0.087668486 0.027627548 -0.22765225 0.10247113 0.02214415 0.1891541 0.27321997 0.04886805 0.0509057 0.13488731 0.052390028 0.080991976 -0.108466014 -0.080160186 -0.011488336 -0.3055482 0.17984028 0.07127987 0.09402214 -0.04170123 -0.008213006 0.33757317 0.33493966 0.09846305 0.22777274 -0.13802795 0.011268265 -0.11493932 0.14756471 -0.111117594 0.034098547 0.09023601 -0.010336187 0.17514212 0.015439539 -0.03697676 0.048587047 -0.05925093 0.11246588 0.15298006 -0.10045859 0.06504548 0.15247129 0.010441968 -0.066489056 -0.16900387 0.20158248 -0.2888864 -0.3576661 -0.039264206 0.097186126 -0.19746692 0.14467138 0.00785937 0.017458763 -0.06659493 -0.0144709265 -0.06297474 0.10146875 -0.11908368 0.033220436 0.10923579 0.16239189 -0.058010615 0.0876983 -0.012557229 0.2417374 -0.1882139 -0.3314887 -0.16852091 -0.015168481 -0.14291684 0.3034686 -0.28129527 0.269495 0.1531359 -0.004292622 0.058359914 -0.08234213 0.17016068 -0.003906559 -0.13162552 0.24722613 0.015395874 0.13254878 -0.06893943 -0.13474004 -0.03805154 -0.019381376 0.1071892 0.08748206 -0.023092875 0.07132188 -0.08675877 0.027014866 0.035195075 -0.038692437 -0.016889224 -0.0071641756 -0.061980624 -0.0058053485 0.13516355 -0.0503903 -0.03068342 -0.0029008545 -0.23682939 -0.010418558 0.048417445 -0.043826826 0.10800847 0.041777402 0.012419246 0.06824084 -0.11058376 -0.22026798 0.04000914 -0.118921466 -0.029049523 -0.18002537 -0.043411046 0.018894995 -0.085680574 0.2595381 -0.1563972 0.13202791 -0.02462258 0.07122681 -0.06504613 -0.019000402 0.2647766 0.096324585 -0.0040046857 0.004280633 -0.041310422 -0.089988165 -0.08402969 0.13049862 0.1975588 -0.010388901 -0.030504353 0.13790642 -0.028063899 -0.07595982 -0.03792516 -0.11361488 -0.054713137 0.087040745 0.04691154 0.14151742 0.26222005 -0.12780285 -0.05344731 0.062558815 0.20523274 -0.008508169 -0.01863701 -0.10931812 0.057282604 -0.09271864 0.07357103 -0.16222763 0.02208469 -0.20309304 -0.054891903 0.010893206 0.04080011 -0.12936197 0.18149896 -0.101823926 0.22046566 -0.12127933 -0.2759938 0.07359157 -0.16594237 0.07736625 -0.1792212 0.16053964 -0.091288656
해 -0.021208787 -0.043854684 -0.044228986 -0.041902997 -0.004847813 -0.24243408 -0.004326058 0.009312227 -0.1216962 -0.14862317 0.13601114 -0.008391656 0.1714883 -0.044784594 -0.04971205 0.18539917 -0.0015885474 0.041193172 -0.33402407 0.25455943 -0.0044861143 0.28626275 -0.05848572 0.3668897 0.24767514 -0.16184917 -0.24136649 0.037664983 -0.17103308 -0.118190035 -0.0851203 -0.29746285 0.056426153 0.15151262 -0.014929201 -0.027079666 -0.055032052 -0.061444197 -0.056528777 -0.0065563065 -0.05897825 -0.036955606 0.26121143 0.1914982 -0.007425651 0.13860299 -0.08257235 -0.19633536 -0.205537 0.25217518 -0.047719833 -0.019686993 0.030294815 -0.10959211 0.10581796 0.0660218 0.1901819 0.2033473 0.06961141 0.12529466 0.12615606 -0.07373206 0.10282898 -0.07116136 0.1553076 0.066028066 -0.10420314 0.20294787 -0.08844232 0.09058906 0.08764443 -0.045078523 -0.052702796 0.08317655 -0.29543975 -0.0031742589 -0.10977329 -0.06757247 0.14445865 0.044214193 0.0063670645 -0.22929238 -0.12040692 -0.021593563 -0.04745561 0.068129726 -0.010729467 0.15541317 0.038785428 0.15176171 0.12144831 0.09371803 -0.076867454 0.015427697 0.1478031 0.09349619 0.3302933 -0.017644713 -0.03434441 -0.02839515 0.18016496 -0.065017834 0.021759255 -0.10658139 0.052344706 0.056373138 -0.23221259 -0.120794065 0.08527833 0.14296575 -0.30991358 0.06731871 0.14191686 -0.026013186 -0.081221 0.19663888 -0.024892332 0.022507813 -0.048801985 -0.06345567 -0.059923418 -0.18242148 0.12820393 -0.025833227 -0.14821033 -0.107174054 -0.27156815 -0.110563755 -0.08150886 -0.20408283 0.046314564 -0.0057381843 0.03555057 -0.058973916 -0.025550945 -0.064537615 -0.10501452 0.22186889 -0.29965076 -0.06464868 0.101881124 -0.105215505 0.27552527 -0.08532582 -0.0063665845 -0.10354912 -0.08962178 0.07798561 0.32236382 -0.029657628 0.030021979 -0.004882421 0.03734165 -0.014807901 0.05796622 0.05515534 0.061054736 0.33643785 -0.05802535 0.024071041 -0.022958696 0.24963298 0.23548545 -0.023728184 0.05405409 0.2097573 -0.13519335 0.38518956 -0.026225144 0.16338588 -0.12545991 -0.06835863 0.05696892 0.17482209 0.042432167 -0.033615515 -0.021216383 0.05957119 0.087158784 0.17451437 -0.073101446 -0.15388145 0.015486434 -0.34337425 0.05233468 0.005845183 -0.29664865 0.019036854 -0.10715636 0.32688528 0.022932405 -0.07368709 0.37810856 -0.24079458 -0.12508647 -0.059147757 -0.037130132 -0.03283827 -0.2721704 0.11065733 -0.14845885 0.052555766 0.08456724 -0.04276311 0.002323758 -0.03318733 -0.045796126 0.02502049 0.09379383 0.11714276 -0.19696435 0.16880234 0.0819574 0.02375273 -0.14076291 0.23009849 -0.16128094 -0.044816654 -0.06483573 -0.19359612 0.22127397 0.22407933 0.2466343 -0.040522516 -0.06614985 -0.060042143 -0.10288199 -0.18695092 0.043982457 -0.20417675 0.21475077 0.25532934 -0.21528403 -0.12344188 -0.14880273 0.14754012 0.029692842 -0.30062723 -0.15045281 -0.011510389 0.19384664 -0.06384954 0.14518589 0.097676516 0.15701148 -0.10584882 -0.09598288 0.15337527 0.118634865 -0.15503381 -0.2557898 0.16401476 -0.15572844 -0.3439747 0.19750811 -0.061168183
겠 -0.09457456 -0.2640468 -0.14566931 -0.030279392 0.098120175 0.032065243 -0.10488636 0.19614947 0.024374545 0.09022186 0.06857277 -0.13263115 -0.010258577 0.0918132 -0.2978192 0.25865635 0.16206907 0.1737985 0.122213215 0.046736278 -0.37480432 -0.0004867261 0.08748997 0.16400744 0.34929046 0.000764698 0.011442705 0.046111543 -0.2880859 0.029878713 0.04450658 -0.048150208 0.0072410814 -0.1747661 -0.08047158 -0.20053405 0.23883878 0.39757502 0.044287026 -0.056290515 -0.2146189 -0.13105492 0.009701711 -0.08545836 -0.15649135 -0.06989284 -0.18199052 0.053403787 -0.18444721 0.005091222 -0.08676762 -0.04223367 0.09813185 0.1651796 0.0039872187 0.20779137 0.16425774 0.17149837 0.057330433 0.0038979813 0.26118353 -0.19650696 0.086010225 -0.0034182447 -0.004898814 -0.056941032 -0.06651147 -0.0071921693 0.099009626 0.15564299 0.34310564 0.045573816 -0.22688295 0.025832275 0.16665968 -0.13987836 -0.22535272 0.067755945 0.15854481 0.040349744 0.13381322 -0.2166349 0.04369639 0.093462475 0.060476046 0.28790802 0.015372991 0.14626783 0.0058051944 0.11514413 -0.058981545 0.029968398 -0.20272402 -0.23937283 0.031642955 -0.18930072 0.39935556 -0.1311519 0.009270637 -0.024454432 -0.017399335 -0.063447684 0.0663163 0.019006222 -0.032632846 -0.017508326 0.09466687 -0.13713408 -0.15033628 0.0119131 -0.17275906 -0.072031654 0.23598805 -0.06459272 -0.07677188 -0.040550537 -0.05965831 -0.25098127 -0.22860353 -0.066951364 -0.050738323 -0.08586495 -0.07655432 -0.21919677 -0.03802935 -0.08736006 -0.39774475 -0.28388828 -0.02527799 -0.17535451 0.10758981 -0.20062265 0.11328909 -0.23685135 0.17170931 -0.11921484 0.029898254 0.044658285 0.04708666 0.13069756 0.3789497 -0.013605757 0.24883345 -0.14787568 0.044623658 -0.28252754 -0.089156725 0.2497153 0.09652219 -0.10373596 0.0075718057 0.04737688 0.065561906 0.10224587 0.06773251 -0.062689915 -0.008835276 0.04112461 -0.10819367 -0.24976024 -0.3165642 0.22144547 -0.041813355 -0.06877261 0.23532462 0.27139184 0.30022252 0.22963353 -0.052795857 -0.1100838 0.09394568 -0.45844817 0.172858 -0.07972658 0.09730096 -0.01846227 0.09008019 0.21241677 -0.04146329 -0.029250382 -0.1321066 -0.038509004 0.035610862 -0.1698268 0.09540429 -0.14786519 -0.13918686 0.09557644 -0.062082924 0.25663936 0.07819561 -0.1913622 -0.10090362 -0.17168175 -0.120792635 -0.11528178 0.49232602 0.13232167 -0.097593956 -0.073888525 -0.082911044 0.0812375 0.16029558 -0.18131778 0.15743333 0.04869266 0.20328683 0.2256623 -0.13061245 -0.1999338 0.018497324 0.25351247 0.030054977 0.18041103 0.051494636 -0.043392997 -0.1838803 -0.033856772 0.10739316 -0.18464422 -0.039323222 0.21467231 0.18480541 -0.08653956 0.35283238 0.13181706 -0.040174853 -0.12933898 0.30567366 -0.00014325745 0.3279613 -0.07190964 -0.12520005 0.082540505 -0.2547746 0.13239813 0.10657459 -0.26191807 0.32572243 -0.024347905 0.3467624 0.19713551 -0.007920837 0.122449435 0.0060649114 0.15074003 0.20971967 0.4035402 0.36148638 -0.13081893 -0.30919853 -0.013189804 -0.092295684 0.07489646 0.00989694 0.15309078
인 0.08303304 0.027364122 0.20517509 -0.047648232 -0.28079852 -0.025137765 -0.1366462 -0.15096383 0.040271014 -0.19732322 -0.21797441 0.14006944 0.0869232 0.06313679 0.059149146 0.018259699 0.23556994 0.09199847 -0.14052503 0.026220636 -0.24148837 0.0025052442 -0.16567697 0.07189998 0.6061326 -0.29350096 -0.22617222 -0.17947696 -0.06325758 -0.047019847 0.1071555 -0.04605073 0.009992789 -0.15399624 -0.047616716 0.11311312 -0.0697494 0.049705703 -0.1350029 0.14956813 0.16881515 -0.17756186 -0.11896925 -0.14840686 -0.3129331 0.2346443 -0.04977858 -0.085105866 -0.042978313 -0.10113905 0.028460491 -0.023204912 -0.0006164646 -0.18177968 0.14371216 -0.039443333 0.15394872 -0.122669585 0.029364934 -0.14671835 0.13670206 -0.17688736 -0.16795492 -0.10694064 0.033082005 0.012409488 0.124355815 0.24824026 0.2629247 -0.16761726 -0.176304 0.015009495 -0.29626906 0.02841897 -0.05952602 -0.008925019 -0.3855145 -0.0106980195 0.19404568 -0.21172822 -0.112007536 -0.13839637 -0.1347677 0.1953913 0.022641111 -0.040582437 0.056526467 0.14899242 0.059934676 0.12991048 0.17481078 -0.18056491 0.063528694 -0.10232776 -0.22750047 0.0033494208 -0.18706006 -0.51521736 -0.13638423 -0.13504547 0.27330372 0.12420874 0.1544885 0.13266364 0.04318374 -0.037945453 -0.21569167 -0.023472413 -0.04557199 0.030275024 -0.170287 -0.09930623 0.2254735 0.057907652 -0.07249475 -0.005035135 -0.06935847 -0.26346257 -0.237419 -0.09165067 -0.13626006 0.09776939 0.010816943 -0.19703418 0.16738805 -0.23298146 -0.032187313 -0.026655464 0.12893091 -0.10383394 0.054722525 -0.10899698 0.029039811 -0.013197534 0.0688834 0.028816339 0.0014835747 0.1695221 0.018839702 -0.2681556 -0.08322051 -0.06380296 -0.06060008 -0.052840263 0.05692081 0.061208375 -0.14433235 0.1724304 -0.013597326 -0.28453866 0.29641077 0.10432146 0.059006564 0.27183077 -0.046511065 -0.025511531 -0.24622144 0.13899344 -0.035853423 -0.05161825 -0.002024585 0.29480228 0.047641356 -0.009563981 -0.12229446 0.08822752 -0.054214805 -0.158344 -0.014158245 -0.028936904 0.07288712 -0.1335935 -0.0028417797 0.00089367724 -0.06755327 0.17863716 -0.100500695 0.04075271 -0.0075249816 -0.30186945 -0.14642207 -0.13153614 0.35512984 -0.096625626 0.36701033 -0.025053686 -0.13216586 0.012438992 0.20363818 0.25278857 -0.08305535 -0.2846861 -0.42789695 0.019220492 -0.1324366 0.0328844 0.16708049 0.043484777 -0.03899409 -6.654776e-05 0.13645504 0.0024029398 -0.061634623 -0.12183803 0.26248807 -0.11356919 -0.07425236 0.035835087 0.13207753 0.083616585 -0.04664532 0.1042183 -0.12067683 0.18315683 -0.29655534 -0.07070554 -0.23028442 -0.06959586 -0.03568331 0.0026245373 0.1571522 -0.015685845 -0.14172274 0.19667237 0.11044604 0.088753425 0.14603114 0.0021606316 0.15819813 0.122491896 0.082068875 0.101999745 -0.12406454 -0.16177914 0.036418438 0.050375797 -0.08451671 -0.41280353 -0.12280199 0.055123094 0.099519186 -0.072748676 -0.16369419 0.07815336 0.024850674 -0.08793869 0.020077107 -0.027206128 0.16787876 -0.047898624 0.09167506 -0.06563728 0.21526803 -0.0960623 -0.25127256 -0.12699021
시 -0.012202923 -0.0891969 0.08886277 -0.051350735 -0.06243574 -0.17549227 -0.49440116 -0.033613864 0.06215194 0.11048477 0.40285745 0.17686975 -0.027027367 0.08468335 -0.049549017 0.21939765 0.19791476 0.13577521 -0.0364902 -0.07955458 -0.08746599 0.31087214 0.12302292 0.2563229 0.16369143 0.022529263 0.09129975 0.008334587 0.11190109 -0.0010078775 -0.08885165 -0.16498993 0.03552293 0.007760049 -0.17097926 -0.18055192 -0.12701564 0.10847235 0.04376875 0.07316539 0.052677784 -0.04460617 0.020468885 0.008645015 -0.13355294 -0.043650895 0.0989155 0.1466163 0.0967112 0.065230966 -0.08623614 0.015663039 0.04507133 -0.014699653 -0.080339395 0.10755048 0.038705476 -0.052194014 0.2270637 0.025793632 -0.13299294 -0.12158404 -0.02100313 0.12992705 0.101603866 0.20214646 -0.13077031 0.15149824 0.15881675 0.079914056 -0.1585535 -0.0934935 -0.15623961 -0.07707456 0.015015154 -0.10831714 -0.019028952 -0.08046152 0.117097214 -0.023794217 -0.009689814 -0.27738926 -0.009571256 0.028450655 -0.06402555 0.022942508 0.040264327 -0.0024787022 0.24275471 0.14689744 0.07082376 0.13645138 -0.21043608 -0.2389273 0.007962359 0.032252036 0.16167597 -0.039778143 -0.037562493 0.095209375 0.13073489 -0.16955937 -0.034972478 -0.0029513433 -0.26582566 -0.024755845 0.07485239 -0.25368795 0.007549131 0.0036680424 -0.10238836 0.20129147 0.034075513 -0.07615061 -0.068226025 -0.05741096 -0.12070857 0.061982363 0.050007097 0.20156541 -0.024496326 0.059948556 -0.1771321 0.0767367 -0.1773545 -0.034752697 -0.1416701 0.044021923 0.088790946 -0.17162326 -0.081844635 -0.19004408 -0.08095012 -0.1048509 0.03005562 -0.00854027 -0.06049293 -0.0027242997 -0.06754475 -0.14697482 0.00809568 0.11011655 0.1098991 -0.012058437 0.13319911 -0.12699452 0.077617094 0.09260295 0.17932366 0.0567163 0.09276501 -0.025736235 -0.119751394 0.09078754 0.054936584 0.012384644 -0.031649947 0.08762647 -0.03796332 -0.0803285 0.110585414 0.074183285 0.01903917 -0.22387734 -0.022202827 -0.10121413 -0.10236727 -0.045380652 -0.17078228 -0.027979897 -0.10163161 -0.06225895 0.19264135 0.13850345 -0.2614931 -0.012042991 0.0035789693 0.028726934 -0.0005924816 -0.2217561 -0.053114947 -0.089297995 0.12908162 -0.22552101 0.007839076 -0.0834724 -0.17737626 0.057177767 0.13734339 0.02522943 0.22497365 -0.17989065 -0.04604092 -0.013080082 0.05732192 0.15790644 0.28163218 -0.081482284 0.21122944 -0.13914944 0.03785252 -0.05247219 0.13184363 -0.013088937 -0.13975379 0.00476523 -0.11463232 -0.11170634 0.033656906 0.042063367 0.08844244 -0.1414552 -0.14759095 0.072583444 -0.03204996 -0.16452096 0.01883175 -0.020068783 -0.27955228 0.07734245 -0.029484048 0.060093913 0.1798792 -0.16073097 -0.040730976 0.059147555 -0.052881446 -0.20596726 -0.034136485 0.06363954 0.23262529 0.058465604 -0.027932981 -0.20833406 -0.02339263 -0.13309248 0.081572846 -0.14257756 -0.10520724 -0.06829887 -0.09086762 0.08309098 -0.38304627 -0.07864745 -0.0008226266 -0.013554902 0.020961463 0.1259076 -0.2512907 -0.19787797 -0.015341186 0.1412229 0.14335103 -0.10414833 -0.25599453 0.0007800068
까 -0.003480346 -0.2781925 0.11928917 -0.09750051 0.100284226 -0.33783087 -0.19243237 0.09459146 0.29462302 0.0039130915 -0.0012797394 -0.061634835 0.1618787 0.089359485 -0.1022089 -0.17227651 -0.1441755 0.14743997 0.04417892 0.1840211 -0.13023016 -0.14470181 0.24485298 0.13935852 0.29517078 -0.075476445 -0.14276256 -0.02241573 -0.012476989 -0.26037943 0.21542065 -0.047387518 -0.09093093 -0.1171149 -0.13896039 -0.2513538 0.030284729 -0.0073822467 0.04685813 -0.06355801 -0.14888261 -0.016395213 -0.0049643316 -0.011285236 -0.10484439 -0.13060588 0.045514118 -0.027885193 -0.21653529 -0.08159262 -0.07698416 -0.08176946 0.006261758 0.12572283 0.033893745 -0.049778562 0.24071321 -0.16875403 -0.019756554 0.12778002 -0.046723068 0.141994 0.10292418 -0.020573037 5.821054e-05 0.03347569 -0.18453042 0.0464159 0.056003675 0.08276119 0.2191203 0.12092772 -0.08798293 0.13640523 -0.18867572 -0.15610395 0.010248295 0.026373131 -0.026411481 -0.056691926 -0.07864462 0.08966516 -0.16444942 -0.06018112 -0.18501785 0.0021254574 -0.03675456 -0.24289356 -0.09632138 0.37255737 -0.04750264 -0.13035426 -0.0938436 -0.08891134 0.12695305 0.007989815 0.18915735 -0.042673565 0.13072348 0.1985995 -0.07947763 -0.049203906 0.34142148 -0.060404245 -0.15795189 -0.07370965 0.11350656 -0.037853315 -0.05294201 0.044364598 -0.17491373 0.26331177 -0.039772034 -0.1588974 0.20062676 0.06484353 -0.116693564 -0.0674509 -0.27220574 0.020679522 -0.172394 -0.2828316 -0.07788903 -0.06857854 -0.17555007 0.12487313 0.00073796837 -0.08648947 -0.053848434 -0.15833765 0.09289646 -0.02082991 0.1661339 0.045327377 -0.25824508 -0.22840236 0.19198266 0.26948416 -0.1587709 -0.21531573 -0.05845947 0.004120757 0.14417382 -0.2720557 0.28347751 -0.35585898 0.067708015 0.21049912 0.09208343 -0.23496863 0.2115013 0.030684104 0.14017792 0.3390814 -0.23598629 -0.13437612 0.035875734 -0.11234853 -0.009771853 0.1152826 0.07033585 0.15214452 0.017734366 -0.25966403 -0.26762417 -0.18368344 0.34070212 0.22018707 -0.068356454 0.054533083 0.18572594 -0.16690773 -0.18004021 -0.34493485 -0.003390569 0.189234 0.07277832 0.0585997 0.009467131 -0.2796776 -0.2463847 -0.026826622 0.42146727 -0.10525617 0.201733 0.0793598 -0.1573259 -0.06145288 0.029860707 -0.040934637 0.15006451 -0.15147835 -0.016355429 -0.33711192 -0.006477495 -0.07406393 0.34608227 0.15308909 -0.005571095 0.017889267 0.007358298 -0.2563223 0.04782828 0.038374633 -0.07925833 -0.042030025 0.20350283 0.09956877 0.15592998 -0.12192549 -0.08030423 0.28941977 0.16966796 -0.013787876 0.024556015 0.037974693 -0.17571402 -0.22516626 0.12334986 -0.23179774 -0.13271174 0.24450688 0.024819788 0.20709513 0.24169442 -0.073718324 -0.08550451 -0.105368584 0.110597745 -0.05899934 -0.12951082 0.115960196 -0.2088383 -0.037377026 -0.062438447 0.072204396 -0.03880107 -0.15482044 -0.0038552068 0.008323401 -0.07103012 -0.06386397 -0.1972326 0.1239612 -0.105516024 0.11412024 0.10443707 0.057987835 -0.039292824 0.06229015 -0.11934075 0.051687047 0.072736844 0.08812096 -0.13968158 0.040401395
사 -0.053383935 0.18104233 -0.05959619 0.19861828 0.0138868205 -0.16809799 -0.09633759 -0.15986241 0.13176048 0.09646545 0.0012099884 0.22831894 0.06362821 -0.10747386 0.15546115 -0.113776565 0.005703715 0.054659467 -0.12935555 0.08006796 -0.10313714 -0.27465054 -0.23748183 0.011339094 0.037944227 -0.1342837 0.16254053 -0.035984863 -0.17908475 -0.03466924 -0.17182966 -0.39129952 -0.026001055 -0.014168894 0.0102752065 0.1147204 -0.07295642 0.41394958 -0.16849835 -0.076261215 0.09034376 -0.15631044 -0.0994603 0.017380726 -0.05594911 -0.08631721 0.056921273 -0.053259943 0.054495614 -0.08081736 0.17687252 -0.056477934 0.27644807 -0.31024614 0.31728196 -0.049794566 0.15890728 -0.24165958 -0.03268141 -0.061354965 0.117853284 -0.17112815 -0.075606324 0.05061744 -0.11005494 0.12526593 0.06085528 0.16284937 0.07770293 0.13020991 0.18602508 0.076435 -0.009730323 -0.054339916 -0.037029482 -0.05638045 -0.14298853 0.21307813 0.26807404 0.18842253 0.09543818 0.01384936 0.13650216 0.18315765 0.0030258675 -0.11032858 -0.08240717 0.09125571 0.111513644 0.09747181 0.028071668 -0.1442659 0.1364025 -0.16768166 -0.07125989 -0.008958828 0.21289141 -0.11111957 -0.13281514 -0.17664096 0.083565906 0.054492787 0.13311806 -0.22554967 -0.10507311 0.035338823 -0.101704985 -0.033117022 0.0059643155 0.22011136 0.14243717 -0.021755958 0.29081318 -0.08006488 -0.08027226 0.019676922 0.15860373 -0.0068550613 -0.26539806 -0.0702432 -0.01616521 -0.10215944 -0.13042869 -0.30633914 0.05501102 -0.13396695 -0.018123465 -0.01770477 -0.077978596 -0.15275726 0.13145575 -0.024887258 -0.032212876 -0.056094885 -0.19282499 -0.05213054 0.023459226 -0.051832568 0.16184507 0.34057453 0.15400651 0.078720376 0.30607355 0.033338863 0.4039764 -0.1478182 0.08700866 -0.12840897 -0.1348918 -0.250646 0.039954714 0.03148311 0.21213125 0.33474544 0.33050588 -0.04217873 0.12613398 0.09397751 0.014850067 0.21161424 -0.019637454 0.36306188 0.06530406 -0.17669564 -0.22696505 -0.041331034 -0.2517323 0.020933399 -0.1223388 -0.18449079 0.1355812 -0.20868194 -0.33099675 -0.018146906 -0.095742285 -0.07875783 0.11340529 -0.1616873 -0.017911954 -0.055970635 -0.02383687 0.12197481 0.25023788 -0.072021104 0.12586637 -0.13659811 -0.13578595 -0.018121313 0.16383307 0.01451357 0.15285416 -0.23165639 -0.0023993338 -0.12203551 0.041899588 0.19920251 0.071216844 -0.0723357 0.10264048 -0.06723288 0.25506622 -0.054254055 -0.029379047 -0.04463739 -0.13644488 -0.11493847 -0.11829697 0.20270093 -0.23641199 0.079507254 0.08440916 0.08334791 0.27137566 0.24763335 0.13857687 -0.013473079 -0.3391476 -0.15446237 0.2325956 -0.12227579 0.08859329 0.051568072 0.30412275 0.16640662 -0.12796958 -0.07274247 -0.043552224 -0.079013765 -0.09090327 0.09194597 -0.064817294 0.15083985 -0.056416534 -0.32539397 -0.06917869 -0.09180767 -0.06051541 -0.17949276 -0.10432471 -0.13644531 -0.07210502 0.05149972 -0.16418575 0.09446936 -0.19931932 0.15428422 0.049027514 0.14840083 0.18520643 -0.17510585 0.083053306 0.009030248 0.2743789 0.0032046735 0.02626667 -0.13769524
제 -0.20796728 -0.07558063 0.14095525 0.14749976 0.17979145 0.07424109 -0.12871791 -0.095380746 0.03914021 0.079500526 -0.11143598 0.11199387 -0.20992807 0.0025666999 0.11634408 -0.010297425 -0.16165327 0.090865426 -0.20741609 0.08949255 0.055230614 0.048269182 -0.13030341 0.33485216 0.22744988 -0.13263325 -0.30490625 -0.09409841 -0.049130287 0.15123188 0.017568778 -0.08835413 0.16375977 -0.103057325 0.05423459 -0.0713621 0.037575316 0.030790372 -0.11061644 -0.07170819 0.1303148 0.16332798 -0.24538636 0.14988731 -0.2227478 0.094484925 -0.23211238 0.18744606 -0.07867925 -0.034908086 -0.0058724647 -0.13884713 -0.017005594 0.03744529 0.065966 0.047623064 0.16886789 0.3698545 0.05932228 -0.0748594 0.19159743 -0.105448976 0.13626784 0.18149048 -0.01888124 0.23255876 0.0043689827 0.25028083 -0.26145256 0.32116812 -0.016729819 -0.06890436 -0.09723714 -0.18817747 0.26239887 -0.26446447 -0.027655244 -0.08109319 0.08591444 0.01032122 -0.0025229787 0.05930732 -0.10462865 0.17581655 -0.20445535 -0.010737811 0.067139566 0.12559421 0.24239992 0.1918542 -0.12249816 -0.17407782 0.086309314 0.07583331 0.3628431 0.1622423 0.13610463 -0.1885817 -0.18810697 -0.10478037 -0.14908658 -0.050951757 0.28886062 -0.035787895 -0.12166266 -0.2966285 0.041261014 -0.3944914 0.30758587 0.2502374 -0.06669469 0.16089016 0.18244852 -0.059169788 0.062676616 0.15410525 0.06691852 0.1014544 0.13480033 -0.06967842 -0.0045028673 -0.039031498 -0.35740796 -0.07405644 0.08261914 -0.27825814 -0.07524738 0.051330145 -0.09271976 -0.10941722 -0.124405235 -0.17189161 -0.096672535 -0.072606035 0.062786266 -0.009951515 -0.100777686 -0.017986976 0.012279854 -0.11168032 0.016083395 -0.015998788 -0.18003687 -0.33318844 0.12917298 -0.10023202 0.08406241 -0.09311552 0.32869565 0.12775639 0.054286145 0.24288777 0.16688439 0.17315379 -0.106587715 -0.17204969 0.026524734 0.05920364 -0.15689938 -0.123564795 0.20944582 0.03969085 0.029780323 0.09623067 -0.06780326 0.22167034 0.10068789 0.29547432 -0.082946636 0.14485388 0.09939679 -0.21383667 -0.09886957 -0.108203255 -0.14086372 -0.38394916 0.11719622 -0.1325965 0.059806492 -0.06088728 -0.10713232 -0.24856366 0.33160064 -0.06962811 0.13031179 0.14483525 0.0723896 0.025478875 0.32992518 0.07102787 -0.017415207 -0.107271254 0.09269395 0.051179208 0.09743391 -0.058506172 0.060442865 -0.02459102 0.018424269 -0.08985348 0.018546205 -0.06926212 -0.12156523 -0.119681574 -0.17133126 0.40969074 -0.011173627 0.23275805 0.09810086 0.05581493 -0.12486841 0.049114227 0.037388865 0.024719765 0.0059282947 0.27975956 -0.14659643 -0.15498069 -0.14285946 0.03213969 -0.010248283 -0.052375946 -0.0053496403 0.093486264 0.09790713 0.26774383 0.22146875 -0.22208588 -0.067199275 0.072191454 0.33526352 0.1518225 -0.11266608 -0.105657734 -0.057528213 0.106893815 -0.0070891124 -0.16214709 0.073559366 0.19573747 0.032249227 0.12279371 -0.14814551 -0.054247424 -0.09881716 0.28609395 -0.17575619 0.06279333 0.097775936 0.17070088 -0.015892867 -0.10896431 -0.0542156 -0.27588326 -0.036423963 -0.088075005
객 -0.074983515 -0.22274464 0.01701221 0.070386276 -0.0023203085 -0.1768905 -0.24114048 -0.021833198 -0.15326293 -0.24794756 0.067794755 -0.378101 0.22873968 -0.023851024 -0.19471337 0.08311901 0.1519469 0.21722803 -0.12628803 0.12519379 -0.051368646 0.06709202 0.045783754 0.011509176 0.23059948 0.0056819953 -0.19383939 0.12848721 0.051281445 -0.20729497 0.21425629 -0.17138547 0.004053282 0.19753642 -0.0791529 -0.042692143 0.112367444 0.034760218 -0.0067500067 0.27984944 -0.0024525363 -0.25798059 -0.013830677 0.20065792 -0.052358765 -0.077582546 -0.08991012 -0.10386775 -0.021833042 0.12554576 -0.019354068 -0.15144998 0.05765687 0.009521124 0.1166705 0.11944575 0.14446816 -0.015310104 -0.06519639 -0.18425769 0.26526573 -0.010200142 -0.023565821 0.13475406 0.095751435 0.05614049 0.10757014 0.061027102 -0.16558382 -0.05229982 0.0068462063 0.1328416 -0.23201203 0.10705833 0.031475093 -0.10759079 -0.032073546 -0.20671782 0.14776401 0.16341777 0.22038703 -0.12495908 -0.19847694 -0.043641992 -0.074502 0.0350505 0.13829356 0.08783584 -0.082323246 0.23868884 0.27529553 -0.2717707 -0.08317268 -0.12307372 0.005883556 -0.016832095 0.30177993 -0.19175038 0.019220877 0.10477762 0.25373405 0.018634269 0.038121965 -0.23162264 -0.12179888 -0.091759905 0.16223787 -0.024815312 0.08598245 -0.159242 -0.09062069 -0.07800712 0.09042797 -0.048403908 -0.036802668 0.12220995 -0.057116803 -0.09677032 -0.038080078 0.06711587 -0.104819044 -0.046994317 -0.13096564 -0.10633769 -0.095894404 0.017858664 0.10587675 0.029448202 -0.22734872 -0.26695138 0.10202817 -0.16716537 -0.010171287 -0.08285792 0.086499676 -0.33867878 0.19883254 0.33431983 -0.24576192 -0.19860092 0.0046449583 0.028073134 -0.100563444 -0.062458463 0.18401825 0.21747556 -0.013331968 0.14607559 -0.023167573 0.12370075 -0.006712515 0.2146561 0.112618834 0.2608254 0.022921985 -0.1339146 -0.020129927 0.10940501 -0.032709062 0.016986044 -0.10819068 0.26920336 0.15297294 -0.15996274 -0.1298034 0.0016431967 0.03647 0.13888705 -0.24061015 -0.14330854 -0.12910794 -0.32382354 -0.13382661 -0.12610422 -0.08615181 -0.02845116 -0.03949209 0.066744305 0.17173943 -0.4380773 -0.1828089 -0.04495354 0.21745545 -0.14529492 0.28107148 -0.19291814 0.0023400416 -0.09915086 0.012338873 0.011541711 0.1648439 -0.14659603 -0.07951599 -0.09978359 -0.2116732 -0.07529968 0.21915933 -0.19969438 -0.040579055 0.23988304 -0.12843676 -0.044854593 -0.05362122 0.17534722 0.17803596 0.0077961683 0.13290197 -0.08514669 0.15871628 0.013170383 -0.08184742 0.3649404 0.16324514 0.13128476 -0.06704104 0.031609952 -0.30009803 -0.26062262 -0.07556459 -0.115960374 0.035270963 0.052985035 0.11169949 0.031089189 0.23937464 -0.068836495 0.15051696 0.06436998 0.19340786 -0.050344437 -0.056980763 -0.0020823975 -0.20742095 -0.098082155 -0.0576402 0.10498863 0.0045724288 -0.13136801 0.07594979 -0.04727606 -0.060439322 0.066433325 -0.1434172 0.13294488 0.25489935 0.23799615 0.16260919 0.15201432 0.060873963 0.097598426 -0.26292467 -0.13398585 0.09446887 -0.10900311 -0.030592978 0.029065084
문 0.13357478 0.016861346 -0.16741355 0.08169988 -0.08320232 -0.21635781 -0.13675238 0.14910918 -0.18668869 0.103754856 -0.15055597 0.14010967 0.02975238 -0.08789291 -0.022988627 -0.17447808 0.1715968 -0.0033702047 0.0057679783 -0.20947386 0.09415912 -0.0014573514 0.15089536 0.053854246 0.111034654 0.027438952 0.013679274 -0.06973443 -0.12098494 -0.39008856 0.070087485 -0.10885461 -0.023422522 -0.1069673 -0.06609593 -0.10557172 0.09483941 0.13141976 0.07566911 -0.11006574 0.08330902 -0.22562006 -0.014238473 0.07668239 0.29607937 -0.047678936 0.26806432 0.00065524277 -0.13821095 0.32505986 -0.10224596 -0.11369959 -0.088659935 0.13022335 -0.21126634 0.042513393 0.10480512 0.0025731206 0.16512673 -0.19398767 0.22758304 0.1737774 -0.061388638 -0.1983578 0.10923027 0.1934872 -0.15108246 0.016957378 -0.09583159 0.39210933 0.052127104 0.06976316 -0.017415036 -0.12323819 -0.121878155 -0.03308972 -0.2230779 -0.12292192 0.23086207 0.2464357 0.06621579 0.025452858 0.06324654 -0.16612205 -0.12838696 -0.007178602 0.08052875 0.038965028 0.03927242 0.07866906 0.15180755 -0.11254678 0.03412518 -0.23801692 0.08816992 0.14775042 0.15646647 -0.09666708 -0.2089476 -0.0995949 0.15449686 -0.17847611 0.063438185 0.031976897 0.003597292 -0.04598008 -0.16329208 0.02767715 -0.017309297 0.11457284 0.043601267 0.10305632 -0.020626627 0.1102805 -0.045956638 -0.02016304 -0.12974773 0.049615733 -0.21615684 0.056168966 -0.03462658 0.033383705 0.035003472 -0.2840664 -0.06754322 -0.11943422 -0.25169247 -0.09611719 0.07135647 0.08214152 0.27013823 -0.24850982 0.07890083 0.24623294 -0.23508002 0.048241407 -0.06451666 0.010832147 0.2426535 -0.12985846 0.23492292 -0.087487414 -0.07676569 -0.12907086 0.098545425 -0.114743076 0.22742994 -0.00347616 -0.037032127 -0.08843235 -0.14012252 0.10181138 -0.118474565 0.3115543 -0.063334085 -0.05969478 0.0031413368 -0.15600845 0.0012535566 -0.0724717 0.17729154 0.10325429 0.24127187 -0.08813191 -0.22235036 0.08170417 -0.13035083 0.16500357 0.030229688 -0.033493984 -0.17543043 -0.14022194 0.0020183285 -0.23733409 0.0036149085 0.18737562 0.031353507 0.13924055 0.12633732 0.096496336 0.013937667 -0.0072491043 0.16472743 0.033436816 0.059966106 -0.10163607 -0.13247982 0.117183216 0.015433597 -0.10131332 0.44621283 -0.030967271 -0.0715253 0.093704455 -0.16596037 -0.39964995 0.2739039 0.21899307 -0.067105934 0.21412988 -0.078533724 -0.22186227 -0.23968273 0.06671896 -0.10112046 -0.2409797 0.20368858 0.25197813 0.024306996 0.09708434 0.18653254 0.25414512 -0.095721856 0.122024685 0.10886586 -0.1056035 0.15345715 -0.2642962 0.23668353 -0.15368864 0.34966072 0.060616713 -0.202938 0.14159861 0.0069997464 -0.011997917 -0.0937276 0.02501786 0.124702565 -0.08404492 0.24034995 0.19489063 -0.14620909 -0.10375285 -0.09475018 0.36692876 0.30757388 -0.1541401 -0.01494006 0.11054987 0.06306368 0.018491412 -0.07969997 0.17873456 0.056415606 0.36775583 -0.09884512 0.04151831 0.21249506 -0.16510779 0.08310271 0.029539596 0.23779486 -0.100867175 -0.071179405 -0.086287394
리 -0.25941855 -0.25337848 0.033703495 -0.050610855 0.12682374 -0.18036649 -0.49663007 -0.061710216 -0.09768618 -0.18966524 0.012728838 -0.09036563 0.2900978 0.08949151 -0.020500349 0.04468949 0.044480823 -0.0009753166 -0.15599701 0.13910267 -0.28379118 -0.09889013 -0.10429287 0.22780262 0.18526791 -0.06680433 -0.1056914 0.03491411 0.03961604 -0.035284404 0.16660762 0.07206236 -0.02561792 -0.19621454 0.13095017 -0.08789369 0.023118732 0.20586994 0.06783801 -0.25605083 -0.17984931 -0.12403957 -0.22023736 -0.17583117 -0.25531083 -0.14142258 0.22871463 0.40647486 0.18059857 0.16974238 -0.06930413 0.07381844 -0.10049382 -0.02180876 0.05549356 -0.01928387 0.21771191 0.45608836 -0.019892776 0.042113025 -0.15262173 0.05263709 0.017863203 0.028884154 0.15898281 -0.05489272 -0.14749865 0.05238032 0.001272622 -0.11613319 0.10937368 0.06235761 -0.06886264 0.15116364 0.06023558 0.13067964 -0.11227609 -0.064797886 0.16805172 -0.17672642 0.15965855 -0.08103762 0.16994448 0.0043962453 -0.19752736 -0.17387149 0.21474564 0.00752397 0.21246433 0.17259587 0.03348803 0.11171322 -0.1088113 -0.34719804 0.038416736 0.07723281 -0.19175853 -0.17152369 0.34843746 0.286299 0.1542039 0.11488555 0.048269685 -0.12153603 -0.12178011 -0.07620915 -0.14336327 -0.11840701 0.22135276 0.08781138 -0.016399259 0.004932149 0.028855206 -0.08762929 -0.008185687 -0.16511098 -0.108723424 -0.37478948 -0.36556342 0.01474818 0.11469691 0.21899374 0.09039491 -0.16344708 -0.14400873 -0.03176739 -0.3227307 -0.25413588 -0.032757357 -0.14504096 0.07863455 -0.24661179 -0.068672955 -0.015868932 0.074575804 0.1510517 0.0088987565 0.10928447 -0.2665037 -0.116797544 0.17803787 -0.13043989 -0.36290273 -0.28616858 0.15131281 -0.07331059 -0.0728453 0.122985706 0.014932742 -0.1609278 0.20563416 0.16234426 -0.034391254 -0.03747848 -0.3301196 -0.08008331 -0.034273986 0.111594774 0.04103853 -0.0006538611 -0.20266098 -0.119756065 -0.027900558 -0.26419982 0.26476604 0.17098865 -0.246831 0.120575815 0.055021454 -0.18814872 -0.065302484 -0.37389207 0.0975344 0.19054624 -0.040959463 0.09866648 -0.11151942 0.22663909 0.12366771 -0.15975799 -0.07803508 -0.019728456 0.21028525 -0.3325938 0.07907961 -0.040578935 -0.20819949 -0.0687739 -0.1468767 -0.09827449 0.15322481 -0.27875027 0.13215642 -0.11515948 0.08084537 -0.2910607 0.08226456 -0.056478266 -0.07341838 0.05820736 -0.3775837 0.054290097 -0.07446396 -0.06312479 0.24049157 0.2419184 0.16486439 -0.021444859 -0.09730667 0.24687852 0.14712885 0.07207916 0.0670222 0.1742028 -0.0341722 0.22810037 -0.01752506 -0.094395086 -0.015884297 -0.36847386 -0.006564301 0.024356518 -0.017726704 0.045784328 0.16477779 -0.09807103 -0.03786015 -0.029020753 0.18847923 -0.085764825 0.008601299 0.026294632 -0.20166418 -0.32223552 -0.14839216 0.045386177 0.18032427 -0.28344983 -0.03741775 -0.052791025 -0.011522602 0.39596567 -0.08594484 0.061421573 0.08159479 0.03273388 0.27658328 0.0995033 0.4881544 -0.103576854 -0.22199355 -0.11839119 -0.014195351 -0.13977148 -0.06968217 -0.20180169
부 0.04454351 -0.2208918 0.27834436 -0.037307415 0.054144353 0.118684284 -0.3654091 -0.11405383 0.06958303 -0.061249215 0.21958525 -0.07701054 0.06170262 0.056642346 0.32140267 -0.18845871 0.020376869 0.10535018 -0.05568105 0.12334838 -0.11604123 -0.16065621 -0.24774683 0.3146709 0.26002687 -0.006494695 0.22801007 0.30708778 0.02980043 0.014104593 0.3597038 -0.18376556 -0.26467144 -0.01354761 0.11796295 -0.11435709 -0.18464516 0.11191735 -0.008911148 -0.0302319 -0.22397041 -0.22340281 0.08367731 -0.06474053 0.22839949 0.07607341 -0.1804407 -0.032061733 0.1623055 -0.24532539 -0.3350861 0.0519425 0.04469069 -0.30529183 0.021060506 -0.072897956 0.23780808 -0.0472929 0.23590055 -0.08136301 0.15169546 0.026591375 0.24508497 0.24149932 -0.056778643 0.10660878 0.51299363 0.059360392 -0.039147887 0.1580561 0.121330336 0.13605644 -0.04070301 -0.10450455 0.0021545212 -0.13074379 -0.112865105 0.11938302 0.573014 -0.2330398 0.0016465117 -0.38994566 -0.26380718 0.15230775 -0.08230861 0.0061774626 0.08341381 0.3363304 0.09240022 0.36422834 0.049180076 0.30278647 0.14753106 -0.31854025 -0.071052514 -0.109277904 0.02140492 -0.21756952 -0.35857254 -0.20942754 0.42171484 -0.104507156 -0.15913877 -0.18475705 -0.23857291 -0.057322845 -0.20498846 -0.17663966 0.25867036 0.22059864 -0.19163129 0.10283302 -0.07700215 0.25742832 -0.10239206 -0.016969355 -0.27115092 0.24539432 -0.20886831 0.24625902 0.1834919 0.15547046 0.0830352 -0.26122734 -0.22606173 -0.0906567 0.06419762 -0.20743364 -0.07661496 -0.099624924 0.2981649 -0.12744586 -0.07590327 -0.17057015 -0.024135608 -0.3259146 -0.08956468 0.10515044 -0.04731703 0.028255071 0.17103688 -0.13789177 0.031703956 -0.0025149712 0.15560625 0.0895659 0.1868871 0.10214402 -0.13925071 -0.3597638 0.26671582 0.30251256 0.003308826 0.29012972 0.07249497 -0.18254575 0.16766323 0.3442137 -0.053046383 0.027562985 0.055500887 0.45338568 0.10031735 -0.23939194 -0.05672703 -0.071589135 0.17021553 0.2996479 -0.007816303 -0.20290251 -0.14083591 -0.026782082 0.04518574 0.27457133 -0.17347063 -0.07557855 -0.07982056 0.67670023 -0.12693708 -0.19770978 -0.28832328 -0.06359559 -0.034144606 -0.13454719 0.34313065 -0.11744049 -0.33713576 0.3168196 0.0044830544 -0.054642633 -0.27058747 0.18793374 -0.07436208 -0.13496526 -0.19616984 0.13619721 0.064837545 -0.021260785 -0.07261855 -0.05916093 0.07528716 -0.096948974 0.10631728 0.11529537 0.0017616535 0.11328126 0.067293085 0.0022489277 0.23217286 0.24050733 0.021482406 0.09513192 0.15913486 0.10178321 0.050490122 -0.009637913 -0.12198565 -0.0828198 -0.09188937 -0.031336937 0.038513176 0.29829136 0.17360839 0.20901537 -0.017687509 -0.16651541 0.18972228 -0.10585759 0.14431462 0.05961332 0.14622125 -0.06702422 -0.20942794 -0.61595464 0.13480754 -0.21879414 0.11160354 0.03746966 -0.1562413 -0.07151451 0.09835878 0.13074453 -0.26940057 -0.18157302 -0.050117735 0.04136266 -0.10136036 0.112173125 0.22290194 -0.035152655 -0.29203162 -0.018451365 0.019827938 -0.1517978 -0.038777396 0.19125837
일 -0.18603653 -0.09679582 0.22292884 -0.0036820553 0.06427353 -0.15154986 -0.52877766 0.1297538 -0.07859793 -0.1941013 -0.16546191 0.01857228 0.048492108 0.20686352 0.10113723 0.023948863 0.07881956 0.03572629 0.030459562 -0.101745136 0.0092677465 -0.0011834869 -0.012141066 0.19552423 0.20087343 0.042418998 -0.10330577 -0.012466075 -0.31205356 -0.059768733 0.08200551 -0.37689665 0.17671862 0.077573456 0.019245705 -0.21460345 -0.032737043 0.23826918 0.22990373 0.11789613 -0.028143287 -0.08923531 -0.371925 -0.0779169 0.006578555 -0.034142613 -0.36432025 -0.051823724 0.027273495 -0.113226004 -0.012231534 -0.08909522 -0.0322276 0.18436779 0.1191661 -0.0719837 -0.007667812 0.3422278 0.18995114 0.16917373 0.09644101 0.0014284996 -0.43340567 0.40862513 0.015527648 0.23029408 -0.071432956 -0.13502306 0.018294683 0.02718358 -0.1458984 -0.1172531 -0.0667916 -0.055165447 -0.012941282 -0.066288605 -0.1179899 -0.017367862 0.27622908 0.1275982 0.04262747 -0.11306413 -0.23236462 0.25159982 0.05088967 -0.24249408 0.20137528 0.31254593 0.14239325 0.08322065 0.16314642 -0.013901378 -0.09055934 -0.040282503 0.3726531 0.2579905 0.48556048 -0.4315673 -0.13659164 0.22047088 0.46000618 0.18980959 0.01095382 0.09424126 -0.004641329 -0.29198807 0.043159973 -0.17261977 0.14505492 0.15261252 0.015170666 0.1302005 0.12448357 0.16694973 0.15750787 0.24819633 0.40996033 0.12763566 -0.08668317 0.36405417 0.1720852 0.06859594 -0.1802645 -0.21613325 0.03836357 -0.3549877 -0.0038055999 -0.0658257 0.00042480414 0.18130064 -0.023134327 -0.11636332 0.022066703 0.3211343 0.076739155 -0.30532596 -0.008103364 0.33265728 -0.17405602 -0.09180005 0.18931848 0.0039692363 -0.15361445 -0.22318421 0.26854932 0.2113566 -0.004070942 -0.0421355 0.29877934 0.08427992 0.19445036 -0.121855795 -0.101223156 0.32296938 -0.0070444793 -0.2052345 -0.08691167 0.071983956 -0.05146048 -0.26318368 0.14232068 0.49279967 -0.1835281 -0.05145019 -0.035211354 0.07181441 0.16416225 0.1796844 -0.046416584 0.14893366 -0.11432095 0.041339528 -0.012520864 0.25817278 0.16976646 -0.20071247 0.11423384 -0.30545267 -0.10810815 0.1752783 -0.12877654 -0.050119508 0.14194827 -0.005239247 -0.031956717 0.034230053 -0.24950443 0.14017624 0.019810759 -0.011576698 0.020800715 0.11423509 -0.0916376 -0.17133458 0.3282977 -0.22013827 -0.09942475 -0.2770003 -0.019723289 -0.27711293 0.23703118 -0.05636363 -0.016138818 -0.28210726 0.06402799 0.16077551 -0.036855593 0.11991357 -0.106453575 0.18324092 -0.3358918 -0.029420607 -0.0668766 -0.18381378 -0.16737759 0.31617132 -0.10218121 -0.015949074 -0.2522115 -0.20149432 0.23623519 -0.019891294 -0.02121429 -0.13312277 0.39010665 0.076174654 -0.047908008 0.2657834 -0.1649467 0.28041375 0.10582372 -0.22992882 -0.3500255 -0.30116796 0.012517064 -0.19647712 -0.17576422 -0.09075272 0.026925247 0.07809941 0.21772157 -0.18047944 -0.09249833 0.24893285 0.05789832 0.42657626 0.08898213 0.08223538 0.032497574 0.09355244 -0.09580845 -0.027096277 -0.17992835 -0.19921428 0.08130289 -0.18730877
확 -0.13368787 -0.11865597 -0.1909635 -0.06508298 -0.13396639 0.18775328 -0.05382323 -0.12819137 -0.15043455 0.007518886 -0.2529563 -0.13708259 0.12626521 0.33438522 0.1702125 -0.14260633 -0.110685036 0.4228899 -0.15343317 -0.18964165 -0.28757024 0.06511392 -0.29820323 0.18077773 0.22871979 -0.15171356 -0.26102424 0.4275858 -0.13905403 -0.12571774 0.030921284 -0.074586876 0.03669013 -0.23308243 -0.25796893 0.076662764 -0.094566494 0.01612168 -0.023562366 0.20277934 0.022363506 -0.26919577 -0.23704709 0.2010812 -0.33023527 0.008996598 -0.05652931 -0.0144955125 0.1275459 -0.013551895 -0.03099816 -0.1261701 0.40443742 -0.13471392 0.11224675 -0.11679636 0.21661854 -0.12568364 -0.10285202 -0.14687847 0.114286974 -0.12179434 -0.0039700004 -0.06407805 -0.09356929 0.12084875 0.08479647 0.014946847 0.028055532 0.1041459 0.11449522 0.20208767 -0.24624161 0.032260217 -0.29075372 -0.097726524 -0.32897156 0.019049928 0.24719912 0.13901415 0.19383778 -0.06917187 0.11103812 0.056248344 0.0065969755 -0.14692591 0.11597553 0.13761044 -0.04107155 0.3056898 0.14968225 -0.15972573 0.004318466 -0.15122586 -0.19611628 0.15281354 0.08069555 -0.17233336 -0.11500689 -0.14305122 0.2486226 -0.032771386 0.08267207 -0.24311715 -0.12011899 -0.14646798 -0.32092068 -0.10482944 0.22183128 0.04957535 -0.03316819 0.097409755 -0.18652338 -0.14736211 0.21682511 -0.055666365 0.008203885 -0.07436444 -0.26306948 0.13100731 0.27403367 -0.085243806 -0.0037712979 -0.23166822 -0.07920712 -0.08220492 -0.0015284903 -0.26009664 -0.055751447 -0.24660575 0.07381753 -0.2063954 0.076602966 -0.0028559023 -0.03682793 -0.14465076 0.09709986 0.16349055 0.06261683 -0.15855928 0.13947958 -0.20208876 0.14356652 -0.12501574 0.077210024 0.16494937 -0.10336813 0.4875399 -0.12009891 -0.12745306 0.22855495 0.24720193 -0.20150962 0.1654321 0.03981042 -0.15054633 -0.019222487 0.18031064 0.065363646 0.041286595 -0.024192888 0.05650572 0.11794797 -0.16732988 -0.0603404 0.14637549 0.117447235 0.18012671 -0.14136471 -0.22228333 0.09948595 -0.12176913 -0.11834121 0.10141291 0.08501031 -0.07509308 0.0009948943 0.068159215 0.14349893 -0.26005298 -0.25874153 -0.10269958 0.1693592 -0.0027046003 0.26925302 0.05905477 -0.21525764 0.16629776 -0.019139146 -0.15987891 0.1532399 -0.44106606 -0.3170677 0.06878444 -0.10379089 -0.12936221 0.19385949 -0.1404581 -0.06117106 0.0063363244 0.12292057 0.13204935 0.0075326334 0.043024253 0.28925797 -0.29431432 0.042559933 -0.07959992 -0.12140818 0.026768006 0.13073361 0.07969408 -0.3044036 0.10675818 -0.060358383 -0.023353187 -0.26488858 -0.024499608 -0.4299782 -0.041633163 -0.123108245 0.31045392 0.0958636 0.077034995 0.13073984 0.0265697 0.26460892 -0.09859531 0.095473595 -0.03834073 0.09699762 0.1028472 -0.25966623 0.0035122782 0.1413903 0.032559402 0.14281563 -0.20037477 -0.013008029 -0.20653887 0.19730079 -0.08232098 -0.27206334 -0.25418898 0.23698695 0.27312198 0.11615076 0.20557423 0.020257233 0.16850866 -0.16268352 -0.017094776 0.029651016 -0.18091442 -0.37961933 -0.15109673
금 -0.051991384 0.06591636 -0.058162812 -0.17095268 -0.26488963 -0.374152 0.04824869 -0.04888551 0.0062298235 0.0928374 -0.035321534 0.02948876 0.07175767 -0.04638433 0.06008654 -0.1903166 0.2808872 0.15416464 0.058446657 -0.03391243 0.023736002 0.20692909 -0.052319504 0.10790086 0.1376073 -0.121426284 -0.037080716 0.059632707 -0.20500845 -0.2520952 0.002931823 -0.11588409 -0.073808335 -0.13794403 -0.0869017 -0.062584445 0.033545278 -0.0012280241 0.3034749 -0.109260626 -0.29752722 0.31362066 -0.10954875 -0.0870437 -0.15116963 0.28345245 0.34589097 0.15890434 -0.20936133 0.22717826 -0.08386556 -0.49041358 -0.15789182 0.17927733 -0.05701701 0.0015440984 -0.039861504 -0.072692305 0.086453386 -0.0507409 0.36632568 0.10345324 -0.10074293 0.11899723 -0.2750634 0.20276582 -0.015494676 0.32142493 -0.11527252 0.16911116 0.15742691 -0.06404855 0.04674157 0.016672332 0.11211272 -0.27520806 -0.21750335 0.030269941 0.22467631 0.12489403 -0.057351828 -0.23112057 0.009277706 0.068184264 -0.022476206 -0.117666386 -0.11849376 -0.057869565 -0.060164075 0.23666282 0.003546635 -0.05783248 -0.0786884 0.04402493 0.056296147 -0.19173859 -0.1089805 -0.09559118 0.13603179 -0.13366969 -0.111236185 -0.05323688 -0.12779194 -0.04308748 -0.12324029 0.018187229 -0.044708207 0.024632212 0.044665422 -0.13265187 0.048022963 0.0004072415 -0.02101987 -0.03973099 -0.1487356 -0.1983543 -0.007818721 -0.006621218 0.022146286 0.09142296 0.23358735 -0.08320006 -0.03191129 -0.044826835 -0.055597156 -0.2294817 -0.18495983 0.02814492 -0.21045575 0.012549837 0.11305062 -0.16015498 -0.017071424 -0.027542902 0.013842811 -0.12861314 0.14838062 0.19057328 0.18088996 -0.110616535 0.18163937 -0.100549445 -0.13463193 -0.311064 0.06601954 -0.20356795 0.09480703 -0.034500808 -0.091525346 0.06715182 -0.12541552 -0.046496976 -0.3046583 0.25565344 -0.18060456 0.01750342 -0.08440298 0.118622296 0.0582091 0.052065987 -0.032568227 0.11134815 0.053029817 -0.08981902 0.012830929 -0.14019275 -0.02932936 0.17787449 -0.14014177 0.13834085 0.17775317 -0.1540611 -0.036517166 0.13386746 0.23487756 -0.017629573 0.35514855 -0.03779321 0.05970094 -0.0532934 0.10023495 0.07708539 0.11726338 -0.24579754 0.03773316 -0.0034948483 -0.09300934 0.08089933 0.111572586 0.05425914 -0.20883572 -0.03360869 -0.11502945 0.16228652 0.11508556 -0.093960874 -0.008496801 0.17330983 0.02392662 0.023220219 -0.15396632 0.19114351 -0.19735502 0.11239983 -0.21903476 0.35849884 0.017691609 0.14542685 0.18218866 0.03321719 0.044457413 -0.26950282 0.17385882 -0.1279628 -0.1358254 0.019625418 -0.23978421 -0.1364907 0.1389613 -0.25090608 0.06366552 -0.050303746 -0.11679386 0.053298093 0.161606 -0.02314469 0.08857726 -0.0892185 -0.06569422 -0.22048463 0.131452 -0.06746065 -0.13888098 -0.20283939 0.0023469422 -0.12361402 -0.13651238 -0.11073139 -0.34314424 -0.019219205 0.10054649 0.0987506 -0.02508236 0.08539448 0.23876339 0.10932055 -0.009989397 -0.099323235 -0.017877577 -0.15757725 0.050084308 0.10172482 -0.1708648 -0.04584792 0.084894635 -0.1923745
그 -0.043134406 -0.023364287 0.15217133 -0.077988245 0.065692 -0.12807629 0.008677632 -0.1129554 -0.074111 0.019149752 -0.006448033 0.040391006 -0.06505311 0.1672614 0.009708273 -0.066180065 0.05434328 0.23542796 -0.08399944 0.042094007 0.14080994 0.13589098 0.101913065 -0.13352437 -0.044288624 -0.11844834 -0.03605421 -0.008187793 0.12708503 -0.22114083 -0.19235222 0.00815986 0.036925983 -0.031140728 -0.061458796 -0.21897551 0.015087212 -0.17854077 -0.04128743 0.13437381 -0.16314691 -0.10503445 0.02059562 -0.11048321 0.085177414 -0.11840544 0.20527567 0.13770553 -0.07418506 -0.011498088 0.014529255 -0.055349104 0.075098954 0.06263635 -0.09876465 0.037150625 0.060524397 -0.16759147 -0.14754228 0.046772715 0.012533618 0.22478627 -0.0014868252 0.078020796 0.22957529 0.018259395 0.096700385 0.25319245 -0.23871525 0.11507287 -0.007043823 -0.0073567345 0.0037107281 -0.0097939 -0.0035586224 -0.24944068 0.0099675385 -0.049471866 -0.0065621533 -0.04079804 0.1405365 -0.11163294 -0.13662736 0.12630633 0.22813576 0.18778105 -0.05979405 0.15101497 -0.016092377 0.0132862665 -0.017541056 -0.015624342 -0.15603562 -0.007927205 0.29791585 0.23629193 0.107507735 -0.056696545 -0.046728797 0.1130654 0.08168091 0.08085912 0.079379685 0.15290761 0.040808424 0.1280304 0.030952841 0.01987455 -0.17940627 0.0032278448 -0.057410073 0.17468847 0.16507871 -0.15131964 0.07522409 0.019598864 0.009951982 0.07942727 -0.1986849 0.09824366 0.10132455 0.07174795 -0.046649635 -0.09726522 0.05604583 -0.20029975 0.14591806 0.039483458 0.024590828 0.029931474 0.18604732 0.091136634 0.0039253957 -0.0056514754 0.11626453 0.052156672 -0.12051182 -0.115466505 0.20961049 -0.1287814 0.006497918 0.020827277 0.20087504 -0.19258404 0.090346016 -0.16298606 0.14798675 -0.029592054 0.05185797 0.2539255 0.012156858 0.06144751 0.002945404 0.00520291 -0.061567035 -0.11305292 -0.14263777 0.0643072 0.036296368 0.0124574555 -0.016357806 0.1506155 0.1517613 -0.20020549 -0.08762074 -0.017036874 -0.051216006 -0.02900816 0.096790396 -0.03953672 0.14760266 0.07688105 0.2692702 0.14208232 -0.077776976 0.2293219 -0.15177687 -0.13573153 0.056010585 -0.07814052 -0.10853496 0.1830307 0.30167595 -0.09508512 0.12409604 0.16657056 -0.026034402 -0.05964534 -0.06041516 -0.058377262 0.17839786 -0.06911477 0.019018544 0.06718731 0.035539575 0.23742707 0.039473448 -0.12696108 0.0355702 -0.08182975 0.11252148 -0.12677462 -0.0103816055 0.006554624 -0.06957526 0.15989348 0.13864684 0.098306544 0.02199862 -0.13887818 0.11134655 0.019629454 -0.08178283 0.08643088 0.042849917 0.07868928 -0.12188527 0.33102575 0.17183615 0.12583655 0.16900158 0.17305586 0.070873804 0.026034864 -0.11291383 0.08844084 0.10685819 -0.108736254 -0.17072965 -0.059330914 -0.0805801 0.06938291 -0.1386598 -0.1848724 -0.09226667 0.008893536 0.13381514 -0.12112933 0.01181053 -0.22674914 0.004612155 0.045103125 -0.0011706883 0.046532687 -0.15926461 -0.028212942 0.08232675 0.015043235 0.18702479 -0.11167729 -0.13131899 0.13077371 -0.10876037 -0.045330938 0.17815506 -0.19238462
입 -0.29564607 0.16438638 -0.10003045 -0.05336245 0.16261989 -0.064568594 -0.050968803 0.13086253 0.09726701 0.06870015 -0.06065507 -0.03703923 0.058146417 0.1753552 0.13852942 -0.15106235 0.043399937 -0.032314613 0.08065544 -0.03147854 0.11431275 0.18297893 0.1298265 -0.11018209 0.15754671 -0.040327623 0.113091804 -0.07985325 -0.098399 -0.2551599 0.12750457 -0.095990874 0.0551721 0.16992207 -0.12946285 -0.20630464 -0.24367891 0.09133812 -0.058856446 -0.029927764 -0.25353006 0.023570249 0.19379209 0.27072573 -0.0029795186 -0.25167933 0.13452235 0.0020216499 0.002349646 -0.11927523 0.17254134 -0.04850308 0.04268511 0.100289755 0.061327465 -0.04087435 0.2106807 -0.034644213 0.20426837 -0.11628603 -0.007072521 0.16071929 -0.31729785 0.08755878 -0.15580288 0.17635058 -0.11897077 0.017503686 0.104906976 0.4285555 0.30115077 0.04833299 -0.08526729 0.25684866 0.12873848 -0.3512291 -0.27334484 0.094511785 0.04081458 -0.009709366 0.069789454 -0.08005153 -0.25459296 0.26340827 0.022288827 0.113406494 -0.08688758 0.13689625 -0.0137654655 0.16756412 -0.16872913 0.028900145 0.02355623 -0.0026949556 -0.066872515 -0.45193297 0.08076537 -0.18648867 -0.021458562 -0.056095164 0.018029995 -0.16453466 0.12078628 -0.25967446 -0.03865231 -0.09025433 -0.07384808 -0.025304144 -0.09178671 0.022272786 -0.13986768 0.16431448 -0.029981844 0.016475342 -0.017319806 -0.15557313 0.12400578 0.1160557 0.07533122 0.0098635275 0.16299547 -0.2015914 -0.15028301 -0.26697764 -0.20356324 -0.28943288 0.18031074 -0.045760207 -0.050206233 0.0009644415 -0.12763795 -0.056952007 -0.17915685 0.18410482 -0.07079875 0.010310723 -0.020415744 -0.06711806 -0.14296278 0.05145835 0.11862787 0.03134081 -0.09706325 -0.042371776 0.47325194 -0.12685502 -0.24106967 0.044632256 0.14246206 0.09968871 0.05564757 0.14772888 -0.112661734 0.27953625 0.053255163 -0.07309418 0.08525944 0.12945582 0.133793 0.034632336 -0.06418595 0.15369046 0.18660906 0.05283182 -0.14657319 0.18958448 0.28707635 0.07744273 -0.0930391 0.2657828 0.075542845 -0.21463194 0.038461637 -0.101042725 -0.015367537 -0.046226595 0.053165596 0.067481644 0.18568727 -0.20715953 -0.052783873 0.15384884 -0.116112076 -0.13171855 0.3434525 -0.0819512 -0.09004368 0.14010388 -0.26057085 0.18084508 -0.29483646 -0.0506531 -0.18856569 0.019986913 -0.07568198 -0.111685365 0.19675624 -0.2469801 -0.07367259 0.07358439 -0.2859905 0.077964224 -0.08565013 -0.024498107 0.32468915 -0.22106646 0.14838752 0.05571998 0.08721688 0.025092851 0.3039789 0.058243643 -0.075941294 0.20191492 0.19293752 0.22077194 0.05689176 -0.0030813564 0.06086809 -0.035643563 0.06795321 0.02756576 0.15420103 -0.13552625 0.2505477 0.08708278 -0.24352331 0.025255417 0.016503483 0.030875754 0.17619188 0.32428104 -0.010923152 -0.48763224 -0.0979424 0.15218419 -0.032364417 -0.24371047 0.25319976 0.07864678 0.06641108 0.3142435 0.018300565 -0.04373346 0.027423872 0.09848477 0.19357912 -0.056955803 0.039056808 -0.24085698 -0.032591466 -0.16200487 -0.1682354 -0.15029903 0.2958645 -0.29407033
도 -0.15548909 0.14044558 0.0780534 0.0138939135 0.08131101 -0.18383348 0.0067028683 0.01462683 0.21624994 -0.30967066 -0.13711986 0.10042886 0.081176266 0.026551258 -0.21775451 0.17798243 0.19497392 -0.11750568 -0.026485613 0.07839891 -0.14635809 0.18020625 0.06341151 0.09935879 0.17017837 0.0016324843 -0.27506483 -0.22165352 0.2749044 -0.0074767345 0.086242385 -0.0748554 -0.05037782 0.058761794 -0.189739 -0.06536095 0.28179583 0.07251953 0.114056095 -0.016415684 -0.17668274 0.09349716 0.1690639 0.0631345 -0.09862553 0.20638181 0.14801386 -0.030446306 -0.057905536 -0.037411667 0.06309879 0.0014672232 0.044406667 0.012049642 0.09340661 -0.021527272 0.03303417 0.051071614 -0.19506784 -0.2697038 0.04166711 0.27492356 0.29609382 0.21627033 -0.09422772 0.3338211 -0.17602558 -0.16702989 -0.052750718 0.3625127 0.15553597 -0.10902127 -0.20440765 -0.03031895 -0.07496483 -0.09906208 0.026587997 0.11388656 0.20304312 -0.02490871 0.11565897 -0.22002746 -0.008471933 0.19469285 -0.019752689 -0.109826215 -0.20623864 0.1027622 0.034357943 0.1890422 0.3223593 -0.1991397 -0.089053005 0.06085053 0.13683622 0.17399873 0.034572862 0.15469216 -0.03814752 -0.011814254 -0.26464313 -0.033876773 0.06667796 0.09354824 -0.0023803664 -0.24429613 -0.0506394 -0.021062275 -0.021284249 0.03948053 -0.08005993 -0.066861354 0.028880633 -0.2527706 -0.09406477 -0.07798237 -0.19684553 0.013716466 -0.44818443 0.20268407 -0.032824103 -0.17889626 -0.029652063 0.009679375 -0.105130374 0.110260814 -0.13413304 -0.046471197 0.06972987 0.021808922 0.27534276 0.0055337725 0.33651018 -0.18830901 0.058246415 -0.035432104 -0.07534348 0.090458065 -0.019283608 -0.17840578 -0.094797924 0.13068326 -0.037545968 -0.215986 0.24790412 -0.10258454 -0.03286732 0.078933425 -0.022314874 -0.15774038 0.026845394 -0.13336462 -0.069443315 0.21900864 0.0052331137 0.06580844 0.070250414 0.018976407 -0.01485837 -0.1467962 0.033250157 0.10398427 0.10893116 -0.22309256 -0.18464065 0.19635043 0.1724246 0.0045059673 -0.08216014 -0.21000983 -0.14476964 -0.25976774 0.07973566 -0.08480009 0.07427779 0.044241954 -0.18723753 0.091027945 0.4320301 -0.38662806 0.01679599 -0.089060076 0.0706868 -0.4697162 0.03828772 0.09093576 -0.2786135 0.3184177 -0.07679556 0.025806284 0.379711 -0.30928084 -0.12750448 -0.228866 -0.11776414 -0.057609726 0.27571473 0.063232325 -0.06917422 -0.043807637 -0.14035869 0.059856556 0.047849655 0.25004303 -0.27090532 -0.10246931 -0.00740215 -0.14134331 -0.022744274 0.024768865 0.0862343 0.20735149 0.1127184 0.10735955 -0.058055352 0.19815108 -0.03873532 -0.06339676 -0.4040008 -0.14052579 -0.0664481 0.24723536 0.048566017 0.011847929 0.12117774 -0.029855952 0.15155205 0.0032911212 0.08798027 -0.06791897 0.059885476 0.13434502 -0.002384995 0.09630983 -0.08460112 -0.2172543 -0.12801267 -0.25893825 0.06589753 0.005426137 -0.023031212 0.013286463 -0.15991367 0.05696337 -0.099311836 0.16238028 0.104427226 0.44968516 0.094141975 -0.08393814 -0.20917454 -0.24679309 -0.069843374 -0.2669542 0.11177692 0.17849648
카 -0.04899346 0.06332145 -0.062163346 -0.014958257 0.082723595 -0.06291938 0.08592553 -0.07051452 -0.048796777 0.04433516 0.002680601 0.18386576 0.08370793 -0.0361754 0.091753945 0.0063740974 0.09085235 -0.012717232 -0.10309525 0.12559384 0.05221886 0.02542635 0.12746426 0.26576623 0.42865855 -0.46683306 -0.029366875 -0.34040523 -0.23904149 -0.03164586 0.4452036 -0.01141794 -0.15369657 -0.15428914 -0.16425776 -0.405523 -0.042114083 -0.14862727 -0.011201961 -0.16000731 -0.027780306 0.13656728 -0.08104602 0.15873787 -0.021962103 0.017921785 -0.101628765 0.22066586 -0.26085564 0.08803183 0.01879622 -0.013038455 0.3427673 -0.062322047 -0.13989279 5.9544738e-05 0.1595733 0.27128005 0.042819083 0.24261414 -0.015051256 0.006933573 0.059804387 -0.07891709 0.344489 -0.29216602 0.033904593 -0.15066674 0.017321965 -0.08753459 0.08740115 -0.0070418483 0.07758787 -0.28909227 -0.1930107 -0.2671358 -0.0905029 -0.2817538 0.35414657 0.06899285 -0.07784415 -0.06587862 0.14345486 0.2913339 -0.1483614 0.062326785 0.31553084 0.025839608 -0.21642992 0.24973284 -0.07693473 -0.10598419 -0.124726675 -0.3025266 0.10288085 -0.16746905 0.037223395 -0.3159704 -0.15499198 -0.042095415 0.18455052 0.34251934 0.11556479 -0.34198022 -0.031194575 0.13450928 0.1031166 -0.13481188 0.12342359 -0.15744771 0.16130638 0.14363183 0.44271445 -0.27206746 0.29383612 0.09018634 0.21799625 -0.004116346 -0.18173006 0.00076634303 -0.32483205 -0.007016595 0.28325424 -0.0824295 -0.088580154 0.18230355 0.19401099 0.09400643 -0.31551522 -0.31028813 -0.010855804 -0.5361263 -0.1542891 0.061003428 -0.08401728 0.02180045 -0.07968986 -0.0541295 -0.20915848 0.06978018 0.12627812 0.018934581 0.08311717 -0.039230473 0.26677594 -0.1446041 0.17927119 0.14893897 -0.12500344 -0.14032298 0.24113521 0.02791023 0.3986503 0.03589397 0.24337079 -0.025110481 -0.0073442776 0.5543567 0.1320203 0.031482078 -0.24245478 0.10799776 0.21512917 -0.10697617 0.086324185 -0.0006445634 0.12572905 -0.13890803 0.024447996 -0.014423579 -9.618426e-05 -0.08086596 0.36523795 -0.10741098 0.21472768 -0.11455241 0.04607634 0.04495588 0.07577347 0.03538396 -0.055446167 0.05343951 0.24237859 -0.1468127 0.016501507 0.21019249 0.04315502 0.19954458 0.03446215 -0.14900002 -0.27655706 -0.29285955 0.06311232 -0.14521655 -0.115412444 0.0045234147 -0.014335421 0.23038565 0.14100298 0.04441412 -0.09492762 -0.31711978 -0.024477499 0.12715624 -0.005937853 -0.18360955 -0.049864694 0.031567097 0.30450988 -0.14171207 0.037982255 -0.13908713 0.21907194 -0.09260333 -0.13442825 -0.0044357646 -0.2824227 -0.05404463 -0.12162322 -0.12881042 -0.04575647 0.4278609 0.04868003 0.12183549 0.031915747 0.11880371 0.23166415 -0.048321903 0.22894803 0.04946831 0.29539916 -0.09861098 -0.11174684 0.09022534 0.11260465 0.21386506 0.11179635 -0.38417345 0.2378117 0.053992543 0.15001582 0.11464842 -0.48100477 -0.100871526 0.10933672 -0.18755974 0.07592449 0.2636533 0.17367378 0.083107784 -0.2554169 0.02610612 0.10613674 -0.14104825 0.2947912 -0.07926187
탁 -0.17416921 -0.2212115 0.0048351833 -0.30471134 -0.13867636 -0.036997348 -0.34956595 -0.4146478 0.02495569 -0.08315922 0.09935456 0.16280559 0.44834325 0.14623463 0.23221087 -0.17387997 0.0435362 0.26946145 -0.16719314 0.2882222 -0.3454441 0.03419816 -0.38751033 0.11013874 0.28187644 0.03399602 -0.027553987 0.32173535 0.04836601 -0.3553944 0.31094494 -0.05643887 -0.3016417 -0.11562074 -0.20379053 -0.19288523 -0.07510432 0.37238252 0.09488655 0.121890955 0.37660342 -0.25677186 -0.043937404 0.176634 0.24669409 0.024231665 -0.129895 -0.27816254 0.05587304 -0.5988391 -0.22235627 -0.1035942 0.070469715 -0.43099812 0.05656494 0.0118333185 0.25878084 -0.0111941835 0.30016953 0.0070672906 0.25173107 0.05559535 -0.01703231 0.41485226 0.025838446 0.09586033 0.26709569 0.20818482 0.076427735 0.027489368 0.1813645 0.10815438 -0.5011765 -0.23491338 -0.07451601 -0.031883974 -0.18726492 0.022358753 0.69538194 -0.08750908 -0.2489479 -0.4112272 -0.0037118485 0.019564113 -0.4359012 -0.106280304 0.2191052 0.26751038 -0.10337705 0.60867774 -0.0572857 0.38654637 0.059733115 -0.31784034 0.17925075 -0.12639366 0.061230596 -0.26634213 -0.28283885 -0.02380484 -0.07815288 -0.12867785 -0.08688205 -0.3662092 -0.28785434 -0.09383635 0.09653082 -0.17581424 -0.058526915 -0.103103854 -0.10761315 0.29459167 0.06595021 0.09537348 -0.020239364 -0.10748258 -0.028883958 -0.053303998 0.0109811 0.17111458 0.011779083 -0.038984537 0.21860422 -0.29171976 -0.086203426 -0.3812256 -0.0015764638 -0.28189695 -0.18517837 -0.25280604 0.30527687 -0.24272026 0.24581589 -0.3491723 0.15414527 -0.27297506 -0.008844993 0.21526924 -0.0905868 -0.03654822 0.15165408 -0.053183645 -0.011724994 -0.18006249 0.12778673 0.09768299 -0.21208432 0.35276252 -0.042018082 -0.16411647 0.4529659 0.45683178 0.09851352 0.103387386 0.3021237 -0.07127967 -0.0240463 0.25137132 -0.016944304 0.10567858 0.04973961 0.4021126 0.53096163 -0.17634268 -0.016733628 -0.05178456 0.056136556 0.38088673 -0.39416653 -0.18067306 -0.035232946 0.0060711415 0.02166707 0.051502254 -0.20462163 0.012478744 0.10215127 0.42001343 -0.0834061 0.00012846757 -0.25398147 -0.25214297 0.07200847 -0.34610984 0.18170752 -0.21933089 -0.21764679 0.057326842 -0.37577266 -0.025278049 -0.23320952 -0.32154673 -0.042414453 -0.31625602 -0.1267078 0.099920996 0.1854249 -0.062745236 -0.06276119 0.14614733 -0.07893715 -0.0520471 0.12162714 -0.0476618 -0.22188438 0.04516845 0.4579326 0.116007075 0.024378823 0.116935015 -0.20044218 0.12063059 -0.011625155 -0.09314593 0.12512681 0.10322269 0.34122297 -0.21592298 -0.050577547 -0.21223699 0.049788848 0.20739502 0.34537306 0.19550899 0.015328261 -0.13223375 0.19283563 -0.3703769 0.1515422 0.26381725 -0.029763669 -0.1671195 -0.050166678 -0.30313107 0.0028883794 -0.06982802 0.12043794 -0.2257824 -0.15750638 -0.17025866 0.30307478 0.21953173 -0.25346416 -0.012380806 0.03520836 0.06657924 0.08080291 0.24112096 0.033005416 -0.027278384 -0.19384934 -0.23017496 0.17878368 0.023788722 0.019114535 0.26857844
품 -0.07159478 0.09636882 0.13202873 0.23360677 -0.032195628 -0.12397988 -0.4794775 0.0381159 0.004772909 -0.09811761 -0.020372672 0.07356769 -0.13955449 -0.31752133 0.119987026 0.056244392 -0.067705244 -0.15757973 0.36718723 -0.21644387 -0.010799863 0.08904277 -0.10464461 0.5430573 0.15764147 -0.24439125 -0.05262276 0.034393 -0.036762565 -0.30749843 -0.004584867 -0.047872555 -0.042309403 -0.16772522 -0.10117028 0.15200494 0.13557369 0.14133638 -0.11321256 0.05832415 0.18935737 -0.1795369 0.04700824 0.21122192 -0.08868742 -0.14600949 -0.19838484 0.054937784 -0.14458445 -0.12052845 -0.29945576 -0.045074653 0.10586054 -0.12737022 0.16885236 0.12647821 -0.46474224 -0.23221366 0.102086596 -0.16830829 0.07529223 0.10528984 0.1252092 0.19850318 -0.30251303 0.43355855 -0.0017641443 -0.04428686 0.13893297 0.40257323 -0.044863667 0.13592121 0.06600888 -0.15855609 -0.081150696 0.09844094 -0.19471374 -0.18897232 0.2029504 0.012891981 0.14190339 -0.16942044 0.11322132 0.040379245 -0.21825263 -0.12922585 0.03621999 0.49134573 -0.239524 0.031195646 -0.029367782 -0.24010094 -0.29774532 -0.10455161 0.05611079 0.13733421 0.4060483 -0.19644195 -0.102388375 -0.02003086 0.25373626 0.09010435 -0.152686 -0.11449001 0.025635753 0.12628584 0.21079805 -0.048170313 0.19391184 -0.1323221 0.013875815 -0.06857858 0.07002991 0.051948357 0.028504347 -0.23206967 0.0008279493 -0.049746484 -0.15050122 -0.10090071 -0.018622998 0.18927836 0.0009033452 -0.08107052 0.0936072 -0.38189095 -0.01945438 -0.12170256 -0.18324848 0.085452475 -0.21167256 -0.075857826 0.12494844 0.18919492 0.06347245 0.037496503 0.019703072 0.06537383 -0.11459522 -0.05169512 0.25012913 -0.028973911 -0.09434769 -0.12675531 0.015048371 -0.08142094 0.17588979 -0.20009214 -0.07719734 0.1712328 0.27567273 -0.20588243 0.03851028 -0.09238009 0.055026684 -0.046262853 0.008205572 0.18368451 0.16190632 -0.020055326 0.053877853 0.18453336 -0.021279052 0.007687577 0.10183677 -0.1027033 -0.17398815 0.04640335 0.0040232954 0.14819711 0.14789659 -0.07097374 -0.32393143 -0.17933819 -0.077304356 0.093328185 0.033049975 0.20856301 -0.11115483 0.014052738 0.079682924 -0.2149519 0.31514952 0.08904889 -0.09274608 0.02236097 -0.29695904 0.31897235 0.06804083 0.09464078 0.37909815 -0.13893968 0.125297 -0.07977405 -0.023593305 -0.14853464 0.2525929 -0.27825388 -0.12696002 -0.12309244 0.09710496 0.10914131 0.20202553 -0.05358412 0.035277054 0.039611634 -0.13154715 0.21211983 -0.015902957 0.34970888 -0.36203983 -0.030961758 -0.015253936 -0.09898568 0.0039242287 0.2907799 0.019270796 -0.2746681 -0.08766403 -0.2322126 0.003055152 -0.053788103 -0.0032583894 -0.1434618 -0.15885837 0.2669032 0.14923057 -0.17964607 -0.06507225 0.006944483 0.28472292 0.09852023 0.03383037 -0.4578727 -0.091077454 -0.026157578 0.095798574 -0.22727747 0.0985715 -0.2812067 -0.11466166 0.1356054 -0.2677832 0.053676993 -0.21791014 0.123772286 -0.11520176 -0.013668275 -0.089068346 -0.33320436 -0.26777458 0.10639686 0.23298392 -0.18386869 -0.2900472 -0.11098074
