770 256
' 0.06015182 0.05787124 -0.030613797 -0.07826644 0.11452073 -0.082064085 0.096509494 -0.10959775 -0.054196604 0.03093031 0.012007842 0.02948101 -0.035822317 0.0021474818 -0.008446424 -0.004967078 0.036599286 -0.0821128 0.007629219 -0.10988714 -0.0095162485 0.090532936 0.0036907056 -0.0500157 0.043943036 0.07779164 0.1279468 0.13426797 0.009765413 -0.05875157 -0.07602265 -0.027792888 -0.12528329 -0.12341136 0.06864018 0.018310852 -0.12961484 0.08349942 0.08361854 -0.003939413 -0.031870257 0.06768846 0.049785327 0.064989105 -0.0019430573 0.14657259 0.09357067 -0.015374045 0.118463196 -0.0700861 0.029978529 -0.1328735 0.052866023 -0.015113833 0.18149117 -0.033319395 -0.020370945 0.059035383 0.027381012 0.01664672 -0.07923899 -0.084050536 -0.061962828 0.016375717 -0.032958724 0.047748156 -0.03868777 0.023733543 0.13400769 0.058557328 0.034132466 -0.0023737976 0.009533348 -0.00038350542 -0.08687221 -0.114201635 -0.107036926 0.03519205 -0.11899959 -0.022808362 -0.07697748 -0.090452634 -0.104185365 0.059562437 -0.095297985 -0.16505152 -0.13016063 -0.11335124 0.11683283 0.10445033 -0.08474545 -0.03228061 0.060469266 -0.11700063 -0.046901744 -0.02690465 -0.034200624 0.025463764 -0.014076347 -0.088822246 0.22908862 0.06269448 0.03389307 0.025252577 -0.09067018 -0.088721715 0.00053911324 0.13098158 -0.035085376 -0.09590902 0.11692055 0.057848252 0.023267314 0.022031661 -0.014351713 0.018065356 0.025842719 -0.03369199 -0.100342885 0.07304872 -0.06668449 0.013980518 0.065830916 -0.0124582555 -0.10053466 0.0029323685 0.13602868 0.1089969 0.08790306 -0.07041095 0.12945664 0.00078622875 -0.066902794 0.06265336 -0.021240184 -0.12421014 0.094861306 -0.024340434 0.052786157 0.025977688 0.049972527 -0.039286863 -0.037468653 -0.19042476 0.02761462 -0.11125272 -0.055764772 -0.13375065 0.026746636 0.053563993 0.011695294 0.0025540728 -0.11435951 -0.043385234 0.035890575 -0.017355474 -0.045005176 0.090481125 -0.03038055 0.055466726 0.0024082533 -0.1662867 -0.01925038 -0.0011314634 -0.05357682 -0.058630724 -0.0678695 0.009215492 -0.10939504 0.12266049 -0.058290154 -0.005712348 0.12656692 -0.124863565 0.022827465 -0.015576562 0.14723271 -0.04734962 0.041694082 -0.113745116 -0.0001475552 -0.110929914 -0.03660033 0.021734936 -0.11472471 0.030622354 -0.06336029 -0.12490117 0.08236648 0.01012094 0.0605441 -0.010094981 -0.046609063 -0.07383515 -0.09483193 0.0025749516 0.1039324 -0.09276821 -0.025103644 0.038425587 -0.066434525 -0.12587433 0.1197464 0.03517412 -0.020852093 0.060210552 -0.096706904 -0.11870365 -0.021867713 -0.124291666 0.23589674 0.04588009 0.05424963 0.13277778 -0.0064415624 0.034830082 -0.16358325 -0.04965411 0.04722949 -0.09336973 0.047358688 0.08534723 0.03648048 -0.057888445 0.042013686 0.12084732 0.0027942818 0.026027102 -0.00084516825 0.034407843 -0.015144287 0.10685689 -0.07985841 -0.06537412 0.069287084 -0.114930525 0.0057368674 0.049874235 0.016520683 0.118889965 0.12528098 0.014897383 0.031622563 0.10496972 0.20365539 0.0783641 0.13821769 -0.17296346 -0.021739377 -0.055000313 0.017521653 -0.08011813 0.14076608 -0.060514245 -0.17220423 -0.116400465
, -0.006570915 0.05289662 0.020079456 -0.10463238 0.12929726 -0.07702324 0.08818756 -0.12864661 -0.021216614 0.028965771 -0.006969272 0.009698883 -0.0069486573 -0.088843554 -0.017359031 0.045697495 0.034550805 -0.08914314 0.018765636 -0.0775643 0.039482675 0.05845338 0.062852465 -0.13712116 0.14568824 0.08616293 0.11226816 0.14326906 0.02138469 -0.124851815 -0.057323545 0.048711322 -0.14903265 -0.15069251 0.042522322 -0.00942444 -0.12624523 0.062800065 0.019703085 0.0049211956 -0.03348317 0.13697585 -0.001053985 -0.009055275 -0.060492877 0.14115357 0.10655093 0.039705515 0.081097096 -0.0872508 0.06714241 -0.17624271 -0.0010053664 -0.011024014 0.07663449 -0.11655338 -0.02898829 0.0760342 -0.018531324 0.03719154 -0.031559035 -0.12670909 -0.06666967 0.005653099 -0.069503695 -0.009828325 -0.09643093 0.0040768273 0.14313562 0.01708664 0.10350652 0.03376099 0.02220932 -0.034485422 -0.007228259 -0.094867386 -0.1300033 -0.008711203 -0.15823337 0.01653596 -0.046404414 -0.09167567 -0.072049685 0.12852274 -0.052550428 -0.1702799 -0.16766363 -0.08449219 0.05316362 0.09591657 0.008520381 -0.042904694 0.05894703 -0.19200772 -0.05938635 0.0019776297 -0.023319611 0.03730882 -0.028804202 -0.10397697 0.1881664 0.0541381 0.025481133 0.030586183 -0.09719803 -0.06999832 0.05454522 0.07238696 0.008198402 -0.059209503 0.097693235 0.07055756 -0.024979308 0.04196792 -0.033962227 -0.050820384 0.010379963 -0.014613797 -0.06777201 0.027554426 -0.006599004 0.06282573 0.0010759623 -0.07908491 -0.10678457 -0.004521312 0.21727625 0.18793869 0.05538 -0.070830196 0.002341314 0.054028906 -0.04253902 0.042666566 0.034396056 -0.11427266 0.09324918 0.11222713 0.03934786 -0.00556951 0.0051744385 0.055422105 -0.049293455 -0.14747787 0.0036715164 -0.064929396 0.0122989435 -0.07729993 -0.04770269 0.09259019 0.0035052814 -0.0041697985 -0.021289105 -0.01803728 -0.01187973 0.05159996 0.015271419 0.09506616 -0.03431453 0.06699204 0.027470887 -0.20070888 0.006541794 -0.08195531 -0.08627749 -0.09314333 -0.08663326 -0.08941821 -0.04951075 0.14035918 0.013581332 -0.09065988 0.06014391 -0.06852602 0.07800394 0.06832931 0.16664039 -0.01642343 0.01680992 -0.05573231 -0.043272294 -0.12651792 0.026832288 0.0298223 -0.12701969 -0.034130856 -0.109590456 -0.054274503 0.088388465 -0.024265662 0.08193707 -0.033940263 0.024956554 -0.012804893 -0.1335684 -0.064347535 0.10732706 -0.09340768 0.023415638 0.08527711 -0.018899443 -0.09886661 0.11823171 -0.059709806 0.026687263 0.060964555 -0.1058059 -0.07861876 -0.052280337 -0.14065385 0.1894908 0.015288021 0.050360307 0.110671155 -0.0054566683 0.040801283 -0.13921565 -0.042419486 0.01984252 -0.026257813 0.05784704 0.028443508 0.035613555 -0.04847896 -0.062744886 0.18307815 0.017939113 0.014353577 -0.02161713 -0.022398315 0.009711875 0.09963479 -0.060304675 -0.016212326 0.03551567 -0.041186508 -0.004221326 0.019159127 0.037793916 0.080161884 0.09191346 -0.023554599 0.022913981 0.101312846 0.17751127 0.0461757 0.15512376 -0.19531868 -0.01677356 -0.020398732 -0.009580647 -0.06527745 0.09269762 -0.035875835 -0.20121606 -0.16557863
  0.09700686 0.06831613 -0.009999594 -0.0489449 0.16567951 -0.03530729 0.02864631 -0.14140324 -0.030924002 0.010797168 0.036506895 0.06560964 -0.043624513 -0.057985164 0.020416917 0.012589931 0.067718126 -0.13545123 0.013846619 -0.03883477 0.03737056 0.096609965 0.08621128 -0.04578466 0.0688857 0.09475134 0.118578814 0.18325102 0.0017157719 -0.06751198 -0.07083701 0.022775855 -0.097476564 -0.116444185 0.034298703 0.023800798 -0.18697846 0.046055716 0.059366208 0.03649312 -0.041858178 0.090551876 0.0041652094 0.055167157 -0.051823948 0.107888505 0.0967224 -0.032014787 0.05470289 -0.06689234 0.049838033 -0.18590552 0.0550868 -0.010278788 0.18983307 -0.1145681 -0.032372616 0.04201017 0.017635548 -0.017798893 -0.028026475 -0.1361982 0.020073658 -0.051207718 0.028531214 0.004333028 -0.107157804 0.0021042766 0.13091879 0.0459906 0.1106109 -0.056504987 0.073773846 0.0013077015 -0.06926501 -0.035216205 -0.11846401 -0.038244948 -0.09814207 -0.017242303 -0.08519184 -0.102414824 -0.045853283 0.11529923 -0.061002895 -0.12882197 -0.12935276 -0.110734746 0.13855875 0.07891727 -0.057173636 -0.07082587 0.03867488 -0.18652713 -0.05324828 -0.046030827 -0.02875425 0.034429472 -0.00242091 0.00053804804 0.3221426 -0.0160934 0.11065785 0.0087405 -0.09221148 -0.0461021 0.03246778 0.05647035 0.023458239 -0.027089963 0.13440438 0.074504495 0.06808999 0.056261696 -0.0045876475 -0.04494449 0.022571538 -0.033273533 -0.08455637 0.060196888 -0.023185357 0.07064881 0.003497799 -0.012944668 -0.037544258 -0.03013392 0.2303683 0.018390259 0.14399739 -0.05506071 0.080833875 0.029397635 -0.055478163 0.04233027 0.025355477 -0.10959316 0.07927038 -0.031226726 0.0820276 0.008608475 0.012433933 0.034735516 0.009417437 -0.11194814 0.031026762 -0.13340381 -0.04996068 -0.08657058 0.05383934 0.10018216 0.010100097 -0.007039223 -0.11901817 0.017989906 0.036359448 -0.008923153 -0.009748797 0.12336014 -0.028663598 0.14256777 -0.028682275 -0.16796294 -0.07620273 -0.026423546 -0.10415041 -0.004740378 -0.09940277 -0.03898856 -0.08662404 0.08237374 -0.054333255 -0.0058270437 0.048706256 -0.09975178 0.06584393 0.015857587 0.17809398 0.008519427 0.048974447 -0.09047487 -0.014043889 -0.0064653824 0.044024948 0.07383601 -0.14503533 0.008511364 -0.046380356 -0.069585904 0.041161835 -0.01576637 0.023597836 -0.014890643 0.040620778 -0.028604198 -0.120023504 -0.027059533 0.14343886 -0.15668564 -0.019512128 0.047849465 -0.022942886 -0.06801315 0.081255436 -0.028249923 -0.0077764024 0.043042045 -0.14832886 -0.08605979 -0.100100435 -0.034463227 0.1215635 0.0285829 0.04678719 0.1722646 -0.08605481 0.029913083 -0.18551295 -0.008643277 0.05731702 -0.03598596 0.01966418 0.11063415 0.04800367 -0.05538765 0.016583856 0.15787397 0.013495712 -0.023544436 -0.074596316 0.019947248 0.044154037 0.061153848 -0.07265118 -0.046030372 0.12809072 -0.06526626 -0.038589127 0.0015677473 0.05906099 0.1638228 0.14647774 -0.040628944 0.09956161 0.1234167 0.12138537 0.0054259147 0.08731674 -0.18384139 -0.043479174 -0.038914878 -0.017811231 -0.07377476 0.11060966 -0.07812944 -0.15190205 -0.13511246
니 0.1587502 0.21540232 0.16483869 -0.13718684 0.07092244 -0.17723218 0.01509023 -0.0055179624 -0.2522022 0.105990216 -0.16856872 -0.00394804 -0.027544439 0.17905562 0.20501435 -0.10200745 0.11670898 -0.016109925 -0.07091344 -0.07841338 0.061622255 0.19776031 0.10847303 -0.0062218644 0.19033735 0.26296502 0.18818617 0.30211496 -0.018239977 0.13917373 -0.14657085 0.06007385 -0.25160006 -0.19389749 0.07779673 -0.031186232 -0.14386748 0.042400625 0.11338028 0.09675429 0.12705119 0.106977426 0.11698054 0.06525823 -0.09943955 0.06804026 -0.1733485 0.11214891 0.14967597 -0.090810515 0.047861014 -0.14316198 0.14141212 -0.15683399 0.07901168 0.16553968 -0.15115254 0.11945977 -0.26378384 0.03159675 -0.16546428 -0.29474643 -0.10295123 -0.08305891 -0.16095117 0.12800221 -0.11202252 -0.08883618 -0.0025831172 0.043067303 0.088835776 -0.1168582 -0.045686506 0.13175254 -0.04187277 -0.16692437 -0.17536902 -0.08471537 0.110706665 -0.051906403 -0.064646535 0.014793954 0.082228266 0.110510185 -0.04478655 -0.020722318 -0.15779775 -0.1657399 0.09943884 0.11772973 -0.09487343 -0.14458123 0.05524272 0.04032514 -0.14318585 0.038389873 -0.08993522 -0.06057642 -0.20574544 0.0137947025 0.30896825 -0.036449406 0.06997035 -0.061979298 -0.22627398 -0.018881349 0.04712477 0.087902166 -0.009432771 0.008219633 0.034619365 0.14318313 0.035635673 0.072831795 -0.08167434 0.1090692 0.09006442 0.013644952 -0.08191951 -0.008632246 0.17133096 0.016493328 -0.09256339 0.06591166 -0.18283987 -0.049928285 0.09959621 0.149889 0.19915098 -0.19062164 0.015698856 0.0571005 -0.016601522 -0.228057 -0.09986513 -0.12608594 -0.011485113 0.3866962 0.1125897 -0.07058355 -0.08393673 -0.024517689 -0.065904446 -0.2296136 0.086269975 -0.026428176 -0.033711426 -0.13003498 0.16023627 0.22114699 0.0024515134 0.070224546 0.012179481 -0.033433594 0.1139589 0.130819 -0.09368507 -0.038322 -0.012398469 -0.0038283218 0.027352491 -0.37535217 0.04777413 -0.13869978 -0.19313417 -0.05732682 0.029509626 0.0847182 -0.1507617 0.28071883 -0.13164632 -0.058066472 0.064105585 0.17917086 0.026828812 0.020620933 0.03069389 -0.08875646 0.10907643 -0.02628538 0.1681197 -0.0377219 0.06957332 0.051553648 -0.23948003 0.038753305 -0.28460512 -0.10336686 0.05716532 0.026681202 0.20721759 0.24134505 0.098080106 0.092891835 0.011841608 -0.039669316 0.05531252 -0.12892854 -0.0025652868 -0.07275979 -0.14164323 -0.15609778 0.42666662 0.07788254 -0.05677799 -0.1339779 -0.016910704 -0.051739573 -0.062967084 -0.1299493 0.20900317 -0.073385775 0.0037101002 0.16215491 0.09637903 -0.07112136 -0.11921333 0.025933826 0.058523305 -0.046579644 0.1888633 0.3669289 0.031799354 -0.09278724 -0.05007905 0.14067742 -0.08795795 -0.014764138 -0.32665798 -0.09736087 -0.071425095 -0.060439467 -0.08864016 -0.13454312 0.12033652 -0.13825132 0.008915243 -0.05956234 -0.034261025 0.19536805 0.25669652 -0.08298497 0.13247114 -0.18746929 0.18946171 0.013829014 0.21517475 -0.15091847 -0.08579669 -0.0802735 0.094140746 -0.0734253 -0.058075372 -0.16379316 -0.10079643 -0.0724
다 0.062178545 0.18153031 0.14594454 -0.07396093 0.025307138 -0.13730377 -0.0074871387 -0.15527065 0.016027251 0.15009233 -0.0011303601 0.162977 0.012355959 -0.011854478 0.022906352 -0.07047048 0.11896264 0.017531302 0.047635246 -0.1709457 0.047479972 0.019102495 0.12972783 -0.0079133 0.25250906 0.07600303 0.006576406 0.15871522 -0.018563844 0.050822172 -0.28924495 -0.03177713 -0.15707698 0.04545153 0.0010688347 -0.108983114 -0.2566397 0.010820496 0.049169604 0.10434634 0.06770332 0.13004278 0.20684586 -0.07009676 -0.15254755 0.20760599 -0.011698842 0.0900164 0.32345933 -0.0033561594 0.08739037 -0.19510998 0.2942412 -0.09072045 0.115410626 0.24039246 -0.14954838 0.037671834 -0.0850147 -0.013070466 -0.07442864 -0.36562818 -0.18619297 0.0072573903 -0.14883916 0.027076168 -0.048909776 0.093382515 0.027563877 0.04256201 0.08364901 -0.017561259 0.036320634 0.15386447 -0.14001507 -0.17605765 -0.24049139 0.08851564 -0.06302744 -0.012115623 -0.031688 -0.1753344 0.06010223 0.07880439 -0.13745917 -0.19928275 0.12606813 -0.057654202 0.15922838 0.026655732 -0.070264034 -0.10028855 0.058114897 0.1036424 -0.15140347 0.06896316 -0.17127913 -0.040129498 -0.116948865 -0.044505928 0.2832791 0.092803836 0.16551653 -0.09025297 -0.31392834 -0.04375955 -0.16251622 0.17169069 0.022630785 -0.09609248 0.06925677 0.05547623 0.023424596 0.14988028 -0.06639112 0.1261202 0.043082118 -0.17100616 0.015995992 0.28562218 -0.0302802 0.16202591 -0.12805818 0.06332973 -0.14944023 0.07770479 0.16912584 0.08484037 0.055262256 -0.115615584 0.11501758 -0.014819163 -0.043536544 -0.20991325 0.050669063 -0.102015205 0.19964112 0.13784775 0.07157436 -0.092987314 0.21763119 0.19801702 -0.0066738077 -0.27109715 0.017099768 -0.20292532 0.068270564 0.1094026 0.081087045 0.068081714 0.022282867 -0.13815464 0.07246214 -0.22317326 0.087915085 0.1782736 -0.12612867 -0.123465225 -0.10005023 0.08819959 -0.088964716 -0.29537898 0.03367995 -0.20997342 -0.11770888 -0.0709083 -0.13663009 0.020365568 -0.096853405 0.23346005 -0.24981159 -0.13934381 0.18256363 0.052638493 0.07811624 0.12444614 0.07809285 -0.1909066 -0.27110597 -0.078020096 -0.0038442258 -0.12041437 -0.035393007 0.06020949 -0.1910713 -0.07874669 -0.044535834 -0.08753194 0.16719721 -0.08262396 0.116875105 0.065401606 0.17521025 -0.051879738 -0.011821437 -0.09138542 0.027005225 -0.048744313 -0.07139317 -0.22101168 -0.15339755 -0.116808064 0.35460353 0.026878724 -0.046800435 -0.14803101 -0.18884 -0.12962961 -0.08319089 0.038456462 0.06944128 0.09752933 0.15391229 0.1848647 0.035677496 -0.1150162 -0.17025796 -0.091988266 0.055296596 -0.1623146 0.18291776 0.34206688 0.07989071 -0.174375 0.090139 0.18502037 0.0713043 -0.10045525 -0.025235372 -0.059724264 -0.09624105 -0.07347558 -0.049599953 -0.097548835 0.037360493 -0.18913633 0.1211585 0.13069117 -0.024704184 -0.08728676 0.18349859 -0.049061947 0.16202998 -0.07271124 0.18198828 0.004211577 0.15338613 0.0004684028 -0.054932386 0.023077194 0.062201474 -0.1540203 -0.08369571 -0.066217855 -0.052368775 -0.11418072
네 0.105755545 0.12502977 -0.10938422 -0.02135369 -0.112067334 0.023252733 0.031072132 -0.2147233 -0.029479817 0.21632817 0.068484224 -0.1071878 -0.17452544 0.011731123 0.08588383 -0.14058146 -0.08643901 -0.059576742 -0.052348886 -0.08707374 0.045580436 0.29163846 0.31078252 0.07318662 0.2902466 0.15497479 0.058558863 0.20944887 0.042342883 0.19508363 -0.0127537185 0.15321364 -0.19446968 -0.1468781 0.25401363 0.07049933 -0.22968848 -0.0070890016 -0.15392652 -0.021474225 0.08433501 0.16039962 0.01033396 -0.009866767 -0.2150505 0.2442762 -0.064134344 -0.05002304 0.068069376 -0.016831042 -0.05064829 -0.20831858 0.029908657 -0.23617043 0.28502464 0.14949574 -0.2340883 -0.062148754 -0.21545908 0.093923055 -0.14868039 -0.27769077 -0.31316167 0.03115426 -0.18256581 -0.11750469 -0.113494605 -0.072304964 0.077489294 0.16340706 -0.09205254 -0.03852715 -0.13984683 -0.123782106 0.23090157 -0.14577585 -0.24857827 0.0130455885 0.0047823326 -0.026676407 -0.05149253 -0.082937196 0.1160314 0.051088184 -0.076060236 -0.16035865 0.05176743 -0.090900175 -0.022263775 0.15738493 -0.06841884 -0.033066437 -0.07984276 0.060973383 0.02587579 0.18029492 -0.060077805 -0.1621769 -0.10669178 -0.08022394 0.30476558 -0.03622706 0.1086958 0.04324817 -0.071209684 0.04491443 -0.11956858 0.16502547 0.09333228 0.0074186204 -0.16045849 0.03615821 0.030524975 0.17107216 -0.06405776 0.0998371 0.0939347 -0.11176602 -0.03689445 0.09643571 0.12655623 0.1193355 -0.101646215 0.13190162 -0.04475142 0.14612947 0.18977708 0.2632713 0.17041792 -0.20611013 -0.0040016794 -0.14762898 -0.0983377 -0.17183982 -0.10736528 -0.025346467 0.14163756 0.18618336 -0.10677749 0.08555612 0.049765196 -0.1512328 -0.048515853 -0.14986858 0.030587109 -0.08737329 -0.058338806 -0.021890193 0.10557788 -0.034265283 0.07833473 -0.012269495 -0.0055447402 0.1108909 0.007725861 0.035052396 -0.1092297 0.039627288 -0.11980627 0.023041531 -0.14454153 0.003059759 0.07098159 0.015979726 -0.0014049083 0.031980738 -0.033135068 0.2254766 -0.19950141 0.20025142 -0.17352365 0.09589204 0.076517686 -0.026323956 0.088696726 0.07464721 0.05362295 -0.07926792 -0.04001146 0.0029715933 -0.051245052 -0.124249525 -0.0716663 0.11362204 -0.24063389 0.20845899 -0.19727606 -0.12905896 0.032005064 0.117224 0.16144592 0.044809118 -0.13589348 0.075338885 0.13156791 -0.047470786 0.19801094 -0.22957751 0.02600762 0.10766077 -0.24145213 -0.08363988 0.3735862 0.14441933 -0.2661179 -0.15063347 -0.12284584 -0.07695997 -0.23467399 -0.046304077 0.057544537 -0.17031111 -0.04368558 0.10556347 0.095062636 -0.024940737 -0.009086581 -0.008319956 0.061298538 0.02890904 0.10428957 0.2265312 -0.2043338 0.044325504 -0.004306936 0.037204783 0.1378351 -0.08731901 -0.06157338 0.033517875 0.08222847 0.089637496 0.01628384 0.034195673 0.01528774 -0.17463222 0.05636946 0.063583806 -0.1004721 0.117831156 0.06884679 -0.012499507 0.03615667 -0.22445 0.2613287 -0.14551 0.14802031 -0.033656448 -0.14954132 0.0710109 -0.004874784 -0.2059513 -0.05498657 0.022626216 -0.11293185 -0.11684514
드 0.26152414 -0.09534849 -0.0028860671 -0.1309573 0.1847794 -0.042337872 0.22103417 0.19686279 -0.048156295 0.11351875 0.028467968 0.016115991 -0.009390998 0.026274586 -0.03974139 -0.15495314 0.2898757 -0.07941398 -0.049385436 -0.104266316 -0.13020356 0.06550024 0.18501452 -0.022416588 0.08653095 -0.21238767 0.20352793 0.35112944 -0.086046904 -0.061069667 -0.14656182 0.17099014 -0.058651738 -0.00990603 -0.05674765 -0.12329823 0.030416016 -0.031019945 -0.07274834 0.23801914 -0.1392461 0.3776736 -0.039325014 0.22775503 -0.2697233 -0.042426653 0.098988414 -0.0025690258 0.3268171 -0.009734373 -0.20502445 -0.17650883 0.18742204 -0.057458505 0.13760218 0.09179968 0.06355715 -0.026328718 0.06330364 -0.24233863 -0.4021504 -0.23291582 -0.09749294 0.1494554 -0.24610695 0.08011249 0.042582296 0.14170034 0.17900257 -0.12152953 0.09863882 -0.06892348 0.03387397 -0.098208874 -0.060832743 -0.061102223 0.0056099165 0.076169595 0.14617388 0.25624567 0.1310112 -0.14750335 -0.08532251 0.11209875 -0.025522083 -0.044713035 -0.16724735 -0.44139597 0.09757022 0.20649934 -0.11009536 -0.07339089 0.314551 -0.1011072 -0.10484636 0.1565594 -0.22970873 0.10694229 -0.11340675 -0.1083043 0.20777658 -0.14236158 -0.035419874 -0.10811181 -0.17101891 0.006420464 0.085587956 -0.04212979 -0.05549582 -0.13746439 0.11052372 -0.2336251 -0.062955044 0.039504122 -0.0070809852 0.015645785 -0.09872765 0.073609255 -0.15182213 0.020689128 0.12865777 0.021000719 0.0051463824 0.100961134 -0.1677796 -0.02915707 0.14999677 0.14290524 -0.06434655 -0.13391039 0.052375507 -0.11237561 -0.1369945 -0.1164826 -0.35027763 -0.10803963 0.13134636 0.036403134 0.057780232 -0.017253323 0.14622577 0.0356325 0.09080622 -0.15909421 0.11564001 -0.08582662 0.0077845016 0.13483301 -0.07292011 0.03945014 0.019183371 0.061464 -0.25830415 0.35520414 0.019297505 0.13636084 -0.16186242 0.11503068 0.013299549 0.035874203 -0.104671575 -0.31091243 -0.1399283 0.12222641 -0.20137538 -0.21430829 0.041026887 0.081651546 -0.09641526 0.1287962 -0.39072603 -0.052300822 0.17021626 0.10449897 -0.10532589 -0.10522721 0.17639746 -0.058706667 -0.13063991 0.0064779604 0.09149061 -0.18143159 -0.022876829 0.12353732 -0.3210957 0.1379916 -0.1035667 -0.055493105 0.12346913 0.15333948 0.2649042 -0.099774815 -0.25474128 0.016727751 0.1668749 0.028130593 0.13134605 -0.1416295 0.05504974 0.15107122 -0.14008304 -0.11923494 0.20988785 0.056373365 -0.04470188 0.0780032 -0.24808165 -0.2263849 0.008461874 0.023069417 0.260255 -0.26414722 -0.05623267 0.12080675 0.19679406 0.026979603 -0.17073084 -0.008304852 0.17609808 0.009234754 -0.14635535 0.1542001 0.07721597 -0.07662773 -0.20193093 0.35884634 0.13608955 -0.27471662 0.07206022 0.1355813 -0.23652083 0.20048432 -0.33920175 -0.24619599 -0.24694666 -0.15137969 -0.15786234 0.0539837 -0.062231284 0.14851622 -0.056908216 -0.11550331 0.3762948 -0.13887122 -0.084718406 0.07538045 0.2692912 -0.15729739 0.09293234 0.062619165 -0.11746293 -0.05870152 0.22258238 0.047241107 -0.24050038 -0.16289093
요 0.2333692 0.1162464 -0.1391339 -0.0009974022 -0.09481013 -0.026175518 0.30925956 -0.051739227 -0.017839912 0.05160157 0.114587866 -0.10922029 -0.2907728 0.17029238 -0.01544746 0.08265852 -0.034909658 -0.16788766 -0.133519 -0.058177903 0.124352515 0.16365722 0.26569316 0.09600014 0.15687816 0.1958651 0.09241318 0.011524743 0.034283392 -0.16131042 -0.10951097 0.12875141 0.0076550804 -0.08529692 0.11433719 -0.13635035 -0.24055511 0.04402329 -0.01801707 0.0047232034 0.16165087 0.13004415 -0.018482622 0.14237282 -0.090021335 0.3130673 0.13429257 0.15879902 -0.07136634 -0.10462771 0.060324404 -0.058248322 -0.04618233 -0.18539773 0.19324824 0.09838349 -0.12577617 -0.082588226 -0.022008004 -0.07044166 -0.045278106 -0.02351689 0.05821657 0.09034632 0.002845448 -0.036575902 -0.032801326 0.10395802 0.10425603 0.24821484 -0.21551023 -0.073436804 -0.05808949 -0.36082622 0.047590565 -0.12537003 -0.0392731 0.1821704 -0.07683902 -0.14883634 -0.11710374 -0.117355056 -0.1169485 0.33681133 -0.083857745 -0.22832526 -0.07105688 -0.068254806 0.13826104 0.026773859 0.014658223 0.03932066 -0.12703928 -0.045317102 0.06668873 0.062423877 -0.012338805 -0.00800257 -0.0002501867 -0.12781447 0.22051424 0.0741778 0.22901124 -0.0122541 -0.18265127 -0.078013085 -0.03419927 0.18663311 -0.003101243 0.09576681 -0.07062625 -0.015002706 0.05894292 0.055814255 0.015506819 -0.055472236 -0.08210299 0.23842162 -0.22826879 -0.06029975 -0.08375982 0.08633494 0.04880303 0.16547951 0.09705722 -0.02468253 0.08450247 0.28653032 0.054238953 -0.052517004 0.087244146 0.015650323 -0.012006197 0.22720568 0.042314865 -0.22633071 0.093110576 -0.1376826 -0.069909275 -0.12977749 -0.05852541 0.21325554 -0.0327621 -0.22459619 0.0014153117 -0.12310096 0.004739694 -0.21105348 0.088829845 0.06993874 0.07222855 0.13473406 -0.028230002 0.06836127 -0.03046506 0.019325934 -0.17561415 0.020317005 -0.087315165 0.09027619 -0.11880204 0.14747293 0.015942547 -0.0688017 -0.036825195 -0.0080804415 -0.02804752 -0.023461446 -0.13492292 0.1733735 -0.029554514 0.19073373 0.019659674 -0.23361541 0.12393599 0.017842297 -0.1117205 -0.072697125 0.079265356 -0.043746628 0.04414344 -0.013886275 0.024409361 0.10948667 -0.11388583 0.045610406 -0.07957753 -0.048770245 0.08838891 -0.011851536 0.07130822 0.13623708 0.25948885 -0.11749608 -0.13363498 -0.33187038 -0.005286173 -0.13617383 0.0023433212 0.029340217 -0.15364897 -0.08480032 -0.014031082 -0.06645177 -0.012251113 -0.07114891 -0.105538465 -0.11845113 -0.27586532 0.013632014 0.21094127 -0.09343217 -0.03351713 0.07135936 -0.28196877 -0.004893493 0.020966532 -0.076977976 0.06595637 -0.21002862 0.08853578 -0.010768141 -0.13740668 -0.051715937 0.029010605 0.021561308 0.15240586 -0.12623417 -0.05421077 -0.104096584 0.21610785 0.09931276 0.12966193 -0.086670585 -0.049119897 -0.15131696 0.046893016 -0.0030836344 -0.093329914 -0.033709295 -0.063877515 -0.09780629 0.12933552 -0.13314089 0.21890229 -0.08844194 0.061106183 -0.0824427 0.14890598 -0.057555683 -0.004714303 -0.19253983 -0.19109315 -0.10494186 -0.112532206 -0.024430234
습 0.1630601 0.1016371 -0.07375776 0.15459628 -0.032144174 -0.18393987 -0.0056388886 0.00038416492 -0.103444815 0.25362924 -0.21332878 0.010187828 -0.15294982 0.07151501 0.11025651 -0.18574513 0.05534909 0.012013199 -0.0422557 -0.008562047 0.14291431 0.018111756 0.14933962 0.2708815 0.124016464 0.15602015 -0.10219093 0.29078597 0.050780673 -0.09170108 -0.37275225 -0.14069551 -0.056540634 -0.25443116 0.019480934 -0.17593113 -0.24833396 0.22384511 -0.07217173 -0.18745285 0.16594376 0.056235164 0.23107803 0.22548327 -0.21068026 0.15295531 0.023494652 -0.016068717 0.18710893 -0.4499758 0.078434505 -0.3882082 0.20075917 -0.2648032 -0.05972674 0.10307724 -0.10956402 0.070633434 -0.21618132 0.003684085 -0.26671132 -0.34903827 -0.09536585 -0.22785982 -0.14067098 0.10724439 -0.035530273 -0.017603833 -0.14433068 0.022811262 0.14726385 -0.18773443 -0.13818352 0.0055369567 -0.10969525 -0.23400092 -0.18444544 0.13010357 -0.11615161 0.15898071 0.19335908 -0.08094512 -0.04415818 0.19365568 -0.10569778 -0.16759084 -0.15616745 -0.2626813 0.03148337 0.107149765 -0.16269223 -0.113654464 0.17530324 0.14509788 -0.13624509 -0.02065275 -0.12682216 -0.13616222 -0.20470114 -0.19220431 0.32779372 -0.16857179 0.26461038 0.14534955 -0.38459787 0.062719114 0.06457229 0.24438441 0.15798223 -0.05096475 0.050556805 0.017215956 -0.07209484 0.09254687 0.108686544 -0.05915767 -0.12313101 -0.0750596 -0.1441433 0.05720094 0.049761508 -0.12807131 -0.020328775 0.058044773 -0.15959626 -0.043379936 0.12474933 0.13985051 0.12225018 0.009929819 0.0832691 -0.049910333 0.0067915157 -0.04468819 -0.15591149 -0.044699393 0.05677886 0.28621593 0.09290072 0.12631221 0.15154578 0.023685303 -0.08639201 -0.23022361 0.11360726 -0.062312823 0.12768778 0.08861001 0.02381841 0.0024133197 -0.027038865 0.016629267 -0.09733782 -0.0037085325 -0.035374977 0.30382964 -0.03774336 -0.2090957 -0.030815162 0.077988416 -0.0059537054 -0.06972794 0.114610955 -0.06575684 0.042133104 -0.0039404584 0.037019216 0.015560315 -0.33926544 0.033388287 -0.18600266 -0.15958978 -0.061863914 -0.14154497 0.0064418996 0.03268351 -0.11924898 -0.042158827 0.07556547 0.011496072 0.12653422 -0.2587834 0.02476875 -0.010464373 -0.19552678 -0.03946001 0.04333152 -0.22557881 0.14717121 -0.08606949 0.34095946 0.20066947 -0.19412354 -0.0005789737 0.14951943 -0.29249159 0.23911215 -0.3107786 -0.0936829 -0.09948546 -0.07265176 -0.3076958 0.28870282 0.17007579 0.118169576 -0.107141994 0.12685162 -0.11881082 -0.20757906 0.14766832 0.077049226 -0.015978295 0.07584673 0.09466198 0.05389591 0.027915617 -0.17195371 -0.10147314 0.057709754 0.2554927 0.1307901 0.23872295 0.1312331 -0.0009255617 -0.10378073 0.16453494 0.11869109 -0.07796938 -0.082874276 -0.053391848 0.04420162 -0.021889322 -0.10064635 -0.036381785 -0.058415316 0.15599503 0.4105664 0.034802396 -0.12567466 0.110680886 0.30395502 0.08490773 0.027549261 -0.36937478 0.27842695 0.019165838 0.1946483 0.08088933 0.15472916 -0.14444424 0.0127905 -0.1164289 -0.020660114 0.030873016 0.041030105 -0.2088222
고 0.09960417 -0.13881119 0.13944483 0.05084691 0.076629326 -0.24001573 0.12485205 -0.09744134 -0.18413197 0.0056208917 -0.09667102 0.0133614745 0.07893931 -0.025583304 0.0140421605 0.124070354 0.115536116 -0.065631725 0.061044477 -0.31690085 0.0438454 -0.023831403 0.19178529 -0.07468822 -0.020041186 0.068942904 0.14054438 -0.020323446 0.14020614 -0.050375085 -0.06982558 0.14538077 -0.117899925 -0.16894653 0.066104785 0.01154717 -0.13952468 -0.029267635 -0.053644992 0.013413269 0.09268801 0.13829066 0.039920647 -0.04001638 -0.09490229 0.12095304 0.16349539 -0.043286435 0.04959464 -0.12451842 0.14432962 -0.039170966 0.04902201 -0.08152874 0.061810896 0.12563322 0.005417034 0.033176262 -0.010992504 -0.08917191 0.018954843 -0.058449335 0.11855566 0.06266026 -0.04432591 0.0779999 -0.010192183 0.10521242 0.14006871 0.024243794 -0.04457426 -0.19439097 -0.116781294 0.043484908 -0.12813562 -0.046153236 -0.08579085 0.20220886 -0.17563291 0.07663493 -0.1084308 -0.026009837 -0.026637468 0.17334336 0.033886865 -0.023123741 0.08126785 -0.2806598 0.1082532 0.12755375 0.022924624 -0.18743493 0.12797904 0.09379381 -0.022796499 0.07236619 -0.021034172 0.30969894 -0.093009725 0.025279362 0.22102861 0.053466473 0.030576115 0.04215909 -0.034386426 -0.04597652 -0.35914814 0.26878682 0.0003027574 -0.16916104 0.2670858 0.049108505 0.079035655 -0.10551225 -0.036636334 -0.20285025 0.0949037 0.1400581 0.09643038 0.07179096 0.12008769 0.06832336 -0.029658549 0.09341516 -0.09330207 -0.0968793 0.21853812 0.21475752 0.16700432 -0.19080414 -0.066481605 -0.09690471 -0.00333281 -0.26000667 -0.12232271 -0.070847295 0.10654678 0.029970199 0.032646943 0.07571157 0.012431941 -0.15174432 -0.12717223 -0.21068214 0.1762875 0.14911798 0.06578092 -0.015929198 0.14533365 0.16478989 0.15877531 -0.04404308 -0.1700016 0.298863 0.054979786 0.24431393 -0.024412185 -0.012743857 0.019728743 0.028885731 -0.08569838 -0.037396446 0.06680476 0.013171307 -0.17292666 0.0021653355 0.03768943 0.07754951 -0.068417914 -0.14953211 -0.019093342 -0.013061097 0.07495348 -0.08649799 0.14710097 -0.08562007 0.26113966 -0.1696527 0.052717377 0.03225926 -0.10055539 -0.110017076 0.074092895 0.19056632 -0.0032459078 0.18682958 -0.07112459 -0.13168372 0.04940348 0.010792471 0.0406953 -0.066548765 0.15363556 -0.056949735 0.12600884 0.007122777 0.17817794 -0.18489051 0.16855371 -0.04783126 -0.18872716 -0.042909686 0.25479728 -0.049227618 0.04097786 0.09073875 -0.14097857 0.10605926 0.027114002 -0.0500567 0.08960505 -0.104121685 0.030372832 0.11138362 0.036516123 -0.0011244302 -0.17813303 -0.11349096 -0.17705671 0.11071505 0.25968462 0.14768127 0.111199014 -0.19048281 -0.031135507 0.07598112 -0.041501466 0.041553907 0.090914324 -0.112195075 0.012301696 -0.039775852 -0.12453152 -0.09744713 0.0029363693 -0.18848184 0.23803043 0.083947435 0.2881388 0.20217973 0.1874291 -0.039453 0.1587441 -0.10119967 0.19564949 0.2200101 -0.10017927 -0.03671919 -0.15026668 0.0045727994 -0.14872998 0.009358059 0.020874502 -0.06223849 -0.18538123 -0.10095988
주 -0.09292773 0.077690795 0.107648894 0.069587655 0.037539154 -0.1895236 0.25070506 -0.016280508 0.021107275 -0.023542631 -0.10189925 -0.11526385 -0.19405852 0.110322565 -0.08294512 -0.19408843 -0.22378954 -0.18537985 0.23774397 -0.115110315 -0.057842225 0.10372212 0.1265 0.053831488 0.2972291 0.15084691 -0.12254331 0.18852505 0.10756949 -0.1656065 -0.16609523 -0.043637794 0.014446266 -0.22503813 0.042299654 0.09916276 -0.17753501 -0.025870124 0.028594857 0.28231788 -0.256619 0.30021164 0.18147364 0.019079812 0.046149045 0.31795615 0.0912853 -0.15579389 0.1620524 -0.104164325 -0.080051064 -0.0712803 -0.040096316 -0.012537499 0.31103215 0.2579934 0.056581803 0.13969237 0.027305635 0.04796418 -0.19235973 -0.11811157 -0.0689023 -0.07951754 0.09624995 0.045787334 -0.03912773 0.027170716 0.13605307 -0.053283855 0.048744887 0.022488607 0.046091735 -0.03883923 0.16209777 -0.0770706 -0.41586676 -0.14946671 -0.11943687 0.120979644 0.08714615 -0.056227874 -0.062846445 0.04329894 -0.1696632 -0.2943831 0.124182574 -0.3051314 -0.23794676 0.002077936 -0.16438779 0.03223797 0.14077073 -0.0048491647 -0.20397116 0.2425314 -0.399776 0.20626056 -0.1562025 -0.12822157 0.39120698 -0.07367829 0.1046937 -0.012770254 -0.07066273 -0.22554122 -0.044773884 -0.08704963 -0.0023433967 -0.00075606117 0.0076391464 -0.07482514 0.08479255 -0.018496156 -0.05755465 -0.19849914 -0.07799455 -0.24531673 -0.07973505 0.14442556 0.14138843 0.23567043 -0.15607435 -0.09352453 -0.25568244 -0.09147796 0.15052664 0.12726277 0.077040724 -0.11699994 0.14931902 -0.028542584 -0.1704455 -0.12173408 -0.032401998 0.10478842 -0.053344242 0.06622692 0.12510058 -0.114177585 0.09420457 0.12471533 -0.15350208 -0.13402827 0.084561706 -0.05542244 0.024812322 -0.18379314 0.081888825 0.08440731 0.18615687 -0.24589069 -0.061374594 0.11448365 -0.1765059 -0.15656604 -0.012140139 0.13954957 0.124958664 0.08185274 -0.13521658 0.07140852 0.07385142 -0.12132066 -0.06154346 -0.14442235 -0.18301134 0.063337706 -0.22235635 -0.032655336 -0.0351706 0.019933576 -0.010127863 -0.20051128 -0.042999845 -0.15037374 -0.06706839 0.24810022 0.10398192 -0.08192619 -0.07865995 -0.2937174 0.122200504 0.07532326 -0.15985687 0.14401506 0.004616807 -0.18426573 -0.14269845 0.007491205 -0.009635108 0.061672825 -0.14497519 0.16502038 -0.028824527 -0.06522509 0.10164104 -0.062398624 -0.16615391 0.20705213 -0.20933145 -0.19005147 0.26930994 -0.14548737 -0.0020837688 -0.028802503 0.028297188 0.12454176 0.015440314 -0.09063379 0.069221474 -0.14955653 0.036272794 0.060869135 -0.03815325 -0.08230532 -0.145684 -0.11446345 0.1444998 -0.12080672 0.030964296 0.06424894 -0.05271586 0.032539543 -0.041108623 0.058064375 0.069381826 0.028904866 -0.106997386 -0.23006774 0.09499017 -0.18407257 -0.043374404 0.060228832 0.035951156 -0.15355897 0.078775615 0.017393295 -0.08061679 0.15093869 -0.050545424 -0.13878545 0.062105406 0.1378847 -0.0462954 -0.094943605 0.2357755 -0.08543521 0.16187993 -0.069661625 0.09717047 -0.042883676 -0.058314133 -0.13907622 0.068882845 -0.039716125
하 0.031124976 -0.010038173 -0.121060774 -0.12170304 0.09397502 -0.10613249 0.14599054 -0.25219724 -0.056277927 -0.1604848 -0.021324398 -0.31743598 -0.111692116 -0.07251805 0.22574684 0.022927053 0.12596837 -0.06595775 0.045365866 -0.12056262 -0.050137814 -0.04614048 0.089319445 -0.08786672 -0.022827057 0.03697999 -0.13612337 0.068875276 0.049559392 0.055643525 0.002328855 0.099398516 0.1670977 -0.15535562 -0.042381126 -0.1099621 -0.024836892 0.044044565 -0.008046758 0.0958057 -0.095302485 0.06474332 -0.09441327 0.18888481 -0.05943194 0.033573538 0.11009661 -0.06522269 0.0060319477 -0.10193733 0.075928725 -0.02384004 -0.043454338 -0.1589092 0.3724551 -0.041159503 -0.09885606 -0.13388357 0.04782533 0.21996473 -0.015668511 0.06662138 0.057554964 -0.015521634 -0.119707376 0.013459046 -0.04797786 -0.09437015 0.102406226 -0.11035404 0.09097158 -0.06631881 0.11190601 -0.0077109016 -0.22217235 0.04850466 -0.1085708 -0.37620464 -0.12651087 0.020259853 -0.05121691 -0.020449242 0.05258686 0.23341557 -0.10384804 -0.18905486 0.23408797 -0.078664504 0.01716694 -0.04918499 -0.0060726176 -0.0053070257 0.20801269 -0.18090966 -0.22084354 0.104255006 -0.26459637 -0.06280194 -0.067878194 -0.02583355 0.080952056 -0.10034366 0.13504611 0.020059075 -0.4267346 -0.3195799 -0.13244142 -0.06303491 -0.03650151 -0.14805347 0.17210236 0.090476766 0.025263635 0.06205019 0.06220286 -0.06791611 -0.10875625 -0.01089724 -0.11743255 -0.11860878 -0.013413302 0.18000966 0.0069824494 -0.22887537 -0.10823773 -0.00079611904 0.05931903 0.15213376 0.07356739 -0.15125217 0.13860407 0.22665757 -0.22305474 0.0717893 -0.018111708 0.012576042 0.10224987 0.11836786 -0.01985185 0.082727216 0.034167778 0.032103423 -0.03248283 0.08530813 0.15227494 -0.2339559 -0.18448202 -0.024875917 -0.017829321 0.08794837 -0.14108908 0.11260925 -0.117199235 -0.0027228326 -0.2037644 0.09651383 -0.14995518 -0.03698256 0.0608861 0.15940699 -0.13995859 -0.048183557 0.051607266 -0.030968579 -0.10104201 -0.2160205 -0.100739 0.06852976 0.09731493 0.18382142 -0.013814745 -0.11810862 0.018134307 -0.08596458 -0.14915603 -0.002188785 0.1350668 -0.16164413 0.20225638 0.16367759 -0.075678445 0.034515552 0.1314338 -0.022101942 0.0046932353 0.048592974 -0.091144584 0.008798201 -0.0666675 -0.03609449 -0.017233377 -0.15660508 -0.16062239 0.29258922 0.06291745 -0.02383866 0.17071413 -0.010953038 -0.021021143 -0.05139604 0.049094006 -0.41304505 0.31880867 0.15923123 -0.089345165 0.21660861 -0.027657129 -0.14136134 -0.039449524 -0.05227288 0.030334424 -0.0011515454 0.09648799 0.25835794 0.1284352 -0.030106684 -0.13705404 -0.014727281 -0.0625178 0.010363342 -0.1397829 0.28943017 -0.08944999 0.08964512 0.014168112 0.04109663 -0.21026269 -0.11188371 -0.22388503 -0.2031322 0.22384878 0.21027125 0.077359006 -0.0016630499 -0.042629752 -0.0363808 -0.10581091 0.10752035 -0.06956106 0.05098707 0.03583932 0.13928366 -0.2490258 0.16402406 0.32266042 0.11604692 0.12203442 -0.076858275 -0.11998174 0.0782969 0.07804993 -0.09976662 0.021909233 -0.27963915 -0.15538993 0.16861202
이 -0.26540762 -0.054301076 0.21562093 0.013605949 0.10421508 -0.08373974 -0.018579321 -0.21168867 0.032609023 0.03608926 0.008830066 0.092238314 -0.042702496 -0.068610996 -0.1819809 -0.12623689 0.08733305 -0.13561855 0.009101492 -0.16023798 0.17615779 0.2609037 0.38281554 -0.20095475 0.1593885 0.030926445 0.16070198 0.20838225 0.13213426 -0.16759725 -0.16506067 -0.021154286 -0.27455935 -0.1610793 0.12808274 0.12894808 0.03665733 0.040277712 -0.037265565 -0.17384943 0.033629134 0.097016014 -0.06734223 0.17248961 0.16099425 0.11371613 0.0784477 0.00048633467 0.07934507 -0.047422003 0.10767672 -0.015055721 0.06403044 -0.09338121 0.07728748 -0.11750931 -0.098464236 0.101812884 -0.029775431 0.086928986 -0.051825117 -0.06570914 -0.08067671 -0.050959554 -0.31700143 0.11826997 0.10682248 -0.19585529 0.014984296 0.13257433 0.05870186 0.060337678 0.05724969 0.064469695 0.11119034 -0.053347 -0.19869162 -0.29529136 -0.13042517 -0.018267669 -0.2103255 -0.15986645 -0.04857466 0.1533715 -0.10304086 0.093132466 0.008326702 -0.06925305 0.16757335 0.085959494 -0.27094835 0.13181643 -0.008430408 -0.3066162 -0.118635684 -0.041536205 0.024806475 0.15992896 0.031194594 0.0060976073 0.13005081 -0.16109295 0.1476248 -0.018619612 -0.003414792 -0.15186255 0.12072144 0.2336575 -0.07411672 0.13105015 0.19126897 0.12100973 0.10796103 0.08412106 -0.1065008 -0.21351199 0.0950209 -0.1324667 0.045452952 0.12520027 0.009136921 0.015633538 0.14505297 0.046151485 -0.12345907 -0.03380755 0.17309982 0.06636472 0.052857663 -0.2633565 0.32403597 -0.033061836 0.092245325 0.19033292 0.14175513 0.07343399 0.12581857 -0.10047575 0.086740784 0.12528372 -0.02288715 -0.08261167 0.18730605 -0.17528239 0.022611037 -0.09195204 0.009814187 -0.23489916 0.0998141 0.12541366 0.16045552 -0.1337612 0.053948663 -0.101913564 -0.08238004 -0.0024803411 -0.05240165 0.2059576 0.16595899 -0.10231659 -0.21592632 -0.085985765 -0.061948072 0.19597414 0.15890455 -0.12655681 -0.054483213 -0.12052653 -0.01959819 0.33036527 -0.0067164176 -0.08863375 0.042193245 -0.056370083 -0.10107722 0.012620705 0.30975482 0.18361804 0.02359553 -0.21602242 0.053853225 -0.041550804 -0.076141514 0.047804814 -0.11085195 -0.08345154 -0.2381024 -0.13541283 0.096291386 0.008104524 0.06001623 0.11095376 -0.021388443 -0.07399695 -0.17058885 -0.026573163 -0.008980639 -0.17368357 -0.03873335 -0.13953087 0.18944654 -0.10874814 0.22508322 0.017887788 -0.07587382 -0.0023722826 0.14333382 -0.099144846 0.055055488 0.07625799 0.07867735 0.0638161 0.032651342 0.000517073 -0.10338768 0.29002318 -0.12486817 0.11390581 0.12757766 0.02014642 0.033127457 0.076728486 -0.14369665 0.11997176 0.16758738 0.121526375 -0.14536737 -0.21088542 0.13848568 -0.004377033 -0.020647226 -0.23448277 0.07110603 -0.1250583 -0.02394035 -0.07235066 0.110295966 -0.09293411 0.16221294 -0.011919445 0.09836781 0.104945324 -0.041724045 -0.09170762 -0.0210646 -0.095626585 0.15756853 -0.23537862 -0.13523635 -0.022451494 -0.0909193 -0.07098485 -0.32606193 -0.14647076 -0.1842448 0.03196897
해 0.20381121 0.123950586 -0.15941201 -0.24071835 0.16771619 -0.15786777 0.35794884 -0.019681163 -0.12207946 0.06367928 -0.0035078125 0.13969587 -0.048397336 -0.13482004 0.054590527 -0.024344215 0.07204902 -0.064014606 -0.10153938 -0.09592183 0.015009375 0.06457937 -0.01030498 -0.17958984 0.20155095 0.19966592 0.17552355 0.21729702 -0.065105096 -0.1179616 -0.25184196 0.16046393 0.098447405 0.00937016 -0.030544942 0.01259837 -0.22544175 -0.05723816 -0.073716976 0.06072646 0.14870527 -0.013160256 0.013590773 -0.14450717 -0.022307888 -0.19375841 -0.019050177 0.0029949292 -0.009286137 -0.06264464 0.025829382 -0.16356295 0.24963817 0.15238427 0.13105062 0.095567174 -0.06759843 0.105420426 0.22653499 -0.008812942 -0.12527354 -0.1355705 -0.18171042 0.15609892 -0.12528509 0.1979226 -0.085431114 -0.09087242 0.20397379 0.18577299 -0.0046092826 0.015429971 -0.027068205 -0.06193406 -0.11177926 -0.12689689 -0.12560858 -0.20850453 -0.078193486 0.15826625 0.2416388 -0.203984 0.022285536 0.17912552 -0.1309261 -0.35918143 -0.020232623 -0.2713739 -0.08991281 0.10404714 -0.2030915 -0.2489317 -0.05904625 -0.21878102 0.04717972 0.22181885 -0.11553187 -0.04535554 -0.07601142 0.025564024 0.23805979 -0.08603306 -0.025827691 0.097064435 -0.020708948 -0.049376965 -0.19394468 0.08750842 -0.09265794 -0.118657164 0.058420226 0.062300574 0.15213369 0.009664226 0.043186303 0.1787305 -0.265998 0.13482362 -0.042528175 -0.03593318 0.039700985 0.15501583 0.0005898448 -0.26361758 0.10445509 0.0054640397 0.13051613 0.047798622 -0.01722262 -0.17624429 0.13340008 -0.08903625 -0.021872917 0.078320205 0.090493135 0.044856627 0.09016849 0.06831571 -0.058379516 0.028565392 -0.048810102 0.12135307 -0.015520461 -0.47413608 -0.07110095 -0.048364665 -0.028981458 0.11421029 0.051008407 0.014414611 0.077988766 0.05592355 -0.2720177 0.041016255 0.13287224 0.2931119 -0.23081017 0.15895765 -0.070735656 0.005005254 -0.049764406 0.0007730466 -0.048081063 -0.021551363 -0.06381846 -0.08033697 -0.14470331 -0.06444849 0.031691615 -0.03410629 -0.18848021 -0.23064245 -0.02280332 0.0063311914 -0.06997472 0.064516276 0.18441689 -0.0026146239 0.008865093 0.009577596 0.18616787 0.33119664 0.060505334 -0.1669097 -0.22458746 -0.06692425 -0.13684495 0.16242854 -0.06939795 -0.14969188 0.11275996 0.11375623 -0.08400774 0.004836968 0.054428305 0.17501633 0.26962602 0.027299736 -0.093156606 -0.22643203 -0.392874 -0.25165287 0.16173667 0.050236754 -0.1296072 0.123254985 -0.24666514 0.07230442 -0.29178888 0.1793912 0.0949722 0.11732068 0.22365257 -0.07996319 0.41597676 0.12625276 -0.08973046 -0.015996357 0.15736471 0.023187367 -0.06706328 -0.07380137 0.16660875 -0.08177466 -0.00031573695 0.19208688 0.19032381 -0.07667326 0.024364464 -0.10524719 -0.07131009 -0.060742725 -0.18139616 -0.12602398 -0.051169284 -0.008709002 0.16129461 0.3951444 0.09306431 0.03953267 0.19179952 -0.05150324 -0.06429368 -0.008343229 -0.010077882 0.16045213 0.33021858 -0.023438638 0.082454644 0.001245852 -0.18172029 -0.049036782 0.23970756 -0.08216058 -0.2247803 -0.18772154
시 -0.063941225 -0.03950571 0.09703104 -0.2862666 0.12606327 -0.09690722 -0.15112032 0.010127902 -0.056327354 0.020920686 -0.014953688 0.11268913 -0.012061898 -0.08023102 0.07767635 -0.14320223 0.025016565 0.03351825 -0.20139994 0.024032837 -0.01676604 -0.16465816 0.12876874 -0.23960334 0.17812018 0.1250653 0.15596429 0.22659065 0.015655346 0.03406181 -0.19180068 -0.0018682756 0.007310841 -0.04454385 -0.2071811 -0.26572827 -0.13948731 0.0082213655 -0.11906422 0.13506098 0.004173027 -0.051055506 -0.00515999 0.12686148 0.049344357 0.13779105 -0.049069185 -0.061252713 0.16274804 -0.06134554 -0.043822557 -0.028844755 -0.111636646 0.06834764 0.05999623 0.06296575 0.13440488 0.054049067 -0.028576726 0.0515073 -0.04495164 0.11922754 0.22887488 0.011754822 0.01007792 0.1000021 -0.25955802 -0.037119634 0.006000945 -0.005224289 0.06777465 0.10609695 0.027609643 -0.21038613 0.006514933 -0.07095798 -0.076378204 -0.14611104 -0.1821451 0.18031082 -0.045537286 0.01117554 0.18290432 0.0680495 -0.10669292 -0.41493747 0.11015856 -0.035526518 0.20289391 0.067848645 0.11503218 0.11047507 -0.0060732346 -0.23077278 -0.20806417 -0.009711306 -0.091147095 -0.21967027 -0.096905954 0.1233184 0.11286485 0.04635584 0.06920736 0.13105062 -0.060100466 0.019586038 -0.07146468 -0.12804921 0.30824697 -0.0742851 0.10628555 0.041983917 0.13431333 0.04351705 -0.058098808 -0.034261126 -0.013047081 -0.1666412 -0.11885559 0.0977277 -0.07565958 0.048245795 -0.07682649 -0.11782702 -0.28362608 -0.058373585 0.05941473 0.19693181 -0.019303346 -0.07150026 0.070657864 -0.032977823 0.053971436 0.14339752 -0.03329263 -0.105545565 -0.24224788 0.038060978 -0.008649381 0.07320015 -0.1089151 0.22665603 -0.19925165 -0.07445994 0.13021237 0.20426758 0.1443022 -0.03492112 0.13339812 -0.055939604 -0.14373897 0.17029604 -0.09052664 0.22918999 -0.099210896 -0.032012884 -0.24488504 0.24952416 0.01705548 0.2756552 -0.11835923 0.06605916 0.06912068 -0.1089522 0.020539813 -0.007931466 -0.0064242254 -0.0025695257 0.0074598696 0.006840547 -0.17270677 -0.17191441 0.08370464 -0.09115671 0.10527103 -0.16363406 0.070728876 -0.053785764 0.06885624 -0.020204352 -0.041643575 -0.1332715 -0.06844012 0.051235296 -0.11862011 -0.05464931 0.0640905 0.051646646 0.13216066 0.22712816 0.3029721 -0.0091575105 0.09479893 -0.07848322 -0.12491692 -0.051514566 0.09048504 -0.107397065 -0.036928978 0.266641 -0.12897876 -0.17245269 0.17179647 0.13317458 0.15690173 -0.01404401 -0.05660579 0.007842756 0.07128769 -0.058722563 0.02836711 -0.15384167 0.111426726 0.18931358 -0.016525088 0.06055374 -0.20968595 -0.047071397 -0.22125816 -0.03477619 -0.09955941 0.18517195 -0.05190597 -0.10648182 -0.06568802 -0.13130993 -0.26493663 -0.06465366 -0.11336351 0.10481623 0.064503826 0.036888853 0.040327944 -0.2704808 0.148251 -0.049514722 -0.12623337 -0.07024988 0.18459783 -0.13762628 0.24828216 -0.18340483 0.06086355 0.14214168 0.23519322 0.0968998 0.23707315 0.028632956 0.06708129 -0.05806223 -0.23940077 0.004766281 -0.01890277 -0.11326137 -0.104756586 -0.032820858
인 -0.0323728 0.01609305 0.06407066 -0.07227445 0.22541562 -0.07790482 -0.016170463 0.050654724 -0.038305502 -0.06095469 0.2330209 0.17580219 0.10455668 0.1216324 0.20241675 -0.030000066 0.11561164 0.028645834 -0.17584598 0.1284915 0.26892465 0.0698213 -0.08378378 -0.06301063 0.21906228 -0.06476684 0.38027427 0.19749345 0.058340237 -0.28233254 -0.08311147 -0.13588507 -0.20811315 -0.012271595 0.30599907 0.23245916 -0.029204985 0.12665024 0.13500391 0.12618236 -0.010305809 0.018977368 0.019238252 -0.021403119 -0.07144886 0.17332482 -0.0062803407 0.060857497 0.34285244 -0.23508057 0.04749764 -0.008341424 0.31577456 0.032791633 0.12895614 0.2902393 -0.09682411 0.239386 -0.16035767 -0.019414857 -0.16900831 -0.013453776 0.18667671 0.03206297 -0.12081944 0.13970765 -0.030854529 -0.022809962 0.17651556 0.060896058 0.08173367 0.06327469 -0.1353594 0.13628279 -0.14680341 0.16302218 -0.25920418 -0.17007408 0.10390919 0.053692274 -0.1308507 -0.057651572 -0.017192066 0.12059625 -0.030997192 -0.11704929 -0.005987742 -0.26471865 -0.07208612 -0.09542236 0.02623488 -0.15975867 0.33539551 -0.19688506 0.11531386 0.056206875 -0.28436545 -0.04388908 -0.039517123 -0.16450901 0.40425655 -0.13013668 0.10093278 -0.18100217 0.07803131 -0.08884691 -0.14669512 -0.13068019 -0.2205787 0.1056766 0.258116 -0.0073861876 0.070519 -0.04619225 -0.46212494 -0.023628144 -0.09273776 -0.098272815 -0.004130943 -0.070932806 0.030917358 0.12334318 0.054737665 0.20889005 -0.08890662 0.11828268 0.102342315 0.15542755 0.16619685 -0.14106056 0.047175065 0.09718447 -0.14119571 -0.071451746 0.10742148 -0.064238526 0.14969161 0.11971859 0.020601984 0.37382904 0.09524024 -0.2714646 -0.2309543 0.02812017 0.14274873 0.08748848 -0.18540893 0.061406188 -0.18014754 -0.1669502 0.20529634 -0.16639152 -0.09300662 -0.03200395 -0.08850522 -0.10131728 -0.092069976 -0.11277029 0.114064455 0.14865465 0.15087056 -0.1505161 -0.27906162 -0.18883766 0.036902323 -0.008351238 -0.1085391 -0.13516489 -0.3031818 0.17069356 0.1067566 -0.15338464 0.33398193 -0.023936667 -0.16358507 0.034441058 0.04719539 0.16256467 -0.32117388 0.043329846 -0.21575026 -0.12056586 0.04019354 0.11032946 -0.1686681 0.046547048 -0.2660139 0.037686747 0.23203692 0.2354631 0.24982327 0.025723651 0.07215483 -0.088576086 0.096315466 -0.19398357 0.014082571 -0.13086824 0.06890584 0.06772363 -0.011855313 0.11336697 0.011048021 0.1882886 -0.018531088 -0.108557984 -0.003991494 -0.08330297 -0.02659279 -0.005777613 0.06153108 0.07685133 0.0611654 -0.05784859 -0.07715694 0.08826346 -0.1476359 -0.027022718 -0.084787 0.2232132 -0.09286572 0.054284334 0.38675934 -0.10904738 0.0038732176 0.0037934256 -0.13122208 -0.15115213 0.33380863 0.051485494 -0.020734897 0.12482173 -0.21618319 -0.14433247 0.16043451 -0.2625294 0.048213176 0.090243995 -0.15722321 0.0944146 0.24925429 -0.09040546 0.2748647 0.03824371 0.14907797 0.20975044 0.04292972 -0.065316334 0.0126212025 -0.16047323 -0.12393494 -0.053402897 0.0298609 0.0196955 -0.20661421 0.030693648
겠 0.09670134 0.14900796 -0.1973291 -0.16170165 0.10857203 -0.3003128 -0.046103157 -0.050149646 -0.34669715 0.24586733 -0.010888841 -0.0016951694 0.030384056 0.016024338 -0.08355934 -0.06593678 0.10998535 -0.2084877 -0.005280382 -0.0536456 0.20979859 0.29541674 -0.031708058 0.20959072 0.09326523 0.12546553 0.102209404 0.22095431 -0.015329503 -0.047828604 -0.4584041 0.1120728 0.14096862 -0.052566905 0.117433585 -0.099084586 -0.057347097 -0.10497785 -0.093287 -0.034123134 0.06585911 0.06748343 0.090341024 0.15116659 -0.082458064 0.19924232 0.16660684 0.07027661 0.30185246 0.09736817 -0.16924049 -0.27829012 0.1436956 -0.112458006 0.24135639 0.23917958 -0.15555197 0.072691135 -0.2611122 0.038388953 -0.2393714 -0.39341205 -0.11647766 -0.137094 -0.085975654 0.057438057 -0.008411113 0.111521445 0.3699459 0.014390034 0.061258662 -0.36698908 0.052827735 -0.09730436 -0.0847819 -0.130309 -0.1361221 0.0003924313 -0.06440287 0.17403145 0.089556724 -0.156054 -0.07627273 0.28942415 -0.23623936 -0.20341386 -0.2007452 -0.26657528 -0.11911617 0.2215483 -0.17729566 -0.1196731 0.18972458 0.085637376 -0.04175492 -0.029659756 -0.084287226 -0.15662639 -0.011814232 -0.17501712 0.48767114 -0.062650375 0.30483314 0.068881564 -0.05208064 -0.0038096874 0.07398891 0.0025136406 0.13061781 -0.19884397 -0.036410693 -0.013757993 -0.17250063 -0.054882016 -0.110325344 0.013327813 -0.055177286 0.16928233 0.061938785 0.042744894 0.04829399 0.06813061 0.09546291 -0.08453439 -0.12620185 -0.09882585 -0.05816302 0.0027973677 0.090399265 -0.06912263 0.093202814 -0.17574295 -0.25944486 -0.20060414 -0.1867349 0.074137785 0.15892352 0.32715702 0.082764804 0.27915376 0.13032967 0.3709799 -0.09997113 -0.14919363 0.042138178 0.068254106 0.21929646 -0.23989806 0.13046962 0.2904865 0.036030777 -0.17843167 0.05262883 -0.066075206 -0.06429286 0.0937785 -0.0934313 0.03753607 0.031037934 0.33715296 -0.13437726 -0.17885041 0.17340972 0.16707748 -0.088958494 -0.018037586 0.018469691 -0.16127704 -0.14070569 -0.19819957 -0.2795699 -0.12756991 -0.046843 0.24155693 0.09599163 0.31435207 -0.11831639 -0.18837248 -0.071126826 0.0009977396 0.1144128 -0.2105606 0.0024849349 0.097774 -0.09452619 -0.04913484 -0.013403798 -0.09901502 0.14121245 0.026582148 0.5242675 0.13794592 -0.15877613 0.12385526 0.35895944 -0.2997464 0.16220154 -0.3739968 -0.06150267 0.018581359 -0.21023878 -0.22150286 0.33211482 0.2024712 -0.14019097 -0.18910308 -0.34980074 -0.09775042 0.03509233 0.07321962 0.24472375 -0.10225108 0.094364576 -0.04587892 0.13992518 -0.24059725 -0.14079946 -0.1889542 0.08144237 -0.059526544 0.01026573 0.36654657 0.07841235 -0.09457163 0.0587123 0.2805165 -0.022366606 0.03833563 0.03350667 -0.19214691 0.021379044 0.04515168 -0.16156688 0.1617767 -0.2297379 0.15448385 0.20150906 0.17385447 0.052284338 -0.01630352 0.36828455 0.07047746 0.21871503 -0.27937645 0.08776882 -0.23208994 0.12965026 0.07921292 0.2560107 -0.12964004 0.0070667067 -0.031888336 -0.08863698 -0.07137019 0.09284901 -0.19842611
까 0.11209418 0.029008256 -0.004725809 -0.319668 0.14545076 -0.3042091 0.124732524 0.21591018 0.10474035 -0.08729579 -0.035343822 -0.1483859 0.11131385 0.08424039 -0.065364145 -0.10514091 -0.023265952 -0.14461781 0.10773174 -0.23479502 0.14116295 0.1869573 0.049235303 -0.03532625 0.15290335 0.28888014 0.00384994 -0.023192922 0.010694933 -0.108433396 -0.11017477 0.18570058 -0.099404894 0.06393057 0.08525913 -0.19347344 -0.08367302 -0.044919875 -0.018825976 0.06740475 0.021192262 0.009950872 0.22307229 -0.024421873 -0.13691162 -0.02359285 0.12876743 0.090797745 0.19640663 -0.20496772 -0.08098068 -0.12909722 0.30609477 -0.037160147 0.23523358 0.048521567 -0.10116126 -0.12337704 0.00032115035 -0.13463703 0.08949556 -0.1474679 0.048588417 0.088193364 -0.19710489 0.038162835 -0.14610763 0.20622744 0.10332048 0.03491534 -0.09114988 -0.069859244 0.19647901 -0.1905191 0.2607975 -0.18344437 -0.40221515 -0.021629967 0.013328687 0.017586248 -0.081218906 -0.02837064 -0.06779443 0.17509285 0.22273359 -0.109507546 0.04250671 -0.069772035 0.15012431 0.040149696 0.02952319 -0.26203808 -0.04042105 0.071386464 -0.3124516 0.2773313 0.0008283434 -0.13618472 0.010950361 -0.1924304 0.3074441 -0.32421967 0.24277972 -0.05528276 -0.075322196 0.062942706 -0.015851442 0.12687261 0.20074093 -0.26976192 0.12280245 0.3088659 0.023103807 -0.1091224 -0.068367496 -0.016527204 0.026512727 0.15608352 -0.005497351 -0.11420321 0.16234194 -0.07767256 0.001795789 0.26785117 0.03464598 -0.01265735 0.2544273 0.24601668 0.1478891 0.11791953 0.13179249 0.08597507 0.09177821 -0.09231486 -0.23459916 -0.04229291 0.026656624 0.042557072 -0.04226795 -0.12340145 0.09591958 0.064179964 0.03472063 0.052301 0.15656431 -0.18976809 0.02578877 0.32007778 0.17384765 0.1182622 0.19099344 0.07090063 0.00438374 0.14227523 -0.311243 0.26177448 0.21430057 -0.13396342 -0.03780224 -0.10936691 0.13741466 -0.07072241 -0.30922362 -0.13979326 -0.11333318 0.044002388 0.021209 0.016507564 -0.40791833 0.09542255 -0.1227027 0.0059330147 -0.003922621 0.01636493 0.05305386 0.23201971 0.081263825 -0.057902116 -0.096543685 -0.045302648 0.059260752 -0.25335363 0.016464595 0.22381252 -0.16248329 0.30681226 -0.10220838 -0.052524965 -0.11712653 0.17300628 0.2609864 -0.086595945 -0.18918152 -0.029528346 0.31324843 -0.18101262 0.15306972 -0.33291444 -0.0060996464 0.22735837 -0.08264432 -0.105781145 0.3572449 0.09878933 -0.02339216 -0.07479448 0.03016217 -0.20457314 -0.20473152 -0.031091671 0.06558886 -0.06926604 0.2445719 0.073614955 0.1078483 -0.055042073 -0.40810728 0.028181983 0.12395209 -0.07052047 0.039652646 0.32087183 -0.029168824 -0.04688511 0.08086358 0.1618458 0.13795637 -0.08125161 0.008653565 -0.04042669 0.15819624 0.036054924 -0.01779817 -0.15307559 -0.0042150444 -0.21925272 0.020448707 -0.11755293 0.3231617 -0.04892147 -0.01366982 -0.18730737 -0.06815075 0.0047617047 0.2688795 0.08158338 0.20044875 -0.0006696491 -0.07248606 -0.07036404 0.09746885 -0.33886787 0.12020511 -0.07171166 0.107862875 0.016911559
사 0.112537585 0.06867236 0.033301365 0.0060783485 0.07800324 -0.11871498 0.035976045 -0.1258359 -0.15849586 0.016443705 0.13693525 0.10280289 0.08278525 -0.005209977 -0.05036106 -0.08374031 -0.20893347 0.23149987 -0.0406096 -0.10545433 0.12735987 -0.049853813 0.42356324 -0.2262961 0.45670113 0.06196174 -0.020215956 0.17383163 -0.18323335 0.073683575 0.0077132946 0.049329348 0.04010068 -0.25502145 0.18652193 -0.20959528 0.062824056 0.09681363 -0.18099655 0.062817015 -0.035780963 -0.031998724 0.22549789 -0.04356742 0.152685 0.12942262 -0.025940588 0.15607755 0.29258737 -0.1096571 0.29053116 -0.047014825 0.22676226 0.070431754 0.17430916 -0.011285001 -0.02685676 0.17297319 -0.17542283 0.25133896 0.012484625 -0.16401592 0.03177847 -0.2486807 -0.021614376 -0.06523118 0.25437272 0.1172794 0.0116543695 0.05883728 -0.04360915 0.045299552 -0.023466114 0.32234395 0.056646 -0.3643376 -0.056777652 -0.0150422035 -0.23265126 -0.19179276 0.09556125 0.15001567 -0.09991209 0.10666053 0.10778203 -0.061872195 0.18599796 -0.21212037 -0.0055736443 0.14930767 -0.18640643 0.052366596 0.1458493 0.039927516 -0.006067355 0.038688153 -0.08362722 -0.18249397 0.04309961 -0.3286709 0.22218214 -0.11051229 0.23847164 -0.061896726 -0.06968223 0.19449836 0.039687622 0.18053266 -0.068478025 0.18690594 0.03792084 -0.016699767 0.18497217 -0.0019738784 -0.07050933 -0.095641986 -0.03642169 -0.2443683 -0.276216 0.21001019 -0.05710085 0.07268006 0.14384772 -0.07795085 0.1796917 0.022595933 -0.025167657 0.18285084 0.27940238 0.034252036 0.1650391 0.054085445 -0.14440472 0.07840567 -0.080590904 -0.18048526 -0.04764223 0.357553 0.10670864 0.18540046 0.10102078 -0.073488064 -0.026986435 0.023475679 0.15891998 -0.40736893 -0.09108491 0.09009708 -0.115161195 0.20262639 0.20223178 -0.12910105 -0.1145543 0.018583382 -0.2528236 0.20047715 -0.23017909 0.16927506 0.18732642 0.16362475 -0.22575082 -0.12028943 0.046666496 -0.03470106 -0.06561307 0.24128209 0.019063061 -0.060383584 -0.39928862 0.11474829 0.20525683 -0.25182462 0.19996676 -0.07199362 0.20681676 0.093520805 0.123252206 -0.016651275 -0.048795566 0.1774476 0.1674731 -0.035880987 0.018889476 -0.11695123 -0.1298093 -0.019438809 -0.2943788 -0.087413184 0.16078304 -0.009263645 0.011461502 -0.12124147 0.15618296 0.039377574 -0.18603575 0.16739331 0.05840655 0.09137735 -0.0741415 0.057164956 0.12620337 0.009001904 0.21459006 0.22894987 -0.07326171 0.06989764 -0.22828966 -0.116104536 -0.020718794 -0.091404736 0.21767223 -0.12885103 -0.10845663 0.023329586 0.19275922 -0.029981544 -0.004317787 0.016180685 0.21825203 0.03465087 0.14070302 0.13335408 0.1368689 -0.017448796 -0.013694099 -0.10846351 -0.19839975 0.06525983 -0.043432865 -0.08251287 0.11078794 -0.109845094 -0.16643864 0.002453034 -0.06455192 -0.1273873 -0.01282847 -0.072027095 0.055182274 0.046764787 0.11387041 0.02980116 0.12186678 0.15862042 0.15640777 0.106546834 0.043373153 -0.23394538 -0.23810738 -0.11554763 0.14527479 -0.014322632 0.064519525 -0.16697213 -0.277497 0.10912493
제 -0.019069832 -0.004593416 0.10305651 0.16088246 0.33453733 -0.1762244 -0.06283725 -0.20252043 -0.17697601 0.14467789 0.50061077 0.030171493 0.08484415 0.07898244 0.042681128 0.19415644 0.06672435 -0.12992579 -0.0076745697 -0.17851956 0.08416172 0.04730829 -0.0043916977 -0.23609465 0.4134244 -0.041422267 0.0054899594 0.19355847 -0.14957267 -0.09527143 0.03934065 0.10050415 0.03709047 0.042187497 -0.13447316 0.020733085 -0.089766465 0.031692296 0.07968237 -0.11928072 0.007695638 0.40790167 0.01100683 0.048602402 0.013023573 0.01668383 0.13938645 -0.030212736 0.16837591 -0.37117988 -0.17156664 0.07089537 0.040918056 0.21705069 0.2935038 0.040465526 -0.08016434 -0.1274228 0.24158187 0.019693889 -0.22179383 -0.088013686 0.08432615 -0.12805805 0.048355684 0.05954841 0.07031983 -0.13028334 0.2349533 0.18230568 -0.026950119 0.13002102 0.05204866 -0.26961228 -0.33794853 -0.17080308 -0.018373098 0.08265331 -0.08689759 0.1208989 0.008875366 -0.08581389 -0.07191735 0.008434132 0.011475719 -0.320969 -0.21762064 -0.20306525 -0.08584891 0.052442268 0.043906756 -0.26991042 0.00930531 -0.15407656 -0.1309645 0.03547119 0.21549204 0.03196812 -0.07961199 -0.03715038 0.487058 0.14449531 -0.003596795 0.045823418 -0.10916584 -0.40240607 -0.025342777 0.078961134 0.08746436 -0.058400664 0.009201155 0.020691808 0.09472538 -0.01933404 -0.13620503 -0.27727115 0.13963161 0.13440381 -0.29740182 0.22996965 -0.033602692 0.1762202 0.15148035 -0.16276935 0.05101617 0.023585277 0.23406413 0.1776942 -0.031130388 -0.06890407 -0.09562315 -0.047588304 -0.27487555 0.33120757 0.053087953 -0.15575476 0.077472314 -0.051240098 0.043670848 0.12661232 -0.060647745 0.06627618 -0.07166535 0.023080373 0.15685098 -0.1821418 0.20883322 -0.05525759 0.12514493 0.13493125 0.03829831 -0.022484131 -0.07112208 0.10900511 0.11263762 -0.26458284 -0.31382424 0.04144878 0.092214696 0.12297504 0.016065912 0.085555755 -0.26822853 -0.03243504 -0.17137496 -0.098657 -0.20248477 0.09895838 -0.19147798 0.054139145 0.2870089 0.08031596 0.08190587 -0.1729908 0.08667772 0.24976833 -0.15412614 0.15976207 0.17814013 -0.039428562 0.08072794 -0.026199326 0.040401082 0.21109934 -0.1503861 -0.025401125 -0.1348304 -0.14820807 -0.24596146 -0.012639603 0.019297779 0.027435489 -0.07636297 -0.069286436 -0.06979177 -0.20599063 -0.005267072 -0.17075762 -0.07227565 -0.16535075 0.16854163 -0.50368345 0.029491734 -0.12578024 -0.05561195 0.12970991 -0.0009506023 -0.2883815 -0.08016378 -0.0957319 0.2591016 -0.010282825 0.20218709 0.18370846 -0.071628086 0.13479948 -0.24647434 0.004499955 0.01359124 0.04022074 -0.0039825323 -0.06512461 0.07773921 -0.15601076 -0.17267008 0.20660084 -0.20954975 0.025292166 0.1513083 -0.069114864 0.052300327 -0.026486723 -0.113940075 -0.0162496 -0.11342509 -0.16091412 -0.030893793 0.017224511 0.17194898 0.060964484 0.051168814 0.13105012 -0.25557226 -0.062140048 0.04775867 -0.05408685 0.061345585 0.005744553 -0.1521221 0.3010363 0.033946473 0.07427933 0.09982739 -0.13563082 0.12376847 0.039520502
문 0.22943635 -0.18290384 -0.2784059 0.21062714 0.007310386 0.043542225 0.1364097 0.16974223 -0.008801929 -0.10345866 -0.20845473 0.093396924 0.00768617 0.123716906 0.0619384 -0.09661777 0.21763414 -0.19122216 -0.11067472 -0.3057576 0.029724455 0.07879668 -0.06567805 -0.08233868 0.09784732 0.017281614 0.08139527 -0.073646516 -0.33457598 -0.27289477 -0.21076126 0.026688443 0.06082505 -0.32780382 0.33142444 0.011681817 -0.21139593 -0.021370929 -0.030998694 0.04826985 0.15076038 0.23332442 0.1112011 -0.0030108888 0.09825647 -0.11088604 0.071979314 -0.106068134 0.19004582 -0.16858251 -0.13275833 -0.21536177 0.0049001444 -0.11116248 0.294415 0.1535948 -0.1803267 -0.011302049 -0.18556477 -0.165702 0.029764334 -0.16168232 -0.3014072 -0.13134313 0.07765749 -0.040178385 -0.030477302 0.18854202 0.0133265145 0.07873641 0.33527434 -0.100851126 0.13088992 0.20741002 0.058389403 -0.3990124 -0.07142825 -0.012646021 -0.0016267329 0.008541371 0.087820426 -0.060100686 -0.123907425 -0.1365407 0.060351793 -0.2989848 0.009681235 -0.09477523 0.1553628 0.053438198 -0.31832483 -0.06467229 0.00014860698 -0.16291422 -0.21380799 0.100515895 0.120006636 0.04466633 0.12012556 -0.32743776 0.32473287 -0.13315313 0.031551108 0.041462105 -0.03446997 0.14838265 -0.016220171 0.13715856 0.08073855 0.13477315 -0.0072242664 0.118598305 0.13375671 -0.13668212 -0.26037812 -0.20691141 0.14573556 -0.055734538 -0.101613395 0.073010035 0.37789214 0.012597318 -0.048183613 0.1911925 0.091480546 -0.009612073 0.28025416 0.015819008 -0.15546028 -0.05153947 0.13631052 0.019181434 0.107499085 -0.039467223 0.15067437 0.03799179 0.09633547 0.28541768 -0.08117505 0.33048534 0.1902964 0.11944902 0.06756271 -0.07423243 -0.17583454 0.09202921 0.1581866 -0.16362216 0.19907115 0.22164728 0.15143251 0.1283531 0.062574744 0.20169555 -0.25064787 0.12877049 -0.12715413 -0.20057757 -0.077937916 -0.021117404 0.048187576 -0.05970136 0.23116712 -0.028844072 -0.1282604 -0.101899736 0.12471365 0.15015009 -0.285549 0.1293757 0.042584445 -0.23047334 0.05841993 -0.09285548 -0.12513858 -0.18281205 -0.08039386 0.028812237 0.056959774 0.12502141 -0.11817333 -0.03637444 0.085003115 -0.1223656 -0.11973883 -0.1925497 0.23967372 -0.3426818 0.18346737 0.09689096 0.15273657 -0.11474015 -0.07919719 -0.10738171 0.13339448 0.13226746 0.08099385 -0.04279031 0.09085537 0.14393958 0.015300817 -0.16904649 0.1414845 0.0010453548 -0.2415824 0.11110229 -0.16349585 0.052472472 -0.00670656 0.053405512 -0.17270613 0.090604484 -0.03651023 0.13468061 0.26831615 0.058706827 -0.052608516 -0.21385656 -0.33306512 -0.02830446 0.059378613 -0.09003754 0.12274049 -0.046683535 0.14614002 0.09344642 -0.14639577 -0.12167767 0.2592576 -0.029593397 0.09572335 -0.1331222 0.01906896 -0.23285994 -0.022718204 -0.06907645 -0.029037612 -0.124527566 -0.057856727 -0.026110504 0.037770882 -0.2364498 -0.11713168 -0.007309853 0.21590285 -0.044824086 0.15636098 -0.41766983 0.03564149 0.10158916 0.009807046 -0.12754935 0.13384932 -0.25881317 0.14890274 -0.15005033
객 0.27188626 0.07289564 -0.044445813 -0.15748896 0.19880484 -0.14555365 0.033577688 -0.035486035 0.0078099654 0.069818355 -0.21678054 0.10871453 -0.067976855 -0.18330829 -0.020163918 -0.051506802 0.031629294 -0.06075249 -0.023109283 -0.10592456 -0.019233776 0.24559677 -0.08047179 -0.087782316 0.13218094 0.14299451 0.2065123 0.18408255 -0.18458937 -0.049246144 -0.40101647 0.13448143 -0.10806159 1.219275e-05 0.09650218 -0.09579091 -0.08930903 -0.16806626 0.066924624 0.19245405 -0.037257377 -0.06219614 0.13197003 0.07970858 0.018628541 -0.09123214 0.02015013 -0.0041367477 0.0934575 -0.12777956 -0.025803398 -0.23157823 0.30755916 -0.020944402 0.31568062 0.3404961 -0.14056954 0.00398073 0.0039142217 0.07358635 -0.25824282 -0.22194171 -0.02438753 -0.032342944 0.08320461 0.14100152 -0.1280298 0.011182866 0.46670085 0.10238959 0.18765402 -0.19084024 0.12221584 -0.30183193 0.0060609756 -0.20923045 -0.16883084 0.22196093 0.3617859 -0.01549759 0.09701784 -0.22083005 -0.07697144 0.08229527 0.016721264 -0.16572079 -0.31906098 -0.2841192 -0.09198051 0.16754442 0.011018581 -0.104765914 0.25661767 -0.089102566 -0.16198002 0.23286794 -0.3077305 0.14798419 -0.336103 -0.19162937 0.16345736 -0.23110253 0.049941503 -0.08544473 -0.07375524 0.0934367 0.12374664 0.05291404 -0.08655551 -0.00055259146 0.00680149 -0.024553446 -0.039506577 0.009464943 0.1044136 0.016064184 0.119544715 0.031657264 -0.08528911 0.07391291 0.21258861 -0.01067632 -0.0136336675 0.23233539 -0.108369924 -0.05142252 0.02032329 0.22045632 0.16933684 -0.19467872 -0.017912736 0.1423479 0.014691738 -0.09513213 -0.035451666 -0.059283175 0.243352 0.06991685 0.27782434 -0.018023424 0.13110118 0.015344541 -0.10119888 -0.15355185 0.02403205 -0.13611655 -0.22878574 0.1633347 0.046247657 -0.05672531 0.13983795 0.008031278 0.1106028 0.23462525 -0.14823914 0.015555994 -0.09582283 -0.034239214 0.045501985 0.057182472 0.050790172 -0.11158028 0.048541803 -0.07155651 -0.28464535 -0.16359392 -0.07702637 -0.0001719636 -0.023367994 0.13072862 -0.03619603 -0.08363944 0.09178195 -0.0057311864 0.059569698 -0.17636491 0.08776251 0.03495252 0.09695336 0.08390479 -0.040487446 -0.18231858 0.012293054 -0.07818278 -0.11368262 0.17330298 -0.20906419 -0.072073296 -0.08726099 -0.03132942 0.27608207 -0.05966262 -0.17890555 -0.024081675 0.028376034 0.092876256 0.2446752 -0.29056248 0.08758354 -0.13453925 0.007954772 -0.20800477 0.38249978 0.109707326 -0.07557858 -0.12453074 0.033792038 -0.24652801 -0.28252217 0.06954021 0.121968545 0.04790481 0.17602944 -0.011707666 0.015702419 -0.0738999 -0.3444738 -0.122102916 0.06620792 -0.03855217 -0.06314515 0.32398897 0.3272823 -0.06703962 -0.13161649 -0.05467544 0.043666534 0.007624477 -0.055467766 -0.04507886 -0.2227915 0.030978054 -0.11158044 -0.22500688 -0.077360705 -0.22749852 -0.110122725 0.006149122 0.21983396 -0.31957963 0.06655244 -0.09352684 0.0914102 0.020570211 0.22603579 0.3309175 0.070650205 0.15120606 -0.057778012 -0.083908685 -0.00048745147 -0.18194479 0.028724834 0.070825085 -0.11639581 0.017179055
리 0.26190284 0.102632076 -0.14502825 -0.035487786 0.04391252 0.07101437 -0.14751157 0.11975404 -0.17368557 0.0689789 -0.24286897 0.081707895 0.11489589 0.16349593 -0.19351925 -0.06299537 0.2676329 0.18366969 -0.002266507 0.10467299 -0.26999205 -0.06238991 -0.09348519 -0.10910276 -0.0045869956 0.21885933 0.21397367 0.15141997 0.23405646 -0.20054138 -0.26641628 -0.058818914 -0.023919873 0.058731046 0.06577187 -0.01723475 -0.060086895 -0.09292339 -0.13576256 0.060308125 -0.058355592 0.14583135 -0.13841677 -0.03788865 -0.08806936 0.015321565 0.0030234677 0.031424038 0.37267524 -0.13620147 -0.27019736 -0.32998937 0.32890233 -0.0017480503 0.3250992 0.010893362 -0.063857965 -0.20562276 -0.0076921713 -0.12907916 -0.23017983 -0.06776519 0.39634627 -0.19454688 -0.41949165 -0.20056613 -0.14525953 0.06535012 0.2167104 0.21208878 0.058853652 -0.08800825 0.26858377 -0.21103853 -0.22593382 0.046236366 0.0067005595 0.13544275 0.07650299 0.31513697 0.07442639 -0.31360757 -0.09239116 -0.06812034 -0.17260756 -0.1643772 -0.23987961 -0.19860369 -0.103395075 0.0855323 -0.069403306 -0.2699647 0.011129509 -0.111481115 -0.10155496 -0.0442015 -0.2678199 -0.016967107 -0.26849622 -0.052050255 0.22609323 0.24222074 -0.038645215 -0.028779633 -0.2336192 -0.16211045 -0.05932325 0.09039265 0.031253867 -0.084183045 -0.017195106 0.052398544 0.023696288 0.095684275 0.13488157 0.18110521 -0.020490918 -0.09338011 0.049016375 -0.04093023 -0.053066652 -0.074781924 -0.12397453 -0.18092148 -0.28354707 -0.1643045 0.016316188 0.028898207 -0.04271272 -0.05574509 0.48069656 0.06678605 -0.111677766 -0.18853575 -0.07848819 0.03097671 0.15979208 0.153597 -0.089266755 0.22509652 -0.0155522395 0.1648895 0.17478885 0.01556495 0.3249738 -0.026297312 -0.037873145 -0.2735221 0.0701395 0.1642191 0.08357711 -0.015966764 -0.024692627 0.13054255 -0.2501815 -0.058578286 -0.039990857 -0.253164 0.12566584 -0.04309614 -0.024780938 -0.27109894 -0.1809777 -0.14457873 -0.18281448 -0.23204486 -0.0025091253 -0.039915346 -0.114444025 -0.040312257 -0.27147093 -0.100900166 0.11987511 0.32258636 -0.01406327 0.011119567 0.07768794 -0.09030264 0.048074964 0.03554873 -0.06730416 -0.032941658 -0.1544297 -0.091376364 0.062145304 -0.122832954 -0.23643424 -0.5689633 0.10079303 0.111946434 0.3212275 -0.19552629 0.10370858 -0.043285795 -0.040515676 -0.078807965 -0.11478299 -0.119909465 -0.14401448 0.15964124 0.10378525 -0.13560556 0.17334819 0.09548235 0.03572996 0.20897004 -0.15280935 0.096066475 0.019913742 -0.27076617 0.22102956 0.06797958 0.03922832 -0.068929605 0.17477551 0.15710567 -0.16497348 0.01683582 0.27955353 0.17776507 -0.02683266 0.16057687 0.12337845 0.29291496 -0.059551995 0.17869973 0.1503227 -0.0011133935 0.3230836 0.05378346 0.20233668 0.19877099 -0.12143852 -0.14315422 -0.09327344 -0.284975 0.10330059 0.36732033 -0.00874434 0.11337062 0.5001364 -0.15895143 0.14402482 0.029381393 0.044995897 0.22726966 0.11777674 -0.07802254 0.17807478 0.1635919 -0.076025896 -0.1885109 0.1440199 -0.18205929 -0.013069432 -0.2868868
일 0.14093696 -0.016950201 0.26051372 -0.24709657 0.27279574 -0.23875691 0.036773305 -0.032268655 -0.09087121 -0.032507516 0.24801117 0.36866003 -0.16350864 -0.09872813 0.15549971 0.116056465 -0.14686897 -0.19672814 -0.15374386 -0.2322008 -0.1175496 -0.17485787 -0.0042421645 0.0321561 0.23874816 -0.081808075 0.11095273 0.20296347 -0.07704686 -0.1482402 -0.15576638 -0.17470767 -0.39534706 -0.19070756 0.26058948 0.035583958 -0.023390304 -0.1228099 -0.09191858 -0.004426304 0.2518823 0.10264088 -0.31905407 0.055396456 -0.108334534 0.040083945 0.0038605486 -0.09222475 -0.25000384 -0.015316602 -0.12652306 -0.0706775 0.31799755 0.07668182 0.3569956 0.2623962 -0.16548389 0.123774044 0.18225957 -0.06004332 -0.19303545 -0.25173134 -0.12830147 -0.14834796 0.02609499 0.095764495 -0.06965609 0.06956217 0.3016425 -0.06187397 0.03559911 0.014986587 0.087784305 -0.24217093 0.052109245 -0.07375977 -0.26421812 -0.06341035 -0.087741815 0.17325115 -0.1702247 -0.15445696 -0.07654359 0.14038135 0.2144542 -0.22750184 -0.046299357 -0.02682766 0.046009567 -0.08152556 -0.094726905 -0.2864609 -0.04854841 -0.21016182 0.05891193 -0.044889327 0.21415365 0.2681247 0.0016108735 0.09229439 0.35283378 0.23968528 0.18366143 -0.15914834 -0.12454858 -0.2555067 -0.29631236 0.15451513 -0.05551626 -0.14406678 0.15587804 0.13381478 0.12792225 -0.100556016 0.03034092 -0.27783725 -0.20132998 -0.0675035 -0.15519086 0.27992168 -0.19193728 0.051384967 0.14895317 -0.22293575 -0.14907043 0.052382864 0.001078506 0.18218225 0.16262126 -0.2219715 -0.02247013 -0.15663342 -0.027181016 -0.16830276 -0.08198836 -0.3333535 0.16056867 -0.16100875 0.18819049 0.27016515 -0.06959296 0.0005480146 0.12650047 -0.21375129 0.31537658 -0.09319611 -0.18248019 -0.113885626 0.13147025 0.049772054 0.004578341 -0.4434009 -0.08076683 0.012274425 0.09101975 -0.22179124 -0.021883713 0.16016181 0.03030444 -0.18582912 0.060067616 0.029891782 0.12346361 -0.2909284 -0.27711505 -0.020073267 -0.6228195 -0.3185115 0.25966713 0.2944998 0.29996055 -0.09209153 0.15331534 -0.21084474 0.027502002 -0.1825431 -0.19279493 0.041306246 0.03166025 -0.20369388 0.10856299 -0.28409657 -0.0006869959 -0.18689711 -0.11024691 0.02105954 0.09963963 0.005362935 0.015130192 -0.22682065 0.009556856 0.32261136 -0.107186675 0.21196496 -0.13132933 0.11672815 -0.19962318 -0.13143772 -0.26422447 0.13416088 0.050792057 -0.39454126 -0.04097001 0.023319524 0.13080293 0.048230473 -0.13835788 -0.19340909 0.10586908 -0.14757495 0.08667494 -0.20830162 0.37039644 0.24087286 -0.015950823 0.38797936 -0.23948658 -0.31710452 0.380885 -0.011769798 -0.03903721 0.31089008 -0.03201995 -0.04201478 -0.27195162 0.190494 -0.051164374 0.118664935 0.023554655 -0.17841576 -0.04758822 -0.19490273 0.07756961 0.0860877 0.072709166 -0.20863084 0.085816 -0.08345863 0.21407318 -0.049574427 0.49160925 0.09029649 -0.17374562 0.23278052 0.022300517 -0.20460999 0.10069643 -0.31569654 -0.09955657 0.24364766 0.13643023 -0.2630388 0.0524032 -0.03968128 -0.17043953 0.07948226
부 -0.026434459 0.41828728 0.5068016 -0.41212323 0.18662332 -0.14217636 0.046614457 0.016253224 -0.057239052 0.044766076 0.027512034 -0.09092665 0.05043393 0.06460049 0.025617277 0.04315891 0.08876166 0.015526233 -0.17016014 -0.019373372 0.13448837 -0.040201247 -0.12149746 -0.39520842 0.2556256 0.09074952 -0.071282096 0.06398454 -0.23803198 0.18022914 -0.28794646 -0.053502604 -0.44336438 0.00012228957 -0.104195766 0.08862893 0.16755255 0.0013088465 -0.016927613 0.14686416 -0.09588018 0.096812084 0.2355654 -0.03258542 -0.25339636 0.3256075 0.15245716 -0.22889405 0.21169417 -0.21176362 0.05951532 0.0023299006 0.15084854 -0.23143157 0.3251565 0.5504935 -0.12517703 -0.020026524 -0.1521126 -0.0045612305 0.14762315 -0.24594755 -0.089244924 -0.04029904 0.050572187 0.07729022 -0.24512137 -0.03541306 -0.0914241 0.1607604 0.15345208 -0.14852808 0.09610616 -0.2781803 -0.10561152 -0.25188607 0.07328051 0.2794801 -0.02476861 0.023647437 0.21128102 -0.18416248 0.070702516 0.057522986 -0.13726719 -0.21130273 -0.31907743 -0.311049 -0.1253663 0.16296826 -0.18181692 0.17739235 0.32741708 -0.20306113 0.076626614 0.2890389 0.012727865 -0.09897339 -0.22461101 0.07385871 0.18637882 -0.11398573 0.16811618 -0.14070699 0.14160086 -0.06405031 -0.10879819 0.033000894 0.14872476 -0.14235926 0.07765225 0.039886326 0.14835101 0.15567452 -0.21771991 0.03701678 -0.17538413 -0.488952 0.095735535 -0.0039022742 0.1626039 0.16518456 -0.03361015 -0.4138368 -0.1303659 0.076941065 0.17094414 0.1571819 -0.014380966 -0.14552976 0.019473873 -0.11729309 -0.19567728 0.020292778 0.22705193 -0.035893936 -0.26239765 -0.18002781 0.26734537 0.2590083 -0.16428626 0.03930192 0.034130733 -0.001753012 0.20887256 -0.058873653 -0.18003808 0.12985282 -0.26008755 -0.027393471 -0.07682758 -0.049553733 -0.33923748 -0.08180769 0.045654427 0.16750793 -0.054405704 0.17184065 -0.12808292 0.0012643219 -0.3422971 -0.23928829 -0.10621464 -0.24046782 -0.41123566 -0.0076785185 0.07990876 -0.03157321 -0.29247177 -0.1160935 -0.28311783 -0.056022346 0.03841827 0.18796979 -0.19129756 -0.13194013 0.17483829 0.08722536 -0.17048807 -0.054730248 0.3205935 -0.21157233 -0.14127222 0.060885098 -0.104261436 0.13678272 -0.14111175 -0.10257421 0.18795191 -0.04501786 0.014274404 -0.13334957 -0.018471016 -0.033237636 -0.11271563 0.31806198 0.019361014 -0.37033436 0.14550643 0.17809604 0.028169893 -0.44906166 0.053754397 0.29565978 0.12221813 -0.041256662 -0.14113216 -0.21431185 -0.10954389 -0.06978333 0.15470493 0.048428845 0.145716 0.17654619 0.13226646 -0.19154906 0.060179777 -0.38817173 0.1865395 -0.06039395 0.274067 0.11913654 -0.11796848 -0.2646657 -0.17722708 -0.009181914 0.22986974 -0.22822492 0.05361024 -0.06154288 0.26109368 0.40011853 -0.31210327 -0.3491553 0.1366173 -0.24032655 0.31610793 -0.04371057 -0.20606339 -0.062049285 0.21010219 -0.01699161 0.12300171 0.18787472 0.058270745 0.07510618 0.12730423 -0.4316778 -0.08006502 0.21842298 -0.26993704 -0.06528732 0.20631638 -0.27073506 -0.41978797 -0.009971338
금 0.42443302 -0.15044905 0.032823462 -0.16533406 0.10405725 0.098044954 0.22214253 -0.077870935 -0.24509288 0.03698049 -0.13021173 -0.00961136 -0.1199353 0.18663374 0.33415377 0.15455954 0.34724784 0.25162104 0.025173433 -0.045376714 0.027033027 -0.019852472 -0.07222138 -0.35834727 -0.046357304 0.1181882 0.2542184 0.06780253 0.059417218 0.09539953 -0.11566445 0.04647166 -0.10084227 -0.04520846 0.1016752 -0.11052525 0.05062125 0.33534354 -0.08077217 0.112646334 -0.17102765 0.20042741 0.06297883 0.13046494 -0.006264874 0.09756872 0.16378182 0.09386326 0.15833911 -0.026928656 0.05168404 -0.09134083 0.11974625 0.21674341 0.109728776 -0.11628358 -0.31937373 0.015731115 -0.009351871 0.21529995 0.17746192 0.002597932 -0.060617637 -0.20953919 -0.012047414 0.14657219 -0.074245095 -0.005379942 0.22548592 0.11241327 0.0500623 0.26131636 -0.094521925 -0.21094525 0.08828916 -0.13534226 0.01281939 -0.09594103 -0.080001086 0.17317648 -0.15534033 -0.059954453 -0.10520538 0.08295753 0.08244496 0.010830241 0.088971496 -0.26340896 0.13982326 0.1435534 -0.1621724 -0.20287956 -0.11814655 -0.17721823 -0.1782035 -0.10399165 0.063423626 0.015832013 0.01982414 -0.099993356 0.11562368 0.011767014 0.17192003 -0.1521501 -0.17969961 -0.16616489 -0.096550085 0.07465333 0.002770362 0.06848188 -0.24193625 -0.019518299 0.046872456 -0.054476954 0.071074724 -0.16439146 0.27153355 -0.24837106 0.07348061 -0.10935262 0.04338081 0.18530314 0.004235872 0.05504679 0.26398352 0.1506717 -0.03441987 0.11226366 -0.18618156 0.01677757 0.1777548 0.24232905 -0.062401142 -0.16335699 -0.15608485 -0.054977436 0.21639863 -0.079236016 -0.18966351 0.013765978 -0.08914136 -0.0815703 0.25545007 -0.30499595 0.17852414 -0.09404789 0.011218258 0.023721121 0.08566835 0.2845095 0.08846192 -0.052125346 -0.10142772 0.0821926 0.16940044 -0.06698333 0.067077786 0.16459292 0.031201772 0.029084072 0.082054734 0.18899441 0.08612083 -0.19235697 0.040666822 0.04747284 -0.17326522 -0.03078311 -0.053594563 0.07539801 0.15313192 0.08193141 0.16855563 -0.060736 0.016073603 -0.01673429 0.010391165 0.06864332 -0.105015464 -0.156211 -0.04825477 -0.14851645 -0.091327004 0.0027556852 -0.038943816 0.09616535 -0.047556203 -0.14647445 0.022177542 -0.15683642 0.085328914 -0.1408465 -0.043716855 0.16274272 0.08749804 -0.19824459 0.05526752 -0.19576482 -0.023184787 0.19168942 -0.1761252 -0.17272536 -0.10132558 -0.0028737125 0.044936553 0.0994409 -0.11323505 -0.2708523 -0.12431605 0.08444137 -0.065167464 0.075043425 0.10563585 -0.0065500317 0.31802234 -0.068879865 -0.0028966996 -0.25466263 -0.24973652 -0.1571851 0.042908046 -0.110140875 0.24256013 -0.09838995 0.16456439 -0.052039646 0.04821277 0.022006918 -0.1041768 -0.116858326 -0.06841022 0.31061375 -0.30706477 0.1660164 0.14946505 -0.11656367 -0.13238412 -0.04627786 0.038847268 0.2062101 0.035442855 -0.02432778 -0.012512692 -0.043301027 0.27444232 0.042290144 -0.0105973175 -0.17272075 0.29236156 0.09561269 0.016383497 0.03122843 -0.14906742 -0.036061067 0.10889529 -0.08068639
확 0.22416727 0.035498675 0.26938927 -0.0652348 0.34461164 -0.088963054 -0.13689803 0.20858549 -0.0032602164 0.10504274 0.048472468 -0.0044054645 -0.045589697 0.24119085 0.03650239 -0.099942595 0.13308714 0.14002511 0.1504375 0.09529701 0.15060423 0.20260826 -0.056410428 0.027946038 0.35217455 0.12210064 0.25655898 0.19399112 0.08774239 0.074837 -0.42075264 0.060640052 -0.2675865 -0.07026231 -0.03551794 -0.10358529 0.031782243 -0.19646548 0.17747034 0.23173948 0.029545758 -0.06388458 0.16827406 -0.17348509 0.043527227 0.19600989 0.06519267 -0.066565886 0.1570382 -0.4565043 -0.29053238 -0.093849875 0.2007788 -0.10730108 0.410272 0.36909896 -0.10872713 0.06483618 0.016118163 -0.12515111 -0.28005862 -0.13105237 0.005255685 0.14670672 -0.08286327 -0.20752579 0.15443625 0.0072183465 -0.103973374 0.11625865 0.2297523 -0.23870045 -0.14450015 -0.09790659 -0.05706548 -0.039369937 -0.049115177 0.04813348 0.009405972 0.31203723 -0.16929294 -0.07574028 -0.1541829 -0.090978615 0.15053585 -0.33903068 0.08125954 -0.08500922 -0.045150608 0.22138901 0.12718493 -0.18445598 0.29825127 -0.19201116 -0.13905141 0.20749797 -0.30390263 0.10629247 0.092724785 -0.17493537 0.12118299 -0.10821663 -0.036057793 -0.2695523 0.19475198 -0.06347829 -0.13370213 -0.1257567 -0.13244225 -0.1455449 0.20876803 -0.18949533 0.004953626 -0.10104137 -0.22576082 -0.11033583 -0.053705648 -0.074863166 0.15742482 0.2617462 -0.03854845 0.07789139 -0.13715687 0.034498665 -0.15127453 0.25147069 0.10774494 0.31154758 0.45065433 0.08586404 -0.019433778 -0.17205453 -0.13257834 -0.19792105 0.067829154 -0.1793533 0.01617104 0.02478283 0.23728105 -0.013243502 0.15508415 -0.089113034 -0.040699974 -0.32115278 0.04953432 0.07234903 0.007907737 -0.116364256 0.038425986 0.19349873 0.2861491 -0.5223804 0.25106153 -0.17695253 0.08176706 -0.107203305 -0.026631378 0.08689837 -0.015476267 0.09637972 0.11988923 0.06203299 -0.11484493 -0.14902186 -0.25811312 0.019827137 0.06956628 -0.093012415 -0.29948097 0.13161336 -0.27676198 -0.28069198 0.22714368 -0.0641104 0.1745835 -0.16071717 -0.02206486 0.075288795 -0.08127617 0.0717642 -0.021708414 0.005401052 -0.018479766 0.0052965325 -0.21962571 0.11214169 0.05770583 0.16339827 0.14613159 0.14208622 0.19203202 -0.21593112 -0.006602674 0.06133703 -0.19243708 0.09001729 0.1130599 -0.30922967 -0.04807175 -0.02443951 -0.022248833 -0.19300632 0.2696098 0.104171224 -0.11231159 0.009498024 -0.13848348 -0.07998202 -0.23889098 0.031512924 0.014749488 0.0339376 -0.14427315 -0.005505792 -0.008701174 -0.07942956 -0.19104995 -0.16765402 0.2740932 -0.0052081114 0.10188847 0.15712413 0.18720943 0.05409637 0.04083476 0.19425796 -0.03702585 0.036415216 -0.0387259 0.1431757 -0.054582573 0.20666297 -0.31375945 -0.21802923 0.04129587 -0.25887144 0.10490965 -0.19597173 -0.2170794 -0.17203087 0.26271912 -0.22947234 0.33933464 -0.119625196 0.0717064 0.31280124 0.060186192 -0.13727967 -0.11682609 0.07364867 -0.04013365 0.24673977 0.018114008 -0.20140214 -0.13133284 -0.28118914
그 -0.057360187 -0.058553364 0.0014173811 0.10843393 -0.12107124 -0.25167775 0.015550594 -0.12688601 0.2616114 0.08515463 -0.010078061 0.032319117 -0.2142839 0.063408144 -0.02474318 0.12678732 0.04021942 -0.14780788 -0.08429801 0.032686196 0.1335037 0.10560759 0.14184496 -0.0043621548 0.05898264 0.109395854 0.36395365 0.1813113 -0.0032046714 -0.06279588 -0.049518194 0.10079598 -0.22958837 0.037683114 0.039269693 -0.027289504 -0.18669179 -0.053873904 -0.20882912 0.043499082 0.18113737 -0.011070078 -0.014107666 0.20285329 0.10785369 0.15849671 0.15466961 -0.10309096 -0.045706596 -0.040482968 -0.04126028 -0.10225131 -0.1141365 -0.16110285 -0.0592231 -0.05618816 -0.0104243895 -0.021994019 -0.015278487 0.037556082 -0.11390604 -0.02535984 -0.06554097 0.11695377 0.0926517 -0.1256506 0.08714307 0.08489004 0.08941502 0.0048609087 -0.27203166 0.05542813 0.08092205 -0.08696689 0.097290374 -0.058346946 -0.030146042 0.030813534 0.01369102 0.022324342 -0.0567696 -0.0648256 0.011529268 0.14025661 0.078500465 -0.17438789 0.034474052 -0.19527158 0.10784433 0.17743559 0.008724327 -0.00807424 -0.18372396 -0.053302635 0.14201353 0.0659855 0.09304666 -0.12684795 0.017390847 -0.22065248 0.19738439 -0.09652012 0.17019573 0.10614972 0.06950077 0.09841293 -0.16320193 0.021697769 0.12445928 -0.005491582 -0.04398119 0.03426201 0.12211832 0.091559015 -0.009257824 0.04649 0.27081445 0.16888952 0.11204148 -0.19950815 -0.12591647 0.19924425 -0.012358876 0.09418686 0.049177725 0.22446059 0.16859433 0.213106 -0.13214393 -0.08391807 0.41712028 0.019659776 -0.05701139 0.07146369 -0.017941514 -0.18680485 0.08077332 -0.004074523 -0.0025646677 -0.04420287 -0.091853224 0.015721144 -0.09473356 0.09897086 -0.1016204 -0.083929926 -0.056529738 -0.047038916 0.009298063 0.0836217 -0.056886878 -0.06996545 -0.12765065 0.1685505 -0.029495321 0.17600103 -0.0007106187 0.21259162 -0.04209865 0.08262419 -0.027394162 -0.005299999 0.109816164 -0.06622369 -0.007197471 -0.012310194 0.22224055 0.13097182 -0.08818529 0.30010796 -0.13701731 0.08728539 0.13899885 -0.040644806 -0.22874896 -0.24690329 -0.1967446 0.22862054 0.12284633 -0.12327878 -0.06918953 -0.23285222 0.119248375 0.16097194 0.023904564 -0.14564072 -0.11974005 0.12059571 0.106770016 -0.07652216 -0.046198215 -0.09991955 0.13883303 0.10009035 -0.057655092 -0.008923484 0.117980056 -0.08124133 -0.15174682 0.0112986555 -0.16697711 0.057823505 0.114987634 -0.21432088 -0.1179821 0.019817907 -0.012413218 0.16498348 -0.026163885 -0.15974969 0.19083567 -0.06828719 -0.088336594 0.048886854 0.08808544 0.04067279 -0.14089434 -0.047229156 0.021135395 -0.08458506 0.045251355 -0.121752284 -0.10707356 0.09232992 0.021105895 -0.0065085767 0.089812145 -0.10912641 -0.14236176 0.011427959 -0.12724486 0.13302433 0.027240418 0.048326954 -0.0943432 0.0307276 0.0702585 0.22794211 0.08072922 0.10779488 0.08299488 -0.07033929 0.062217202 0.10227657 0.17417201 0.1524321 -0.13437232 -0.087478854 -0.12438311 0.0650117 -0.050085533 -0.252639 -0.13019724 -0.026497308 -0.009790158 0.046041347
입 0.004139056 0.25977704 -0.17235409 -0.27359 -0.24147363 -0.035094615 -0.15795724 0.0096026 0.19845001 0.1487635 -0.13862012 0.048371576 0.05808319 -0.0923965 0.08589751 -0.10545863 0.072388075 -0.06423009 0.08506705 -0.063909575 0.05073695 0.32278487 0.0033911075 -0.15828545 -0.1551471 0.24539515 0.10613652 -0.12493852 -0.14896666 0.0657674 0.06021587 0.14685111 -0.4537683 -0.18972154 0.02246634 0.0055862777 -0.19004174 0.10523833 -0.067199774 0.0074263755 0.25570768 0.2332006 0.15904707 -0.11376363 -0.10689322 0.24627714 -0.08399261 0.09557142 0.135651 -0.36361238 -0.12357459 -0.39200643 -0.020118538 -0.029823476 0.40858018 -0.16013879 0.018014515 0.20449568 0.016646525 0.05062126 -0.1368589 -0.11735716 -0.24189463 -0.08536599 -0.029819276 -0.073872216 0.0045372625 -0.041076094 0.20734029 0.2114356 0.087438114 -0.29017434 -0.22917242 -0.15687993 0.17455678 -0.25676155 -0.0624559 0.08286103 -0.061248656 0.0020718419 -0.10706137 -0.021501247 0.26836678 0.16469659 -0.07355574 -0.13394418 -0.22370984 -0.19928591 -0.012003055 0.29020068 -0.2514964 -0.0035705883 0.32658723 0.08855649 -0.12035935 0.12882462 0.12210785 0.12047945 0.08274911 -0.11707071 0.06019359 -0.12723665 0.12390056 -0.07749775 -0.14382948 -0.030840233 -0.04992837 0.24106303 0.087958716 -0.24406058 -0.24701191 -0.086871736 0.030002156 -0.04499043 -0.035854407 -0.11600516 0.20827056 -0.11005464 -0.16117586 0.03223969 0.06823179 -0.06452541 -0.16288556 -0.030299842 0.24123558 -0.12551735 0.21628883 -0.12537496 0.25354326 -0.06534014 -0.14208426 0.1301428 -0.16466987 -0.07848506 -0.08695316 -0.16812095 0.23650612 -0.16613239 -0.27672037 -0.067165494 0.07831077 0.2042886 -0.093949646 -0.28640145 0.24676943 -0.198303 0.082133345 -0.11139996 0.08229433 0.14256002 -0.01471792 0.016860653 -0.022767343 0.08323905 0.1114483 0.13238823 -0.12048687 -0.10966588 0.037132513 0.11279593 0.1993669 0.03516809 0.09464103 0.022232685 0.06976826 -0.07570119 -0.14319363 0.06368664 0.006927554 0.2850186 -0.0017759785 -0.045034774 0.10412614 -0.06595323 0.17660001 0.015875634 -0.1994157 0.052534077 0.011443063 0.21751335 -0.27920952 -0.08618558 -0.2783296 0.119408466 -0.06662207 -0.1199961 -0.27845025 0.059068736 0.1058863 -0.29168957 0.2797643 -0.047986533 -0.05375532 -0.0053567016 0.023094371 -0.5415931 -0.009025871 0.033064123 -0.19757934 0.05907 -0.27234492 -0.16382536 0.048059683 0.09253341 -0.313563 0.27497917 -0.15666986 -0.0719203 -0.20516299 -0.048372433 0.08504686 -0.21421221 0.10159499 0.2968713 0.089588 -0.030860806 0.17211498 -0.013577768 0.06286601 0.15314864 0.011862709 0.21514916 -0.2264256 -0.17754692 0.050735172 0.13566369 -0.07086331 -0.21040405 0.001946313 -0.115046054 -0.009827558 0.24427474 0.0067965873 -0.14184976 0.012805714 -0.097903825 0.0975521 -0.0747195 -0.007703861 0.17448507 0.27706605 0.11556178 0.14643688 0.12171599 0.16414732 -0.12541527 -0.057904556 -0.17508972 -0.31481645 -0.0965621 -0.0075827804 -0.10974618 -0.12228641 -0.044910084 -0.3261135 -0.017154934
도 0.041084066 -0.055231936 -0.08745212 -0.20453234 0.18713483 -0.25328788 0.10858095 -0.183287 -0.23243295 0.068485655 -0.23235133 0.11089357 -0.069078445 0.33709458 -0.0073714484 0.2106255 0.05033676 -0.02231419 0.08092859 0.01370367 -0.058800764 -0.12218614 0.09461511 -0.2391528 0.15754157 0.060399115 0.098841034 0.039059512 -0.19933312 -0.117744796 -0.19886123 -0.03350079 -0.12244756 -0.23934855 0.046615414 -0.0756236 0.029604312 0.25441438 -0.17747092 0.11386176 0.15059955 0.09882408 -0.13662963 0.17742458 0.18024352 -0.20773186 0.25874218 0.13495286 0.19343929 -0.08293138 -0.08323707 0.038270026 -0.26902884 -0.13426928 0.16475388 -0.03288217 -0.016958958 -0.11617586 -0.004676913 0.16530848 -0.037559047 -0.13462415 0.32579318 0.11202518 -0.0021868437 0.006201867 0.025300741 0.14451899 0.2795058 0.045918416 0.15370373 0.008464034 -0.16316432 -0.06928209 -0.057895765 0.019497812 -0.11487019 -0.114804216 0.3569163 0.23560967 0.095596254 -0.21292 0.08412325 0.4301483 -0.031413626 -0.12686461 -0.07423852 0.020221945 -0.07967058 0.2502814 0.13138251 -0.09614541 0.2185197 0.0005326628 -0.19895627 0.26706365 0.008318967 0.16513854 0.11821863 -0.2175085 0.4995741 -0.017718753 -0.041453276 0.11166964 -0.04138276 -0.052088626 0.13541561 0.010300691 -0.06960433 -0.28603122 0.29467976 0.12015537 -0.15167588 -0.14635015 -0.04042133 0.1457057 -0.12500775 0.070299275 -0.088646635 0.043232433 0.071408525 -0.05260123 -0.076831065 0.24008924 -0.013709276 -0.10614733 0.19638157 0.012028496 0.22317053 -0.086849265 0.20885606 0.08610425 0.018109053 -0.2414199 -0.17170826 -0.026791787 -0.06664826 0.043786336 0.016794607 -0.117338814 0.037230246 0.17112738 0.12063237 -0.13751954 0.10236995 0.16597389 0.091014236 -0.13516083 -0.2093855 -0.15971749 0.08187598 0.24760705 -0.04500817 -0.019586762 0.24194857 0.3710575 -0.115759425 0.09382983 0.14517602 0.069327444 0.06385354 0.23018004 -0.010674004 -0.18343973 -0.14609997 -0.049402937 0.13561487 0.06648659 -0.42005968 0.008630134 -0.11666917 -0.03965424 -0.111039005 -0.06417077 0.02001827 0.07530561 0.017454676 0.17726266 -0.13926555 0.21293885 -0.13601936 -0.32493457 0.054821286 -0.041231565 -0.2836997 -0.03323097 0.29614142 -0.1766531 0.030148396 0.11146399 0.40131474 -0.07728788 0.076341204 -0.21449652 0.18725286 0.05758385 0.22922109 -0.14938326 -0.11869584 0.30138662 -0.08314175 -0.2646152 0.45039588 -0.18967596 -0.29610443 -0.102917135 -0.14327718 -0.27868846 -0.18776068 0.07041076 0.07941244 0.12918438 0.02221196 0.080369525 0.0130116055 0.0028927017 -0.23350704 0.08091928 0.08139862 0.12501504 -0.17314593 0.2644497 0.17676009 0.0108774705 0.08855746 0.014298208 0.061299197 -0.09469917 -0.18002495 -0.11472726 0.110958636 0.13168082 -0.013135718 -0.16364281 -0.10631978 0.13860981 0.1433627 0.13680126 0.18628415 -0.2001738 0.08275915 -0.0030837008 0.14727287 -0.153313 -0.048330646 0.28092536 0.29611418 -0.01151039 -0.04219604 0.003820721 0.011765728 -0.042261362 0.019170497 -0.34345755 0.00015761163 -0.089870915
카 0.057833195 0.00077207043 0.009202855 -0.19541536 0.19985299 0.060505766 -0.04291218 0.24706125 0.0058419798 0.056325886 0.22117208 -0.258095 -0.052938953 -0.060493827 -0.10745881 -0.21838354 0.35676518 -0.10044244 -0.18676153 -0.47240746 0.19794084 0.024901312 0.23522584 -0.2433669 -0.071206264 0.19121557 -0.13030533 0.14719023 -0.09105059 -0.22758906 0.16685413 0.1198308 -0.15088253 0.09866786 0.0010498103 0.28854984 -0.13208622 0.069333166 0.10416075 -0.044104416 -0.029225172 0.29328224 0.4996618 0.36398405 -0.20246209 0.31689304 -0.14987876 0.30698702 -0.28248182 0.0046948064 -0.07117528 -0.102559134 0.15759534 -0.180629 0.1786 0.17234063 -0.14581935 -0.052801248 -0.049389016 -0.09186661 -0.28727773 0.0072411713 0.09803099 0.26947853 -0.3850567 -0.16386668 0.12362841 -0.09911133 0.48916045 -0.29858288 -0.01661283 0.14919063 -0.081973046 -0.17313258 -0.0026120313 -0.30948344 -0.062001366 -0.24044041 0.021915624 0.23102817 0.0002746965 -0.08357261 -0.20516667 0.006181963 -0.30194843 -0.05055166 -0.09056978 -0.16707732 -0.0012885481 0.17386086 -0.15555821 -0.17685252 0.020433296 -0.14367902 0.4242292 -0.025402278 -0.35486248 -0.273308 -0.27535334 0.04273418 0.33535105 0.06932897 -0.050406437 -0.17756009 0.103112824 0.25910473 0.07383284 0.10471861 -0.061649986 -0.40829906 0.019817628 -0.15361352 -0.22787648 0.33170596 -0.13867721 -0.1558142 0.1077685 0.18754965 -0.27862376 -0.103832394 -0.14581418 0.20268224 0.005434627 -0.021061132 0.06951898 0.25952002 0.18541342 -0.036123406 0.08569358 -0.027300788 -0.047748506 0.1552624 -0.08905148 -0.09046333 -0.57442486 0.09578114 0.13132331 0.0079971105 0.09055685 0.06478206 0.05132221 -0.33114663 -0.057046592 0.08257527 0.26550895 0.081970565 0.210648 0.17342094 -0.0494775 -0.32914585 0.2327568 -0.036698207 -0.0922213 0.14408343 -0.105024934 0.049543366 -0.35193288 0.008936605 -0.14185484 -0.056092642 -0.16988577 -0.294159 -0.079099104 -0.055416342 -0.05583218 0.100239076 0.10380941 -0.037624817 -0.1996528 -0.10210344 -0.24534269 -0.017950194 0.2838847 0.13639075 0.22234237 -0.16479643 0.19047098 0.1294319 0.03251795 -0.32333395 0.19555177 -0.095641464 0.073836274 0.13952091 -0.22740728 0.3363927 -0.019527387 0.032578938 0.24122044 0.016694503 0.2119995 -0.20551676 0.09643915 0.02477253 0.005077156 -0.16833563 -0.0959778 -0.45122784 -0.08457618 -0.23163216 -0.0707059 -0.3925475 0.1431047 0.0819974 -0.24978545 0.08205842 -0.08714362 -0.37490377 -0.083066575 0.15932252 0.38008988 0.10158766 -0.28939897 -0.098059066 0.1617939 0.11983389 -0.055581972 -0.32135454 0.02801089 -0.08194991 -0.08556824 0.014909495 -0.03508262 0.2507509 -0.07138162 0.19243687 -0.14229344 -0.107954256 -0.23697205 0.16978142 -0.073741116 0.08608205 0.2549434 -0.02362791 -0.011572121 -0.20913637 0.16874169 0.18312868 0.12667562 0.09598463 0.034963273 -0.15138467 0.15751033 -0.013233344 -0.06984841 -0.049922746 0.28110155 -0.13345893 -0.091187306 0.29590347 0.021537995 -0.04376447 0.34344348 -0.12616448 -0.104097374 0.06608878
탁 0.011744334 0.34195462 0.367588 -0.41683537 0.15708756 0.2611363 -0.18788067 -0.10099602 -0.249629 0.044772916 -0.104941025 -0.011520679 0.023223367 0.076472715 0.05772575 -0.34046847 0.029813617 0.14538229 0.061848152 0.046928693 0.01922193 -0.06391081 -0.081423305 -0.2727089 0.33073294 -0.036459032 0.12010839 -0.04032581 -0.31724545 0.18344936 -0.39335376 -0.012216392 -0.33376414 0.02979708 0.19250654 0.2973696 0.08387252 0.10470406 -0.021515334 0.22808523 -0.06495545 0.16202495 0.26268777 -0.07971341 -0.32795623 0.2758149 0.29785794 0.050910335 0.4169697 -0.11390788 -0.22617286 -0.21493411 0.15106478 -0.021069879 0.2255575 0.5238436 -0.15801547 -0.104444444 -0.031573348 -0.096178226 -0.2457714 -0.24894904 0.26807842 0.0023953763 0.09872092 0.025990572 -0.23437329 0.19173038 0.092382446 -0.00088927004 0.23855793 -0.20771609 0.090473056 -0.17918852 0.24932535 -0.3214833 0.010123103 0.06380723 0.14529005 0.035035502 0.23960344 -0.15770343 -0.09004457 0.108357646 -0.063621275 -0.5369914 -0.16238168 -0.40700746 0.040659413 0.09037671 -0.11305031 0.41227463 0.3015025 -0.15635268 0.017037516 0.75028604 -0.31671402 -0.2694604 0.030169362 -0.0048706043 0.030915309 -0.15727717 0.3399293 -0.06565395 0.09271384 0.029838802 -0.022341799 0.34918812 -0.0041745473 -0.026309699 0.10994938 0.051456444 0.16779767 0.28438202 -0.2785851 0.30935487 -0.22920185 -0.49257705 -0.30988365 -0.04406218 0.15359975 0.10406184 -0.22807272 -0.17278896 -0.079448424 0.363019 0.19530068 0.3142942 -0.20458196 0.016710898 0.027330367 -0.07654644 -0.058407135 -0.07073293 0.003234038 0.066360585 -0.26986387 0.011481843 0.07543301 0.4754811 -0.14351657 -0.18079568 -0.028268544 -0.18696015 0.010136367 -0.25302768 0.079234466 0.17688492 0.065438144 0.091763906 0.21348763 -0.23397823 -0.13781087 -0.0072210697 0.11250067 -0.09005493 -0.05542517 0.17585482 0.17399281 0.058935456 -0.22307208 -0.24343067 0.11897282 -0.19343427 -0.41542414 0.018094989 -0.06094769 -0.035516143 -0.022561248 0.16920048 -0.5330791 -0.15766977 -0.25386584 0.34083834 0.3201207 0.05451675 0.058223035 0.03170474 -0.33535412 0.315562 0.26875505 -0.16432934 -0.1012073 0.21899194 -0.44485456 0.3131459 -0.24207805 -0.017584288 -0.3555469 0.06741091 -0.023123654 -0.100411065 0.11926329 -0.033461038 0.06462416 0.046598982 0.122718826 -0.5568474 -0.116988435 0.097848944 -0.1630079 -0.44936505 0.2901311 0.34592965 0.34487495 -0.14950083 -0.017237952 -0.17517522 -0.19013566 -0.05439491 0.46655983 0.13409144 -0.028527921 0.60070294 0.03226255 0.24426268 -0.10374326 -0.37923422 0.20712192 -0.105283625 0.13008726 0.2682098 0.14277364 -0.019758435 -0.18565743 0.24839698 -0.104698 -0.06376804 -0.14245304 -0.002505302 0.038329773 0.10666069 -0.56516033 -0.23409395 -0.01162489 -0.33293304 0.5022691 0.15121031 -0.07986982 0.18701519 0.29842615 -0.07812947 -0.060989663 -0.20161682 0.10106002 0.08752235 0.17979942 -0.24181701 -0.010816355 0.18942091 -0.18808757 -0.08141069 0.14517808 -0.1314948 -0.33351833 0.03501434
품 -0.13086441 0.036157142 -0.0065610213 0.024731489 -0.019484663 -0.22222553 0.109408215 -0.19748354 -0.065138124 0.19007991 0.28354713 0.013306931 0.39146942 0.18908244 0.1562439 -0.14505908 -0.07598312 -0.24902108 -0.11605796 -0.24290149 -0.34763712 -0.1404478 -0.0016654226 -0.23397869 0.27011 -0.11846494 0.16007149 -0.09323468 0.088661246 0.03252721 -0.3414735 -0.22048521 -0.10224324 0.09718425 -0.28945827 -0.032057524 0.077943236 0.09088338 0.21991658 -0.05509959 0.27638245 0.06381587 0.028114537 0.20773232 -0.18846345 -0.16865325 -0.105762064 0.089681394 0.111579046 0.19476567 0.22413631 0.03608026 0.047547713 0.13220133 0.24977465 0.15467893 -0.07032411 -0.21203361 -0.025846386 0.082485564 -0.18857312 -0.21496753 -0.087634645 -0.22557247 -0.08377687 0.27940807 -0.21944971 0.295343 0.16971855 0.13022348 0.24372798 -0.002783251 -0.026343651 -0.048797615 0.04122753 0.039010588 -0.3126589 -0.4814816 0.0449564 -0.025925297 -0.27253032 -0.1038438 -0.16848123 0.179428 -0.03249614 -0.4041163 -0.03393845 -0.17287065 0.0824974 -0.14145154 -0.071944006 0.00077336805 0.13710839 0.012547063 0.13529779 0.061117653 0.050380085 0.30901062 0.0020687608 0.022410247 0.16010754 0.10794975 0.28664386 0.03727331 0.082532 0.09167024 0.12452968 0.084585056 0.2725724 0.0005259104 -0.10962122 0.19350938 0.18436906 -0.06166226 -0.05835731 -0.104147874 0.033752874 -0.19843957 -0.13321339 0.15017866 0.034429565 0.03531278 0.09296675 -0.04982976 -0.20057057 -0.09129512 -0.06460851 0.26996586 -0.055135954 -0.030850433 0.13643476 0.22189645 -0.23619811 0.22400022 0.1158468 -0.18104734 0.13012852 -0.10331576 0.0662359 0.0736161 0.31237105 -0.2218995 0.030113943 -0.23447724 0.10717538 -0.10700253 -0.011735114 -0.27878413 -0.08802261 0.29046792 0.05113405 -0.1301314 -0.07396855 0.28259626 -0.31107882 -0.10465137 -0.17250897 0.12501334 0.09708706 0.26552042 -0.09671882 -0.022191107 -0.15939337 -0.00074921094 0.0038441943 -0.15957215 0.06284867 -0.19894594 -0.0880737 0.015660265 -0.051617645 -0.21166 0.1713278 -0.45741832 0.097496174 -0.17094252 0.053781252 -0.38919932 -0.034932666 0.07832866 0.050331756 -0.18034643 0.009282233 0.048685905 -0.29018793 -0.14035925 0.2194876 -0.3001011 0.03643612 0.14165452 -0.06926016 -0.010569147 0.1655521 0.123300165 -0.27287006 0.04579664 0.019774599 -0.08430743 0.15892246 0.0383513 -0.042081576 -0.3580088 0.26503736 -0.22879481 -0.025866304 0.15872449 -0.016027655 0.3041962 -0.11893111 0.097370654 0.1378086 -0.070278406 0.14357425 0.053584944 0.19498931 0.07208355 -0.13981225 -0.27247292 0.0029261482 0.31150275 -0.06737836 0.18489304 0.21956763 -0.05902889 0.03384595 0.023989255 -0.40964413 -0.057609666 -0.16347092 0.1919865 -0.18672492 0.0077528246 -0.12826216 0.17219107 0.060459446 -0.21248487 0.17016198 -0.20926939 -0.28723863 -0.19320045 0.028362073 0.29414973 -0.016946135 0.22338305 -0.28349748 0.11594603 0.40998837 -0.37605917 0.04927638 0.06031741 -0.1343964 -0.08234824 0.19723025 -0.21877415 -0.2493536 -0.20305318
